{"learner":{"attributes":{"best_iteration":"578","best_score":"0.07229696757202551","scikit_learn":"{\"_estimator_type\": \"classifier\"}"},"feature_names":["magnitude","depth_km","latitude","longitude","eta","log10_eta","is_strong_link","has_parent","parent_time_gap_days","parent_distance_km","parent_magnitude","parent_depth_km","event_year","event_month","event_dayofyear","event_hour","event_weekday","events_past_1d","local_events_10km_past_1d","local_max_mag_10km_past_1d","local_log10_energy_10km_past_1d","local_events_25km_past_1d","local_max_mag_25km_past_1d","local_log10_energy_25km_past_1d","local_events_50km_past_1d","local_max_mag_50km_past_1d","local_log10_energy_50km_past_1d","local_events_100km_past_1d","local_max_mag_100km_past_1d","local_log10_energy_100km_past_1d","events_past_7d","local_events_10km_past_7d","local_max_mag_10km_past_7d","local_log10_energy_10km_past_7d","local_events_25km_past_7d","local_max_mag_25km_past_7d","local_log10_energy_25km_past_7d","local_events_50km_past_7d","local_max_mag_50km_past_7d","local_log10_energy_50km_past_7d","local_events_100km_past_7d","local_max_mag_100km_past_7d","local_log10_energy_100km_past_7d","events_past_30d","local_events_10km_past_30d","local_max_mag_10km_past_30d","local_log10_energy_10km_past_30d","local_events_25km_past_30d","local_max_mag_25km_past_30d","local_log10_energy_25km_past_30d","local_events_50km_past_30d","local_max_mag_50km_past_30d","local_log10_energy_50km_past_30d","local_events_100km_past_30d","local_max_mag_100km_past_30d","local_log10_energy_100km_past_30d","nearest_recent_event_distance_km_past_30d","nearest_recent_event_magnitude_past_30d","nearest_recent_event_age_days_past_30d"],"feature_types":["float","float","float","float","float","float","int","int","float","float","float","float","int","int","int","int","int","int","int","float","float","int","float","float","int","float","float","int","float","float","int","int","float","float","int","float","float","int","float","float","int","float","float","int","int","float","float","int","float","float","int","float","float","int","float","float","float","float","float"],"gradient_booster":{"model":{"cats":{"enc":[],"feature_segments":[],"sorted_idx":[]},"gbtree_model_param":{"num_parallel_tree":"1","num_trees":"679"},"iteration_indptr":[0,1,2,3,4,5,6,7,8,9,10,11,12,13,14,15,16,17,18,19,20,21,22,23,24,25,26,27,28,29,30,31,32,33,34,35,36,37,38,39,40,41,42,43,44,45,46,47,48,49,50,51,52,53,54,55,56,57,58,59,60,61,62,63,64,65,66,67,68,69,70,71,72,73,74,75,76,77,78,79,80,81,82,83,84,85,86,87,88,89,90,91,92,93,94,95,96,97,98,99,100,101,102,103,104,105,106,107,108,109,110,111,112,113,114,115,116,117,118,119,120,121,122,123,124,125,126,127,128,129,130,131,132,133,134,135,136,137,138,139,140,141,142,143,144,145,146,147,148,149,150,151,152,153,154,155,156,157,158,159,160,161,162,163,164,165,166,167,168,169,170,171,172,173,174,175,176,177,178,179,180,181,182,183,184,185,186,187,188,189,190,191,192,193,194,195,196,197,198,199,200,201,202,203,204,205,206,207,208,209,210,211,212,213,214,215,216,217,218,219,220,221,222,223,224,225,226,227,228,229,230,231,232,233,234,235,236,237,238,239,240,241,242,243,244,245,246,247,248,249,250,251,252,253,254,255,256,257,258,259,260,261,262,263,264,265,266,267,268,269,270,271,272,273,274,275,276,277,278,279,280,281,282,283,284,285,286,287,288,289,290,291,292,293,294,295,296,297,298,299,300,301,302,303,304,305,306,307,308,309,310,311,312,313,314,315,316,317,318,319,320,321,322,323,324,325,326,327,328,329,330,331,332,333,334,335,336,337,338,339,340,341,342,343,344,345,346,347,348,349,350,351,352,353,354,355,356,357,358,359,360,361,362,363,364,365,366,367,368,369,370,371,372,373,374,375,376,377,378,379,380,381,382,383,384,385,386,387,388,389,390,391,392,393,394,395,396,397,398,399,400,401,402,403,404,405,406,407,408,409,410,411,412,413,414,415,416,417,418,419,420,421,422,423,424,425,426,427,428,429,430,431,432,433,434,435,436,437,438,439,440,441,442,443,444,445,446,447,448,449,450,451,452,453,454,455,456,457,458,459,460,461,462,463,464,465,466,467,468,469,470,471,472,473,474,475,476,477,478,479,480,481,482,483,484,485,486,487,488,489,490,491,492,493,494,495,496,497,498,499,500,501,502,503,504,505,506,507,508,509,510,511,512,513,514,515,516,517,518,519,520,521,522,523,524,525,526,527,528,529,530,531,532,533,534,535,536,537,538,539,540,541,542,543,544,545,546,547,548,549,550,551,552,553,554,555,556,557,558,559,560,561,562,563,564,565,566,567,568,569,570,571,572,573,574,575,576,577,578,579,580,581,582,583,584,585,586,587,588,589,590,591,592,593,594,595,596,597,598,599,600,601,602,603,604,605,606,607,608,609,610,611,612,613,614,615,616,617,618,619,620,621,622,623,624,625,626,627,628,629,630,631,632,633,634,635,636,637,638,639,640,641,642,643,644,645,646,647,648,649,650,651,652,653,654,655,656,657,658,659,660,661,662,663,664,665,666,667,668,669,670,671,672,673,674,675,676,677,678,679],"tree_info":[0,0,0,0,0,0,0,0,0,0,0,0,0,0,0,0,0,0,0,0,0,0,0,0,0,0,0,0,0,0,0,0,0,0,0,0,0,0,0,0,0,0,0,0,0,0,0,0,0,0,0,0,0,0,0,0,0,0,0,0,0,0,0,0,0,0,0,0,0,0,0,0,0,0,0,0,0,0,0,0,0,0,0,0,0,0,0,0,0,0,0,0,0,0,0,0,0,0,0,0,0,0,0,0,0,0,0,0,0,0,0,0,0,0,0,0,0,0,0,0,0,0,0,0,0,0,0,0,0,0,0,0,0,0,0,0,0,0,0,0,0,0,0,0,0,0,0,0,0,0,0,0,0,0,0,0,0,0,0,0,0,0,0,0,0,0,0,0,0,0,0,0,0,0,0,0,0,0,0,0,0,0,0,0,0,0,0,0,0,0,0,0,0,0,0,0,0,0,0,0,0,0,0,0,0,0,0,0,0,0,0,0,0,0,0,0,0,0,0,0,0,0,0,0,0,0,0,0,0,0,0,0,0,0,0,0,0,0,0,0,0,0,0,0,0,0,0,0,0,0,0,0,0,0,0,0,0,0,0,0,0,0,0,0,0,0,0,0,0,0,0,0,0,0,0,0,0,0,0,0,0,0,0,0,0,0,0,0,0,0,0,0,0,0,0,0,0,0,0,0,0,0,0,0,0,0,0,0,0,0,0,0,0,0,0,0,0,0,0,0,0,0,0,0,0,0,0,0,0,0,0,0,0,0,0,0,0,0,0,0,0,0,0,0,0,0,0,0,0,0,0,0,0,0,0,0,0,0,0,0,0,0,0,0,0,0,0,0,0,0,0,0,0,0,0,0,0,0,0,0,0,0,0,0,0,0,0,0,0,0,0,0,0,0,0,0,0,0,0,0,0,0,0,0,0,0,0,0,0,0,0,0,0,0,0,0,0,0,0,0,0,0,0,0,0,0,0,0,0,0,0,0,0,0,0,0,0,0,0,0,0,0,0,0,0,0,0,0,0,0,0,0,0,0,0,0,0,0,0,0,0,0,0,0,0,0,0,0,0,0,0,0,0,0,0,0,0,0,0,0,0,0,0,0,0,0,0,0,0,0,0,0,0,0,0,0,0,0,0,0,0,0,0,0,0,0,0,0,0,0,0,0,0,0,0,0,0,0,0,0,0,0,0,0,0,0,0,0,0,0,0,0,0,0,0,0,0,0,0,0,0,0,0,0,0,0,0,0,0,0,0,0,0,0,0,0,0,0,0,0,0,0,0,0,0,0,0,0,0,0,0,0,0,0,0,0,0,0,0,0,0,0,0,0,0,0,0,0,0,0,0,0,0,0,0,0,0,0,0,0,0,0,0,0,0,0,0,0,0,0,0,0,0,0,0,0,0,0,0,0,0,0,0,0,0,0,0,0,0,0,0,0,0,0,0,0,0,0,0,0,0,0,0,0,0,0,0,0,0,0,0,0,0,0,0,0,0,0,0,0,0,0,0,0,0,0,0,0,0,0,0,0,0,0,0,0,0,0,0],"trees":[{"base_weights":[4.875176E-3,-1.8742503E0,1.1343317E0,-1.9771415E0,1.3360239E0,1.2909858E0,-1.114898E0,-1.9948347E0,-1.267198E0,5.372314E-1,1.705637E0,5.610498E-1,1.7067178E0,-1.505065E0,1.7657758E0,-5.994299E-2,-5.6452036E-2,-5.9404466E-2,-2.544848E-2,-5.6799997E-2,3.0031113E-2,3.9437227E-2,5.8029212E-2,6.0496936E-3,5.660487E-2,5.250629E-2,1.714439E-2,-4.958908E-2,4.3088805E-2,5.470035E-2,-4.1538462E-2],"categories":[],"categories_nodes":[],"categories_segments":[],"categories_sizes":[],"default_left":[0,0,0,0,0,0,0,0,1,0,0,0,0,0,0,0,0,0,0,0,0,0,0,0,0,0,0,0,0,0,0],"id":0,"left_children":[1,3,5,7,9,11,13,15,17,19,21,23,25,27,29,-1,-1,-1,-1,-1,-1,-1,-1,-1,-1,-1,-1,-1,-1,-1,-1],"loss_changes":[6.5145332E4,3.808793E3,6.7564746E3,1.3772266E2,1.04913025E2,5.4380586E3,1.4062802E3,2.65625E-1,8.022684E1,1.3136761E2,1.9330017E1,3.099306E3,5.628008E2,4.810952E2,2.9625916E1,0E0,0E0,0E0,0E0,0E0,0E0,0E0,0E0,0E0,0E0,0E0,0E0,0E0,0E0,0E0,0E0],"parents":[2147483647,0,0,1,1,2,2,3,3,4,4,5,5,6,6,7,7,8,8,9,9,10,10,11,11,12,12,13,13,14,14],"right_children":[2,4,6,8,10,12,14,16,18,20,22,24,26,28,30,-1,-1,-1,-1,-1,-1,-1,-1,-1,-1,-1,-1,-1,-1,-1,-1],"split_conditions":[1E0,4.9E0,8.649305E0,4.2E0,5.3E0,6.8E0,8.2424904E1,3.8E0,5.9E0,4E0,5.9E0,9.329028E1,3.51E2,4.5E0,1.7009027E1,-5.994299E-2,-5.6452036E-2,-5.9404466E-2,-2.544848E-2,-5.6799997E-2,3.0031113E-2,3.9437227E-2,5.8029212E-2,6.0496936E-3,5.660487E-2,5.250629E-2,1.714439E-2,-4.958908E-2,4.3088805E-2,5.470035E-2,-4.1538462E-2],"split_indices":[6,0,8,0,0,41,9,0,41,19,0,9,14,0,8,0,0,0,0,0,0,0,0,0,0,0,0,0,0,0,0],"split_type":[0,0,0,0,0,0,0,0,0,0,0,0,0,0,0,0,0,0,0,0,0,0,0,0,0,0,0,0,0,0,0],"sum_hessian":[3.0692318E4,1.1522004E4,1.9170314E4,1.1164557E4,3.5744662E2,1.7922477E4,1.247837E3,1.0891315E4,2.7324112E2,1.138507E2,2.4359593E2,6.504437E3,1.141804E4,1.0994076E3,1.4842949E2,1.0569521E4,3.2179382E2,9.975E1,1.734911E2,1.775E1,9.61007E1,9.237262E1,1.5122331E2,5.1181553E3,1.3862817E3,1.0996225E4,4.2181512E2,1.0471884E3,5.221919E1,1.4617949E2,2.25E0],"tree_param":{"num_deleted":"0","num_feature":"59","num_nodes":"31","size_leaf_vector":"1"}},{"base_weights":[2.2443864E-3,-1.8229817E0,1.1015716E0,-7.222194E-1,-1.8368822E0,1.2552679E0,-1.0585723E0,-1.4665147E0,1.05327964E-1,-1.8439976E0,-6.680912E-1,1.07528895E-1,1.5370096E0,7.5867224E-1,-1.4425045E0,-5.037366E-2,3.9299514E-2,2.7342824E-2,-3.6849264E-2,-4.5004807E-2,-5.5930465E-2,4.145525E-2,-5.706153E-2,-1.7214129E-2,3.5345897E-2,3.2309666E-2,5.1971983E-2,-5.705202E-2,3.6800824E-2,-5.296678E-3,-4.7700703E-2],"categories":[],"categories_nodes":[],"categories_segments":[],"categories_sizes":[],"default_left":[0,0,0,1,0,0,0,1,0,0,0,0,0,0,0,0,0,0,0,0,0,0,0,0,0,0,0,0,0,0,0],"id":1,"left_children":[1,3,5,7,9,11,13,15,17,19,21,23,25,27,29,-1,-1,-1,-1,-1,-1,-1,-1,-1,-1,-1,-1,-1,-1,-1,-1],"loss_changes":[6.163017E4,1.7533594E2,6.36566E3,8.985301E1,9.358203E1,5.7869434E3,8.8986523E2,4.7498352E1,7.625521E1,7.649609E1,1.8109984E2,2.5745469E3,1.2896797E3,2.798021E2,1.9618506E2,0E0,0E0,0E0,0E0,0E0,0E0,0E0,0E0,0E0,0E0,0E0,0E0,0E0,0E0,0E0,0E0],"parents":[2147483647,0,0,1,1,2,2,3,3,4,4,5,5,6,6,7,7,8,8,9,9,10,10,11,11,12,12,13,13,14,14],"right_children":[2,4,6,8,10,12,14,16,18,20,22,24,26,28,30,-1,-1,-1,-1,-1,-1,-1,-1,-1,-1,-1,-1,-1,-1,-1,-1],"split_conditions":[1E0,3.47E0,8.35625E0,8.611362E0,1.96E2,5.2E0,7.891893E0,1.4861431E0,5E1,5.57E0,5.220571E0,6.8E0,6.8E0,3.6996E4,2.8E1,-5.037366E-2,3.9299514E-2,2.7342824E-2,-3.6849264E-2,-4.5004807E-2,-5.5930465E-2,4.145525E-2,-5.706153E-2,-1.7214129E-2,3.5345897E-2,3.2309666E-2,5.1971983E-2,-5.705202E-2,3.6800824E-2,-5.296678E-3,-4.7700703E-2],"split_indices":[6,2,8,39,1,10,23,58,24,2,23,28,54,17,18,0,0,0,0,0,0,0,0,0,0,0,0,0,0,0,0],"split_type":[0,0,0,0,0,0,0,0,0,0,0,0,0,0,0,0,0,0,0,0,0,0,0,0,0,0,0,0,0,0,0],"sum_hessian":[3.0712943E4,1.1544617E4,1.9168324E4,1.4462881E2,1.1399988E4,1.7895465E4,1.2728606E3,7.573801E1,6.889081E1,1.1330434E4,6.955507E1,3.527357E3,1.4368107E4,2.2184383E2,1.0510167E3,7.071809E1,5.019922E0,4.3135E1,2.575581E1,6.3733203E2,1.0693102E4,2.6091072E1,4.3463997E1,2.1558916E3,1.3714653E3,4.2853374E3,1.00827705E4,3.27302E1,1.8911362E2,1.0992052E2,9.410962E2],"tree_param":{"num_deleted":"0","num_feature":"59","num_nodes":"31","size_leaf_vector":"1"}},{"base_weights":[-2.6799568E-3,-1.7662102E0,1.061107E0,-1.870484E0,1.1777492E0,1.2139295E0,-1.0624181E0,-1.8860575E0,-1.1800592E0,2.9112342E-1,1.6886681E0,5.1965386E-1,1.6166469E0,-1.4744557E0,1.4651865E0,-5.6674298E-2,-5.3409293E-2,-1.6212277E-2,-4.94563E-2,1.913237E-2,-3.6518406E-2,3.7720077E-2,5.753676E-2,5.319488E-3,5.403147E-2,4.9759563E-2,1.6174844E-2,-4.814784E-2,4.232383E-2,4.9189445E-2,-5.257358E-2],"categories":[],"categories_nodes":[],"categories_segments":[],"categories_sizes":[],"default_left":[0,0,0,0,0,0,0,0,0,0,0,0,0,0,0,0,0,0,0,0,0,0,0,0,0,0,0,0,0,0,0],"id":2,"left_children":[1,3,5,7,9,11,13,15,17,19,21,23,25,27,29,-1,-1,-1,-1,-1,-1,-1,-1,-1,-1,-1,-1,-1,-1,-1,-1],"loss_changes":[5.7347188E4,3.5329102E3,6.188965E3,1.1721484E2,1.7801355E2,4.9724707E3,1.3358617E3,1.8359375E-1,7.333975E1,7.672955E1,2.2285522E1,2.8648164E3,5.0859766E2,4.1695557E2,1.0391589E2,0E0,0E0,0E0,0E0,0E0,0E0,0E0,0E0,0E0,0E0,0E0,0E0,0E0,0E0,0E0,0E0],"parents":[2147483647,0,0,1,1,2,2,3,3,4,4,5,5,6,6,7,7,8,8,9,9,10,10,11,11,12,12,13,13,14,14],"right_children":[2,4,6,8,10,12,14,16,18,20,22,24,26,28,30,-1,-1,-1,-1,-1,-1,-1,-1,-1,-1,-1,-1,-1,-1,-1,-1],"split_conditions":[1E0,4.8E0,8.35625E0,4.2E0,5.3E0,6.8E0,7.122708E1,3.8E0,1.6E1,5E0,5.9E0,9.329028E1,3.51E2,4.5E0,1.7009027E1,-5.6674298E-2,-5.3409293E-2,-1.6212277E-2,-4.94563E-2,1.913237E-2,-3.6518406E-2,3.7720077E-2,5.753676E-2,5.319488E-3,5.403147E-2,4.9759563E-2,1.6174844E-2,-4.814784E-2,4.232383E-2,4.9189445E-2,-5.257358E-2],"split_indices":[6,0,8,0,0,28,9,0,11,16,0,9,14,0,8,0,0,0,0,0,0,0,0,0,0,0,0,0,0,0,0],"split_type":[0,0,0,0,0,0,0,0,0,0,0,0,0,0,0,0,0,0,0,0,0,0,0,0,0,0,0,0,0,0,0],"sum_hessian":[3.056653E4,1.1500504E4,1.9066025E4,1.1107448E4,3.9305646E2,1.7786428E4,1.2795968E3,1.0860736E4,2.4671132E2,1.4426875E2,2.487877E2,6.53042E3,1.1256008E4,1.1005991E3,1.7899762E2,1.0536406E4,3.2433038E2,1.0521221E2,1.414991E2,1.17780655E2,2.6488094E1,8.8583916E1,1.6020378E2,5.154486E3,1.3759341E3,1.0833143E4,4.2286545E2,1.0534073E3,4.7191788E1,1.7025665E2,8.740965E0],"tree_param":{"num_deleted":"0","num_feature":"59","num_nodes":"31","size_leaf_vector":"1"}},{"base_weights":[-8.840749E-3,-1.719785E0,1.0279506E0,-1.8249227E0,1.1768454E0,1.4055724E0,3.3076328E-1,-1.8370206E0,-1.2619957E0,3.3946374E-1,1.6687335E0,7.6296216E-1,1.6439171E0,-5.831117E-1,1.4722756E0,-5.5201728E-2,-5.1931683E-2,-5.5570845E-2,-2.2302292E-2,-2.776067E-2,2.2649158E-2,4.022061E-2,5.5849772E-2,-2.0668989E-3,3.646217E-2,5.0297856E-2,-5.3673446E-2,-3.4303173E-2,3.2253034E-2,2.8474288E-2,5.174329E-2],"categories":[],"categories_nodes":[],"categories_segments":[],"categories_sizes":[],"default_left":[0,0,0,0,0,0,0,0,1,0,0,0,0,0,0,0,0,0,0,0,0,0,0,0,0,0,0,0,0,0,0],"id":3,"left_children":[1,3,5,7,9,11,13,15,17,19,21,23,25,27,29,-1,-1,-1,-1,-1,-1,-1,-1,-1,-1,-1,-1,-1,-1,-1,-1],"loss_changes":[5.3786598E4,3.4864414E3,4.970199E3,7.287109E1,1.6474097E2,1.8744668E3,6.9221416E3,2.9296875E-1,7.071652E1,7.940677E1,1.3488647E1,1.2478279E3,1.0050762E3,3.4255361E3,3.8806104E2,0E0,0E0,0E0,0E0,0E0,0E0,0E0,0E0,0E0,0E0,0E0,0E0,0E0,0E0,0E0,0E0],"parents":[2147483647,0,0,1,1,2,2,3,3,4,4,5,5,6,6,7,7,8,8,9,9,10,10,11,11,12,12,13,13,14,14],"right_children":[2,4,6,8,10,12,14,16,18,20,22,24,26,28,30,-1,-1,-1,-1,-1,-1,-1,-1,-1,-1,-1,-1,-1,-1,-1,-1],"split_conditions":[1E0,4.8E0,1.7550207E-7,4.2E0,5.3E0,6.8E0,4.4704243E1,3.8E0,9.443338E0,5.8E0,5.9E0,1.1E1,2.411E3,7.203E4,8.6635765E1,-5.5201728E-2,-5.1931683E-2,-5.5570845E-2,-2.2302292E-2,-2.776067E-2,2.2649158E-2,4.022061E-2,5.5849772E-2,-2.0668989E-3,3.646217E-2,5.0297856E-2,-5.3673446E-2,-3.4303173E-2,3.2253034E-2,2.8474288E-2,5.174329E-2],"split_indices":[6,0,4,0,0,54,9,0,42,54,0,11,24,30,9,0,0,0,0,0,0,0,0,0,0,0,0,0,0,0,0],"split_type":[0,0,0,0,0,0,0,0,0,0,0,0,0,0,0,0,0,0,0,0,0,0,0,0,0,0,0,0,0,0,0],"sum_hessian":[3.0319236E4,1.14399795E4,1.8879256E4,1.1039648E4,4.0033105E2,1.2245589E4,6.6336675E3,1.0805168E4,2.344804E2,1.4876544E2,2.515656E2,3.314213E3,8.931376E3,3.68445E3,2.9492175E3,1.0488214E4,3.1695474E2,1.0844878E2,1.26031624E2,3.6483013E1,1.1228243E2,9.610316E1,1.5546243E2,1.1678541E3,2.1463586E3,8.847669E3,8.3706924E1,2.754116E3,9.3033417E2,9.616415E2,1.9875762E3],"tree_param":{"num_deleted":"0","num_feature":"59","num_nodes":"31","size_leaf_vector":"1"}},{"base_weights":[-3.7304112E-3,-1.6691638E0,1.0046517E0,-1.7752812E0,1.1279675E0,1.1457427E0,-1.0145231E0,-1.7918662E0,-1.0667126E0,3.2454512E-1,1.606113E0,7.1362354E-2,1.411756E0,-1.398332E0,1.6426976E0,-5.384518E-2,-5.0683614E-2,-1.1982639E-2,-4.725877E-2,-2.7780235E-2,2.1642093E-2,3.7306987E-2,5.440181E-2,-1.7240046E-2,3.2181095E-2,2.9544272E-2,4.783249E-2,-4.6277057E-2,4.210296E-2,5.1021017E-2,-4.149122E-2],"categories":[],"categories_nodes":[],"categories_segments":[],"categories_sizes":[],"default_left":[0,0,0,0,0,0,0,0,0,1,0,0,0,0,0,0,0,0,0,0,0,0,0,0,0,0,0,0,0,0,0],"id":4,"left_children":[1,3,5,7,9,11,13,15,17,19,21,23,25,27,29,-1,-1,-1,-1,-1,-1,-1,-1,-1,-1,-1,-1,-1,-1,-1,-1],"loss_changes":[5.103289E4,3.4036582E3,5.393375E3,1.2785156E2,1.6062903E2,5.056207E3,1.2635864E3,2.4609375E-1,8.591278E1,7.8965256E1,1.748883E1,2.272616E3,1.1043242E3,4.3908618E2,2.9826355E1,0E0,0E0,0E0,0E0,0E0,0E0,0E0,0E0,0E0,0E0,0E0,0E0,0E0,0E0,0E0,0E0],"parents":[2147483647,0,0,1,1,2,2,3,3,4,4,5,5,6,6,7,7,8,8,9,9,10,10,11,11,12,12,13,13,14,14],"right_children":[2,4,6,8,10,12,14,16,18,20,22,24,26,28,30,-1,-1,-1,-1,-1,-1,-1,-1,-1,-1,-1,-1,-1,-1,-1,-1],"split_conditions":[1E0,4.8E0,8.649305E0,4.2E0,5.3E0,5.2E0,8.2424904E1,3.8E0,1.6E1,5.9E0,5.9E0,6.8E0,6.8E0,4.5E0,1.7009027E1,-5.384518E-2,-5.0683614E-2,-1.1982639E-2,-4.725877E-2,-2.7780235E-2,2.1642093E-2,3.7306987E-2,5.440181E-2,-1.7240046E-2,3.2181095E-2,2.9544272E-2,4.783249E-2,-4.6277057E-2,4.210296E-2,5.1021017E-2,-4.149122E-2],"split_indices":[6,0,8,0,0,10,9,0,11,41,0,28,41,0,8,0,0,0,0,0,0,0,0,0,0,0,0,0,0,0,0],"split_type":[0,0,0,0,0,0,0,0,0,0,0,0,0,0,0,0,0,0,0,0,0,0,0,0,0,0,0,0,0,0,0],"sum_hessian":[3.0385697E4,1.145918E4,1.8926518E4,1.1040685E4,4.184952E2,1.7690795E4,1.2357222E3,1.0786677E4,2.5400719E2,1.5676447E2,2.6173074E2,3.5111516E3,1.4179644E4,1.0801755E3,1.5554672E2,1.0466314E4,3.2036273E2,1.1063364E2,1.4337355E2,3.7443043E1,1.1932143E2,9.775346E1,1.6397728E2,2.134483E3,1.3766686E3,4.2506494E3,9.928995E3,1.0277174E3,5.2458138E1,1.5305069E2,2.4960394E0],"tree_param":{"num_deleted":"0","num_feature":"59","num_nodes":"31","size_leaf_vector":"1"}},{"base_weights":[1.2592113E-2,-1.6353375E0,9.922369E-1,-1.7369018E0,1.1025515E0,1.1128364E0,-1.2321903E0,-1.7501211E0,-1.1458933E0,3.03358E-1,1.5678276E0,1.1396086E-1,1.3596125E0,-1.4370053E0,1.6448735E0,-5.259194E-2,-4.9478535E-2,-4.9700897E-2,-1.4490668E-2,2.685912E-2,-1.5647162E-2,3.7360735E-2,5.2632697E-2,-1.602914E-2,3.2892127E-2,2.8816951E-2,4.5962077E-2,-4.8262093E-2,4.334509E-2,5.092546E-2,2.6899645E-2],"categories":[],"categories_nodes":[],"categories_segments":[],"categories_sizes":[],"default_left":[0,0,0,0,0,0,0,0,1,0,0,0,0,0,0,0,0,0,0,0,0,0,0,0,0,0,0,0,0,0,0],"id":5,"left_children":[1,3,5,7,9,11,13,15,17,19,21,23,25,27,29,-1,-1,-1,-1,-1,-1,-1,-1,-1,-1,-1,-1,-1,-1,-1,-1],"loss_changes":[4.9178445E4,3.1601035E3,5.126615E3,8.355469E1,1.508122E2,4.4671777E3,5.8161804E2,2.890625E-1,8.13082E1,7.41767E1,1.3273682E1,2.2879377E3,9.9864453E2,4.567511E2,1.069458E0,0E0,0E0,0E0,0E0,0E0,0E0,0E0,0E0,0E0,0E0,0E0,0E0,0E0,0E0,0E0,0E0],"parents":[2147483647,0,0,1,1,2,2,3,3,4,4,5,5,6,6,7,7,8,8,9,9,10,10,11,11,12,12,13,13,14,14],"right_children":[2,4,6,8,10,12,14,16,18,20,22,24,26,28,30,-1,-1,-1,-1,-1,-1,-1,-1,-1,-1,-1,-1,-1,-1,-1,-1],"split_conditions":[1E0,4.8E0,1.0961111E1,4.2E0,5.3E0,5.2E0,9.799409E1,3.8E0,9.504478E0,2.386706E0,5.9E0,6.8E0,6.8E0,4.5E0,1.5314584E1,-5.259194E-2,-4.9478535E-2,-4.9700897E-2,-1.4490668E-2,2.685912E-2,-1.5647162E-2,3.7360735E-2,5.2632697E-2,-1.602914E-2,3.2892127E-2,2.8816951E-2,4.5962077E-2,-4.8262093E-2,4.334509E-2,5.092546E-2,2.6899645E-2],"split_indices":[6,0,8,0,0,10,9,0,29,56,0,28,41,0,8,0,0,0,0,0,0,0,0,0,0,0,0,0,0,0,0],"split_type":[0,0,0,0,0,0,0,0,0,0,0,0,0,0,0,0,0,0,0,0,0,0,0,0,0,0,0,0,0,0,0],"sum_hessian":[3.046063E4,1.135646E4,1.9104172E4,1.0950604E4,4.0585635E2,1.812216E4,9.8201025E2,1.0709107E4,2.4149628E2,1.4994737E2,2.5590898E2,3.5904724E3,1.4531688E4,9.172152E2,6.479502E1,1.0389447E4,3.1965952E2,1.3554619E2,1.05950096E2,8.725231E1,6.269506E1,9.661523E1,1.5929376E2,2.163405E3,1.4270674E3,4.387056E3,1.0144632E4,8.6604846E2,5.1166756E1,5.935059E1,5.4444284E0],"tree_param":{"num_deleted":"0","num_feature":"59","num_nodes":"31","size_leaf_vector":"1"}},{"base_weights":[-4.576616E-5,-1.5985439E0,9.557348E-1,-1.6910319E0,1.1952618E0,1.074038E0,-1.2288471E0,-1.71144E0,-9.155003E-1,3.90375E-1,1.5254945E0,2.4463454E-1,1.3839535E0,-1.4169536E0,1.6043495E0,-5.143094E-2,-4.831929E-2,-1.3462861E-2,-4.5197923E-2,-5.40661E-2,2.6103426E-2,4.7399335E-2,1.4506937E-2,-7.1247853E-3,3.9401527E-2,4.6374563E-2,2.8040433E-2,-4.6067946E-2,5.0836556E-2,4.9799595E-2,2.62912E-2],"categories":[],"categories_nodes":[],"categories_segments":[],"categories_sizes":[],"default_left":[0,0,0,0,0,0,0,0,0,0,1,0,0,0,0,0,0,0,0,0,0,0,0,0,0,0,0,0,0,0,0],"id":6,"left_children":[1,3,5,7,9,11,13,15,17,19,21,23,25,27,29,-1,-1,-1,-1,-1,-1,-1,-1,-1,-1,-1,-1,-1,-1,-1,-1],"loss_changes":[4.5936926E4,2.9091465E3,4.8642793E3,1.7079883E2,9.53858E1,4.5879766E3,5.176793E2,3.6523438E-1,7.695534E1,1.1348386E2,1.3751831E1,2.502897E3,9.4353516E2,3.3758655E2,1.0029297E0,0E0,0E0,0E0,0E0,0E0,0E0,0E0,0E0,0E0,0E0,0E0,0E0,0E0,0E0,0E0,0E0],"parents":[2147483647,0,0,1,1,2,2,3,3,4,4,5,5,6,6,7,7,8,8,9,9,10,10,11,11,12,12,13,13,14,14],"right_children":[2,4,6,8,10,12,14,16,18,20,22,24,26,28,30,-1,-1,-1,-1,-1,-1,-1,-1,-1,-1,-1,-1,-1,-1,-1,-1],"split_conditions":[1E0,4.9E0,1.0961111E1,4.2E0,5.3E0,5.8E0,9.799409E1,3.8E0,4.3E0,4E0,5.3E0,3.37E2,2.2305555E0,5E0,1.5314584E1,-5.143094E-2,-4.831929E-2,-1.3462861E-2,-4.5197923E-2,-5.40661E-2,2.6103426E-2,4.7399335E-2,1.4506937E-2,-7.1247853E-3,3.9401527E-2,4.6374563E-2,2.8040433E-2,-4.6067946E-2,5.0836556E-2,4.9799595E-2,2.62912E-2],"split_indices":[6,0,8,0,0,10,9,0,32,19,19,14,8,0,8,0,0,0,0,0,0,0,0,0,0,0,0,0,0,0,0],"split_type":[0,0,0,0,0,0,0,0,0,0,0,0,0,0,0,0,0,0,0,0,0,0,0,0,0,0,0,0,0,0,0],"sum_hessian":[3.0065105E4,1.1249752E4,1.8815354E4,1.0889647E4,3.601037E2,1.7849258E4,9.660953E2,1.060926E4,2.803879E2,1.0539736E2,2.5470633E2,4.855809E3,1.299345E4,9.064149E2,5.9680347E1,1.0294539E4,3.147214E2,1.5765814E2,1.2272976E2,1.8426247E1,8.6971115E1,2.4155864E2,1.3147692E1,3.3468003E3,1.5090088E3,9.550223E3,3.443227E3,8.736098E2,3.280511E1,5.4253628E1,5.4267216E0],"tree_param":{"num_deleted":"0","num_feature":"59","num_nodes":"31","size_leaf_vector":"1"}},{"base_weights":[8.3141646E-4,-1.5719724E0,9.322619E-1,-1.6602861E0,1.1623623E0,1.0652504E0,-9.6264464E-1,-5.0369233E-2,-9.5089465E-1,3.3448133E-1,1.4920357E0,4.4141743E-1,1.4311942E0,-1.3886386E0,8.671732E-1,-8.829704E-3,-4.2908523E-2,-5.247051E-2,2.2998089E-2,3.4013912E-2,5.0766926E-2,3.7022282E-3,4.9268033E-2,4.3864034E-2,-3.3758875E-2,-4.5689326E-2,4.3172643E-2,3.4471493E-2,-3.3938456E-2],"categories":[],"categories_nodes":[],"categories_segments":[],"categories_sizes":[],"default_left":[0,0,0,0,0,0,0,0,0,0,0,0,0,0,0,0,0,0,0,0,0,0,0,0,0,0,0,0,0],"id":7,"left_children":[1,3,5,7,9,11,13,-1,15,17,19,21,23,25,27,-1,-1,-1,-1,-1,-1,-1,-1,-1,-1,-1,-1,-1,-1],"loss_changes":[4.390071E4,2.6934766E3,4.743968E3,1.4155273E2,9.484134E1,4.0143457E3,9.637268E2,0E0,8.75414E1,9.2072174E1,1.5978149E1,2.4835215E3,8.7841016E2,3.8282837E2,1.330038E2,0E0,0E0,0E0,0E0,0E0,0E0,0E0,0E0,0E0,0E0,0E0,0E0,0E0,0E0],"parents":[2147483647,0,0,1,1,2,2,3,3,4,4,5,5,6,6,8,8,9,9,10,10,11,11,12,12,13,13,14,14],"right_children":[2,4,6,8,10,12,14,-1,16,18,20,22,24,26,28,-1,-1,-1,-1,-1,-1,-1,-1,-1,-1,-1,-1,-1,-1],"split_conditions":[1E0,4.9E0,8.35625E0,4.2E0,5.3E0,6.8E0,4.6701935E1,-5.0369233E-2,1.6E1,6.097627E0,5.9E0,9.329028E1,2.411E3,4.7E0,1.7009027E1,-8.829704E-3,-4.2908523E-2,-5.247051E-2,2.2998089E-2,3.4013912E-2,5.0766926E-2,3.7022282E-3,4.9268033E-2,4.3864034E-2,-3.3758875E-2,-4.5689326E-2,4.3172643E-2,3.4471493E-2,-3.3938456E-2],"split_indices":[6,0,8,0,0,28,9,0,11,20,0,9,24,0,8,0,0,0,0,0,0,0,0,0,0,0,0,0,0],"split_type":[0,0,0,0,0,0,0,0,0,0,0,0,0,0,0,0,0,0,0,0,0,0,0,0,0,0,0,0,0],"sum_hessian":[2.9965227E4,1.1145077E4,1.8820148E4,1.0796756E4,3.4832135E2,1.7586342E4,1.2338082E3,1.0518291E4,2.784645E2,9.9776276E1,2.4854507E2,6.5029004E3,1.108344E4,1.0010079E3,2.3280032E2,1.1819658E2,1.6026793E2,1.6615623E1,8.316065E1,9.14907E1,1.5705437E2,5.142234E3,1.3606663E3,1.0951328E4,1.321121E2,9.5604956E2,4.4958355E1,2.0439587E2,2.840445E1],"tree_param":{"num_deleted":"0","num_feature":"59","num_nodes":"29","size_leaf_vector":"1"}},{"base_weights":[1.0696846E-3,-1.5420693E0,9.11004E-1,-1.6276499E0,9.5201385E-1,1.0408492E0,-8.755947E-1,-1.6420518E0,-9.975589E-1,2.9312596E-1,1.4017417E0,1.2508236E-1,1.3239264E0,-1.3260899E0,8.830746E-1,-4.935034E-2,-4.623678E-2,-4.343635E-2,-1.1998819E-2,-3.820221E-2,2.2222089E-2,2.932762E-2,4.8949808E-2,-1.0665008E-2,3.6085404E-2,2.0722257E-2,4.2392474E-2,-4.4091377E-2,4.117014E-2,3.50678E-2,-3.4992415E-2],"categories":[],"categories_nodes":[],"categories_segments":[],"categories_sizes":[],"default_left":[0,0,0,0,0,0,0,0,1,1,0,0,0,0,0,0,0,0,0,0,0,0,0,0,0,0,0,0,0,0,0],"id":8,"left_children":[1,3,5,7,9,11,13,15,17,19,21,23,25,27,29,-1,-1,-1,-1,-1,-1,-1,-1,-1,-1,-1,-1,-1,-1,-1,-1],"loss_changes":[4.1779984E4,2.3573516E3,4.3430205E3,9.519531E1,1.0827518E2,4.5233867E3,1.0063372E3,5.8203125E-1,6.427879E1,1.0616272E2,1.9638062E1,2.1351455E3,7.514961E2,3.9360144E2,1.532849E2,0E0,0E0,0E0,0E0,0E0,0E0,0E0,0E0,0E0,0E0,0E0,0E0,0E0,0E0,0E0,0E0],"parents":[2147483647,0,0,1,1,2,2,3,3,4,4,5,5,6,6,7,7,8,8,9,9,10,10,11,11,12,12,13,13,14,14],"right_children":[2,4,6,8,10,12,14,16,18,20,22,24,26,28,30,-1,-1,-1,-1,-1,-1,-1,-1,-1,-1,-1,-1,-1,-1,-1,-1],"split_conditions":[1E0,4.8E0,8.35625E0,4.2E0,5.3E0,5.5E0,4.6701935E1,3.8E0,9.504478E0,5.9E0,5.9E0,3.37E2,1.6977E4,4.5E0,1.7009027E1,-4.935034E-2,-4.623678E-2,-4.343635E-2,-1.1998819E-2,-3.820221E-2,2.2222089E-2,2.932762E-2,4.8949808E-2,-1.0665008E-2,3.6085404E-2,2.0722257E-2,4.2392474E-2,-4.4091377E-2,4.117014E-2,3.50678E-2,-3.4992415E-2],"split_indices":[6,0,8,0,0,10,9,0,29,41,0,14,17,0,8,0,0,0,0,0,0,0,0,0,0,0,0,0,0,0,0],"split_type":[0,0,0,0,0,0,0,0,0,0,0,0,0,0,0,0,0,0,0,0,0,0,0,0,0,0,0,0,0,0,0],"sum_hessian":[2.9752535E4,1.1036042E4,1.8716492E4,1.0670256E4,3.6578592E2,1.744878E4,1.2677133E3,1.0430248E4,2.4000865E2,1.4905704E2,2.167289E2,4.120436E3,1.3328344E4,1.00939557E3,2.5831766E2,1.0117941E4,3.1230576E2,1.3605884E2,1.03949814E2,3.2715485E1,1.16341545E2,7.80303E1,1.386986E2,2.8501877E3,1.2702483E3,1.6461526E3,1.168219E4,9.5881824E2,5.057737E1,2.2707591E2,3.1241732E1],"tree_param":{"num_deleted":"0","num_feature":"59","num_nodes":"31","size_leaf_vector":"1"}},{"base_weights":[1.0760413E-2,-1.5086001E0,8.9403975E-1,-1.599734E0,9.602114E-1,1.0219905E0,-9.2709213E-1,-1.6058402E0,-5.784361E-1,1.894536E-1,1.4306186E0,2.3651166E-1,1.3228238E0,-1.3736783E0,-2.5793068E-2,-4.832616E-2,-3.8551245E-2,1.9159388E-2,-3.7304703E-2,-3.7348587E-2,1.81068E-2,3.6305986E-2,4.75715E-2,-6.2009958E-3,3.669151E-2,1.9749952E-2,4.228305E-2,-4.6520144E-2,3.715088E-2,3.032052E-2,-4.653288E-2],"categories":[],"categories_nodes":[],"categories_segments":[],"categories_sizes":[],"default_left":[0,0,0,0,0,0,0,0,0,1,0,0,0,0,0,0,0,0,0,0,0,0,0,0,0,0,0,0,0,0,0],"id":9,"left_children":[1,3,5,7,9,11,13,15,17,19,21,23,25,27,29,-1,-1,-1,-1,-1,-1,-1,-1,-1,-1,-1,-1,-1,-1,-1,-1],"loss_changes":[3.9847043E4,2.457457E3,4.3761035E3,6.47207E1,1.4084793E2,4.145334E3,4.963064E2,1.48203125E1,5.2703384E1,8.905988E1,6.338745E0,2.1251465E3,7.2914844E2,3.8311707E2,6.490932E2,0E0,0E0,0E0,0E0,0E0,0E0,0E0,0E0,0E0,0E0,0E0,0E0,0E0,0E0,0E0,0E0],"parents":[2147483647,0,0,1,1,2,2,3,3,4,4,5,5,6,6,7,7,8,8,9,9,10,10,11,11,12,12,13,13,14,14],"right_children":[2,4,6,8,10,12,14,16,18,20,22,24,26,28,30,-1,-1,-1,-1,-1,-1,-1,-1,-1,-1,-1,-1,-1,-1,-1,-1],"split_conditions":[1E0,4.8E0,8.35625E0,4.6E0,5.3E0,5.8E0,3.8421E4,4.2E0,5.5723906E0,5.9E0,5.9E0,3.37E2,1.6678E4,4.5E0,1.033211E1,-4.832616E-2,-3.8551245E-2,1.9159388E-2,-3.7304703E-2,-3.7348587E-2,1.81068E-2,3.6305986E-2,4.75715E-2,-6.2009958E-3,3.669151E-2,1.9749952E-2,4.228305E-2,-4.6520144E-2,3.715088E-2,3.032052E-2,-4.653288E-2],"split_indices":[6,0,8,0,0,10,17,0,46,41,0,14,17,0,39,0,0,0,0,0,0,0,0,0,0,0,0,0,0,0,0],"split_type":[0,0,0,0,0,0,0,0,0,0,0,0,0,0,0,0,0,0,0,0,0,0,0,0,0,0,0,0,0,0,0],"sum_hessian":[2.968984E4,1.0914576E4,1.8775262E4,1.0526357E4,3.8821854E2,1.7543139E4,1.2321239E3,1.0463227E4,6.313095E1,1.4766824E2,2.4055031E2,4.8587285E3,1.268441E4,8.235417E2,4.0858215E2,1.0297685E4,1.6554256E2,2.2321392E1,4.080956E1,3.2631374E1,1.1503687E2,1.029891E2,1.375612E2,3.3531057E3,1.5056229E3,1.4636576E3,1.1220753E4,7.7166E2,5.1881725E1,2.4347375E2,1.6510841E2],"tree_param":{"num_deleted":"0","num_feature":"59","num_nodes":"31","size_leaf_vector":"1"}},{"base_weights":[1.8611393E-3,8.669356E-1,-1.4725631E0,9.9194884E-1,-8.5664415E-1,-1.5674137E0,9.757637E-1,2.3023611E-1,1.2923313E0,-1.2295997E0,1.2298139E0,-1.5817413E0,-9.548565E-1,2.6258373E-1,1.397589E0,-8.662492E-3,3.0866427E-2,4.2839244E-2,2.6988687E-2,-3.9880812E-2,3.4153324E-2,4.1157957E-2,-4.7547076E-2,-4.7556363E-2,-4.4714853E-2,2.3324551E-2,-3.556548E-2,-2.5127364E-2,1.905333E-2,4.3793555E-2,-9.214066E-3],"categories":[],"categories_nodes":[],"categories_segments":[],"categories_sizes":[],"default_left":[0,0,0,0,0,0,0,0,0,0,0,1,0,1,1,0,0,0,0,0,0,0,0,0,0,0,0,0,0,0,0],"id":10,"left_children":[1,3,5,7,9,11,13,15,17,19,21,23,25,27,29,-1,-1,-1,-1,-1,-1,-1,-1,-1,-1,-1,-1,-1,-1,-1,-1],"loss_changes":[3.7319438E4,3.9741016E3,2.5139883E3,3.933629E3,9.723057E2,8.990625E1,1.21208984E2,2.0162926E3,6.55541E2,2.5165942E2,7.805231E1,8.613281E-1,9.705415E1,6.2591934E1,2.7347595E1,0E0,0E0,0E0,0E0,0E0,0E0,0E0,0E0,0E0,0E0,0E0,0E0,0E0,0E0,0E0,0E0],"parents":[2147483647,0,0,1,1,2,2,3,3,4,4,5,5,6,6,7,7,8,8,9,9,10,10,11,11,12,12,13,13,14,14],"right_children":[2,4,6,8,10,12,14,16,18,20,22,24,26,28,30,-1,-1,-1,-1,-1,-1,-1,-1,-1,-1,-1,-1,-1,-1,-1,-1],"split_conditions":[3.4400853E-6,8.35625E0,4.8E0,5.8E0,6.935351E1,4.2E0,5.3E0,6.8E0,2.1430554E0,4.5E0,1.7009027E1,5.6E0,3E0,5.9E0,5.3E0,-8.662492E-3,3.0866427E-2,4.2839244E-2,2.6988687E-2,-3.9880812E-2,3.4153324E-2,4.1157957E-2,-4.7547076E-2,-4.7556363E-2,-4.4714853E-2,2.3324551E-2,-3.556548E-2,-2.5127364E-2,1.905333E-2,4.3793555E-2,-9.214066E-3],"split_indices":[4,8,0,10,9,0,0,28,8,0,8,19,11,41,19,0,0,0,0,0,0,0,0,0,0,0,0,0,0,0,0],"split_type":[0,0,0,0,0,0,0,0,0,0,0,0,0,0,0,0,0,0,0,0,0,0,0,0,0,0,0,0,0,0,0],"sum_hessian":[2.9256973E4,1.8438906E4,1.0818066E4,1.719235E4,1.2465564E3,1.0414941E4,4.0312515E2,4.862852E3,1.2329498E4,1.057872E3,1.886845E2,1.0175358E4,2.3958305E2,1.5042467E2,2.5270047E2,2.9478682E3,1.9149838E3,9.162193E3,3.1673044E3,1.0155284E3,4.234351E1,1.8010347E2,8.581025E0,9.786726E3,3.8863284E2,2.7873283E1,2.1170976E2,3.77352E1,1.1268947E2,2.4394394E2,8.75653E0],"tree_param":{"num_deleted":"0","num_feature":"59","num_nodes":"31","size_leaf_vector":"1"}},{"base_weights":[4.5241243E-3,-1.4416375E0,8.4785223E-1,-1.5383427E0,9.9172884E-1,9.515579E-1,-1.0604874E0,-1.5544622E0,-8.566528E-1,3.2565194E-1,1.3898276E0,2.0734136E-1,1.2396888E0,-1.2555455E0,1.4943422E0,-4.6727035E-2,-4.3452084E-2,-4.0790703E-2,-7.856965E-3,-2.4212409E-2,2.0786436E-2,3.4188885E-2,4.647661E-2,-6.368075E-3,3.5378654E-2,4.1684426E-2,2.4029214E-2,-4.1285526E-2,3.3205826E-2,4.585529E-2,2.6829554E-2],"categories":[],"categories_nodes":[],"categories_segments":[],"categories_sizes":[],"default_left":[0,0,0,0,0,0,0,0,1,1,0,0,0,0,0,0,0,0,0,0,0,0,0,0,0,0,0,0,0,0,0],"id":11,"left_children":[1,3,5,7,9,11,13,15,17,19,21,23,25,27,29,-1,-1,-1,-1,-1,-1,-1,-1,-1,-1,-1,-1,-1,-1,-1,-1],"loss_changes":[3.530713E4,2.5108984E3,3.6199785E3,1.1136914E2,1.0778711E2,3.7189268E3,4.7180884E2,1.0449219E0,7.119478E1,6.462293E1,8.411377E0,1.9750315E3,8.2055273E2,2.5136621E2,1.3717651E-2,0E0,0E0,0E0,0E0,0E0,0E0,0E0,0E0,0E0,0E0,0E0,0E0,0E0,0E0,0E0,0E0],"parents":[2147483647,0,0,1,1,2,2,3,3,4,4,5,5,6,6,7,7,8,8,9,9,10,10,11,11,12,12,13,13,14,14],"right_children":[2,4,6,8,10,12,14,16,18,20,22,24,26,28,30,-1,-1,-1,-1,-1,-1,-1,-1,-1,-1,-1,-1,-1,-1,-1,-1],"split_conditions":[1E0,4.8E0,1.0961111E1,4.2E0,5.3E0,5.8E0,9.799409E1,3.8E0,9.504478E0,5.9E0,5.9E0,3.37E2,2.3993056E0,4.5E0,1.5314584E1,-4.6727035E-2,-4.3452084E-2,-4.0790703E-2,-7.856965E-3,-2.4212409E-2,2.0786436E-2,3.4188885E-2,4.647661E-2,-6.368075E-3,3.5378654E-2,4.1684426E-2,2.4029214E-2,-4.1285526E-2,3.3205826E-2,4.585529E-2,2.6829554E-2],"split_indices":[6,0,8,0,0,10,9,0,29,41,0,14,8,0,8,0,0,0,0,0,0,0,0,0,0,0,0,0,0,0,0],"split_type":[0,0,0,0,0,0,0,0,0,0,0,0,0,0,0,0,0,0,0,0,0,0,0,0,0,0,0,0,0,0,0],"sum_hessian":[2.894803E4,1.0662677E4,1.8285352E4,1.0255478E4,4.0719864E2,1.7343357E4,9.419955E2,1.0017324E4,2.3815388E2,1.5300954E2,2.541891E2,4.8410566E3,1.25023E4,8.756493E2,6.63462E1,9.719043E3,2.9828125E2,1.283286E2,1.09825294E2,3.7167442E1,1.15842094E2,1.0208952E2,1.5209958E2,3.3818298E3,1.459227E3,9.318486E3,3.1838137E3,8.3350305E2,4.2146248E1,6.1307693E1,5.038507E0],"tree_param":{"num_deleted":"0","num_feature":"59","num_nodes":"31","size_leaf_vector":"1"}},{"base_weights":[-2.4254655E-3,-1.4246542E0,8.247198E-1,-1.4344174E0,-1.828842E-1,9.4566965E-1,-8.6563236E-1,-7.544573E-1,-1.4410012E0,-4.583525E-2,2.5657085E-1,-5.2006567E-1,1.0959955E0,-1.2721125E0,7.710573E-1,-4.141545E-2,9.375899E-3,-4.3335196E-2,-2.3414336E-2,1.9973328E-2,-4.551185E-2,-5.2662328E-2,-1.1444493E-3,1.8631525E-2,3.9964996E-2,-3.996227E-2,1.8803231E-2,3.3006143E-2,-2.679428E-2],"categories":[],"categories_nodes":[],"categories_segments":[],"categories_sizes":[],"default_left":[0,0,0,0,0,0,0,1,0,0,0,0,0,0,0,0,0,0,0,0,0,0,0,0,0,0,0,0,0],"id":12,"left_children":[1,3,5,7,9,11,13,15,17,-1,19,21,23,25,27,-1,-1,-1,-1,-1,-1,-1,-1,-1,-1,-1,-1,-1,-1],"loss_changes":[3.3758582E4,1.2766992E2,3.7103848E3,4.5783203E1,4.9724056E1,3.7316006E3,8.0737616E2,6.8902725E1,2.288086E1,0E0,4.729041E1,9.3806384E2,1.7218984E3,1.114353E2,1.3341467E2,0E0,0E0,0E0,0E0,0E0,0E0,0E0,0E0,0E0,0E0,0E0,0E0,0E0,0E0],"parents":[2147483647,0,0,1,1,2,2,3,3,4,4,5,5,6,6,7,7,8,8,10,10,11,11,12,12,13,13,14,14],"right_children":[2,4,6,8,10,12,14,16,18,-1,20,22,24,26,28,-1,-1,-1,-1,-1,-1,-1,-1,-1,-1,-1,-1,-1,-1],"split_conditions":[1E0,1.2766E2,8.35625E0,3.47E0,5.6E0,4.2E0,4.6701935E1,7.659417E-1,2.057E1,-4.583525E-2,7.685919E0,8.997038E0,6.8E0,1.274E2,3.51E2,-4.141545E-2,9.375899E-3,-4.3335196E-2,-2.3414336E-2,1.9973328E-2,-4.551185E-2,-5.2662328E-2,-1.1444493E-3,1.8631525E-2,3.9964996E-2,-3.996227E-2,1.8803231E-2,3.3006143E-2,-2.679428E-2],"split_indices":[6,3,8,2,10,10,9,58,2,0,23,42,54,3,14,0,0,0,0,0,0,0,0,0,0,0,0,0,0],"split_type":[0,0,0,0,0,0,0,0,0,0,0,0,0,0,0,0,0,0,0,0,0,0,0,0,0,0,0,0,0],"sum_hessian":[2.8694766E4,1.0551443E4,1.8143322E4,1.0468978E4,8.246535E1,1.6932213E4,1.2111106E3,1.015026E2,1.0367476E4,1.969916E1,6.276619E1,1.5748047E3,1.5357407E4,9.7034357E2,2.4076698E2,6.3783573E1,3.771903E1,1.0311565E4,5.5909523E1,5.150723E1,1.1258958E1,4.411976E2,1.133607E3,5.1016045E3,1.0255803E4,9.409293E2,2.9414248E1,2.0129376E2,3.9473225E1],"tree_param":{"num_deleted":"0","num_feature":"59","num_nodes":"29","size_leaf_vector":"1"}},{"base_weights":[-5.8670226E-3,8.015298E-1,-1.4126172E0,9.193549E-1,-8.7636924E-1,-1.4918647E0,1.1631248E0,-1.1497638E-1,1.1244272E0,-1.1489376E0,1.4136562E0,-1.502578E0,-7.3651886E-1,8.008662E-1,4.655694E-2,-1.4882903E-2,3.4257658E-2,2.3299616E-2,4.087809E-2,-3.727942E-2,3.0434184E-2,4.330202E-2,1.8850181E-2,-4.523451E-2,-3.9130304E-2,-3.9238525E-3,-5.0353646E-2,2.9585414E-2,-2.5808228E-2],"categories":[],"categories_nodes":[],"categories_segments":[],"categories_sizes":[],"default_left":[0,0,0,0,0,0,0,0,0,0,0,0,0,0,0,0,0,0,0,0,0,0,0,0,0,0,0,0,0],"id":13,"left_children":[1,3,5,7,9,11,13,15,17,19,21,23,25,27,-1,-1,-1,-1,-1,-1,-1,-1,-1,-1,-1,-1,-1,-1,-1],"loss_changes":[3.2154896E4,3.5567705E3,2.108961E3,3.565128E3,7.386045E2,7.994531E1,4.223343E1,1.3331389E3,1.1607539E3,2.152793E2,2.037033E0,8.2890625E0,8.081715E1,5.067604E1,0E0,0E0,0E0,0E0,0E0,0E0,0E0,0E0,0E0,0E0,0E0,0E0,0E0,0E0,0E0],"parents":[2147483647,0,0,1,1,2,2,3,3,4,4,5,5,6,6,7,7,8,8,9,9,10,10,11,11,12,12,13,13],"right_children":[2,4,6,8,10,12,14,16,18,20,22,24,26,28,-1,-1,-1,-1,-1,-1,-1,-1,-1,-1,-1,-1,-1,-1,-1],"split_conditions":[3.4400853E-6,8.35625E0,5E0,4.9E0,9.078205E1,4.5E0,5.9E0,7.203E4,7E0,4.5E0,3.4938796E0,4E0,6.46141E0,2.463421E2,4.655694E-2,-1.4882903E-2,3.4257658E-2,2.3299616E-2,4.087809E-2,-3.727942E-2,3.0434184E-2,4.330202E-2,1.8850181E-2,-4.523451E-2,-3.9130304E-2,-3.9238525E-3,-5.0353646E-2,2.9585414E-2,-2.5808228E-2],"split_indices":[4,8,0,10,9,0,0,30,41,0,56,0,20,9,0,0,0,0,0,0,0,0,0,0,0,0,0,0,0],"split_type":[0,0,0,0,0,0,0,0,0,0,0,0,0,0,0,0,0,0,0,0,0,0,0,0,0,0,0,0,0],"sum_hessian":[2.8308213E4,1.7985793E4,1.032242E4,1.680609E4,1.1797018E3,1.001472E4,3.0770053E2,2.780817E3,1.4025273E4,1.0546691E3,1.250328E2,9.8736875E3,1.4103181E2,1.6086584E2,1.468347E2,2.1342644E3,6.465525E2,5.7027065E3,8.322567E3,1.01128986E3,4.337917E1,1.1966252E2,5.37028E0,9.613026E3,2.6066138E2,8.652785E1,5.4503963E1,1.4508653E2,1.5779307E1],"tree_param":{"num_deleted":"0","num_feature":"59","num_nodes":"29","size_leaf_vector":"1"}},{"base_weights":[1.108117E-2,-1.3762807E0,7.977149E-1,-1.468773E0,9.387036E-1,1.136216E0,2.400394E-1,-1.4854615E0,-7.797475E-1,2.6811987E-1,1.3499486E0,6.2428826E-1,1.3367128E0,-4.858741E-1,1.2314074E0,-4.4612512E-2,-4.0404096E-2,2.4483774E-2,-2.9980594E-2,1.386466E-2,-5.2234847E-2,3.3151135E-2,4.5536764E-2,2.3479935E-2,-4.8105624E-2,4.096942E-2,-5.4255895E-2,-2.9940914E-2,2.7012996E-2,2.4083415E-2,4.35313E-2],"categories":[],"categories_nodes":[],"categories_segments":[],"categories_sizes":[],"default_left":[0,0,0,0,0,0,0,0,0,0,0,0,0,0,0,0,0,0,0,0,0,0,0,0,0,0,0,0,0,0,0],"id":14,"left_children":[1,3,5,7,9,11,13,15,17,19,21,23,25,27,29,-1,-1,-1,-1,-1,-1,-1,-1,-1,-1,-1,-1,-1,-1,-1,-1],"loss_changes":[3.0957639E4,2.1991035E3,3.4169893E3,1.1233594E2,1.0855319E2,1.1553574E3,4.9221636E3,1.6601562E-1,8.335309E1,5.9823906E1,8.381775E0,1.1204546E3,7.390244E2,2.8045107E3,2.710127E2,0E0,0E0,0E0,0E0,0E0,0E0,0E0,0E0,0E0,0E0,0E0,0E0,0E0,0E0,0E0,0E0],"parents":[2147483647,0,0,1,1,2,2,3,3,4,4,5,5,6,6,7,7,8,8,9,9,10,10,11,11,12,12,13,13,14,14],"right_children":[2,4,6,8,10,12,14,16,18,20,22,24,26,28,30,-1,-1,-1,-1,-1,-1,-1,-1,-1,-1,-1,-1,-1,-1,-1,-1],"split_conditions":[1E0,4.8E0,1.499834E-7,4.2E0,5.3E0,6.8E0,4.5672756E1,4E0,3E0,6E0,5.9E0,1.0113681E1,2.411E3,7.203E4,8.6635765E1,-4.4612512E-2,-4.0404096E-2,2.4483774E-2,-2.9980594E-2,1.386466E-2,-5.2234847E-2,3.3151135E-2,4.5536764E-2,2.3479935E-2,-4.8105624E-2,4.096942E-2,-5.4255895E-2,-2.9940914E-2,2.7012996E-2,2.4083415E-2,4.35313E-2],"split_indices":[6,0,4,0,0,28,9,0,11,16,0,39,24,43,9,0,0,0,0,0,0,0,0,0,0,0,0,0,0,0,0],"split_type":[0,0,0,0,0,0,0,0,0,0,0,0,0,0,0,0,0,0,0,0,0,0,0,0,0,0,0,0,0,0,0],"sum_hessian":[2.836448E4,1.0263069E4,1.810141E4,9.869126E3,3.9394324E2,1.1263554E4,6.8378564E3,9.634616E3,2.3451E2,1.5038107E2,2.4356215E2,3.171046E3,8.092508E3,3.9477148E3,2.8901418E3,9.513582E3,1.2103393E2,2.803844E1,2.0647154E2,1.3783992E2,1.2541153E1,1.02161095E2,1.4140106E2,2.9611824E3,2.0986356E2,8.019301E3,7.32071E1,2.882928E3,1.0647869E3,9.8077734E2,1.9093644E3],"tree_param":{"num_deleted":"0","num_feature":"59","num_nodes":"31","size_leaf_vector":"1"}},{"base_weights":[4.2651384E-3,-1.3494803E0,7.750937E-1,-1.44555E0,9.478749E-1,1.1476722E0,2.8585595E-1,-1.4622012E0,-7.707657E-1,3.091746E-1,1.3363692E0,6.768929E-1,1.3380338E0,-4.490417E-1,1.1630983E0,-4.3962907E-2,-4.0614415E-2,-3.574906E-3,-3.8677208E-2,1.5399593E-2,-5.05814E-2,3.0828627E-2,4.479581E-2,2.5162615E-2,-4.9626566E-2,4.0886015E-2,-5.150049E-2,-3.0921446E-2,2.8701272E-2,2.4681317E-2,4.300282E-2],"categories":[],"categories_nodes":[],"categories_segments":[],"categories_sizes":[],"default_left":[0,0,0,0,0,0,0,0,0,0,0,0,0,0,0,0,0,0,0,0,0,0,0,0,0,0,0,0,0,0,0],"id":15,"left_children":[1,3,5,7,9,11,13,15,17,19,21,23,25,27,29,-1,-1,-1,-1,-1,-1,-1,-1,-1,-1,-1,-1,-1,-1,-1,-1],"loss_changes":[2.9166914E4,2.2395547E3,3.246046E3,1.0824805E2,1.0073865E2,9.0513574E2,4.9651353E3,1.3398438E0,7.975896E1,6.4194595E1,1.0724091E1,1.1005052E3,5.48375E2,3.4280166E3,3.218667E2,0E0,0E0,0E0,0E0,0E0,0E0,0E0,0E0,0E0,0E0,0E0,0E0,0E0,0E0,0E0,0E0],"parents":[2147483647,0,0,1,1,2,2,3,3,4,4,5,5,6,6,7,7,8,8,9,9,10,10,11,11,12,12,13,13,14,14],"right_children":[2,4,6,8,10,12,14,16,18,20,22,24,26,28,30,-1,-1,-1,-1,-1,-1,-1,-1,-1,-1,-1,-1,-1,-1,-1,-1],"split_conditions":[1E0,4.8E0,1.09342025E-7,4.2E0,5.3E0,6.8E0,3.8746952E1,3.8E0,1.6E1,6E0,5.9E0,1.0113681E1,2.411E3,7.203E4,8.6635765E1,-4.3962907E-2,-4.0614415E-2,-3.574906E-3,-3.8677208E-2,1.5399593E-2,-5.05814E-2,3.0828627E-2,4.479581E-2,2.5162615E-2,-4.9626566E-2,4.0886015E-2,-5.150049E-2,-3.0921446E-2,2.8701272E-2,2.4681317E-2,4.300282E-2],"split_indices":[6,0,4,0,0,28,9,0,11,16,0,39,24,30,9,0,0,0,0,0,0,0,0,0,0,0,0,0,0,0,0],"split_type":[0,0,0,0,0,0,0,0,0,0,0,0,0,0,0,0,0,0,0,0,0,0,0,0,0,0,0,0,0,0,0],"sum_hessian":[2.794889E4,1.01400205E4,1.780887E4,9.733366E3,4.0665427E2,1.0109014E4,7.6998555E3,9.497826E3,2.3554037E2,1.544795E2,2.5217476E2,2.9119893E3,7.197025E3,4.1901245E3,3.5097307E3,9.210897E3,2.8692847E2,1.0491562E2,1.3062476E2,1.4081451E2,1.3665004E1,8.748716E1,1.646876E2,2.7235215E3,1.8846782E2,7.1395376E3,5.7487312E1,2.9639604E3,1.2261642E3,1.5553453E3,1.9543854E3],"tree_param":{"num_deleted":"0","num_feature":"59","num_nodes":"31","size_leaf_vector":"1"}},{"base_weights":[9.4902044E-4,-1.3364968E0,7.529488E-1,-9.85817E-1,-1.3654784E0,1.0741329E0,1.7427754E-1,-1.1961801E0,-6.990908E-1,-1.371854E0,-8.5602194E-2,5.650792E-1,1.2809751E0,-5.939854E-1,1.1735303E0,-4.2506814E-2,-2.7319191E-2,1.192869E-2,-2.670662E-2,-4.1234426E-2,-7.246177E-3,3.8753215E-2,-4.2540226E-2,2.1538338E-2,-4.5588955E-2,3.9373916E-2,-4.758394E-2,-3.1942032E-2,2.3745332E-2,1.996407E-2,4.150248E-2],"categories":[],"categories_nodes":[],"categories_segments":[],"categories_sizes":[],"default_left":[0,0,0,0,0,0,0,1,0,0,0,0,0,0,0,0,0,0,0,0,0,0,0,0,0,0,0,0,0,0,0],"id":16,"left_children":[1,3,5,7,9,11,13,15,17,19,21,23,25,27,29,-1,-1,-1,-1,-1,-1,-1,-1,-1,-1,-1,-1,-1,-1,-1,-1],"loss_changes":[2.7741674E4,9.954883E1,3.281294E3,4.5088257E1,7.467969E1,1.1947451E3,4.839442E3,2.6299316E1,6.839897E1,2.6751953E1,8.717521E1,1.0470555E3,7.3087695E2,2.3253738E3,2.912561E2,0E0,0E0,0E0,0E0,0E0,0E0,0E0,0E0,0E0,0E0,0E0,0E0,0E0,0E0,0E0,0E0],"parents":[2147483647,0,0,1,1,2,2,3,3,4,4,5,5,6,6,7,7,8,8,9,9,10,10,11,11,12,12,13,13,14,14],"right_children":[2,4,6,8,10,12,14,16,18,20,22,24,26,28,30,-1,-1,-1,-1,-1,-1,-1,-1,-1,-1,-1,-1,-1,-1,-1,-1],"split_conditions":[1E0,5.62E0,1.7550207E-7,1.2653E2,1.96E2,6.8E0,4.5672756E1,5.081028E-1,3.9E1,1.1068572E1,5.220571E0,1.0113681E1,2.411E3,3.7419E4,8.0552185E1,-4.2506814E-2,-2.7319191E-2,1.192869E-2,-2.670662E-2,-4.1234426E-2,-7.246177E-3,3.8753215E-2,-4.2540226E-2,2.1538338E-2,-4.5588955E-2,3.9373916E-2,-4.758394E-2,-3.1942032E-2,2.3745332E-2,1.996407E-2,4.150248E-2],"split_indices":[6,2,4,3,1,28,9,58,14,29,23,39,24,17,9,0,0,0,0,0,0,0,0,0,0,0,0,0,0,0,0],"split_type":[0,0,0,0,0,0,0,0,0,0,0,0,0,0,0,0,0,0,0,0,0,0,0,0,0,0,0,0,0,0,0],"sum_hessian":[2.7580826E4,9.926169E3,1.7654656E4,7.60391E2,9.165778E3,1.1352654E4,6.302002E3,4.3677185E2,3.2361914E2,9.120275E3,4.550304E1,3.281176E3,8.0714785E3,3.5630225E3,2.7389795E3,2.4411581E2,1.9265602E2,4.786823E1,2.757509E2,9.098912E3,2.1363064E1,2.2388937E1,2.3114103E1,3.0576255E3,2.2355057E2,7.984331E3,8.714772E1,2.6596028E3,9.034197E2,8.0193665E2,1.937043E3],"tree_param":{"num_deleted":"0","num_feature":"59","num_nodes":"31","size_leaf_vector":"1"}},{"base_weights":[2.879056E-4,-1.3184245E0,7.385651E-1,-1.4084758E0,1.0493826E0,8.500452E-1,-8.20028E-1,-1.4248677E0,-6.6412026E-1,5.9323955E-1,1.4022893E0,1.615255E-1,1.1286702E0,-1.1873857E0,6.958167E-1,-4.2831343E-2,-3.7993625E-2,-3.0607258E-3,-4.123484E-2,-3.002363E-2,2.5206547E-2,3.3651598E-2,4.4626E-2,-6.4034187E-3,3.172829E-2,1.971803E-2,3.7280753E-2,-3.8621508E-2,4.502353E-2,2.9009912E-2,-3.2254532E-2],"categories":[],"categories_nodes":[],"categories_segments":[],"categories_sizes":[],"default_left":[0,0,0,0,0,0,0,0,0,0,0,0,0,0,0,0,0,0,0,0,0,0,0,0,0,0,0,0,0,0,0],"id":17,"left_children":[1,3,5,7,9,11,13,15,17,19,21,23,25,27,29,-1,-1,-1,-1,-1,-1,-1,-1,-1,-1,-1,-1,-1,-1,-1,-1],"loss_changes":[2.653847E4,2.0875527E3,3.0370654E3,1.1405664E2,5.6961884E1,3.1285693E3,6.506859E2,2.3457031E0,8.170219E1,6.317712E1,3.1550598E0,1.5793623E3,6.23251E2,2.5454285E2,1.10671814E2,0E0,0E0,0E0,0E0,0E0,0E0,0E0,0E0,0E0,0E0,0E0,0E0,0E0,0E0,0E0,0E0],"parents":[2147483647,0,0,1,1,2,2,3,3,4,4,5,5,6,6,7,7,8,8,9,9,10,10,11,11,12,12,13,13,14,14],"right_children":[2,4,6,8,10,12,14,16,18,20,22,24,26,28,30,-1,-1,-1,-1,-1,-1,-1,-1,-1,-1,-1,-1,-1,-1,-1,-1],"split_conditions":[1E0,4.9E0,8.35625E0,4.3E0,5.5E0,5.8E0,4.6701935E1,4E0,4.3E0,2.2631E4,5.9E0,3.37E2,2.144E4,5.1E0,1.7009027E1,-4.2831343E-2,-3.7993625E-2,-3.0607258E-3,-4.123484E-2,-3.002363E-2,2.5206547E-2,3.3651598E-2,4.4626E-2,-6.4034187E-3,3.172829E-2,1.971803E-2,3.7280753E-2,-3.8621508E-2,4.502353E-2,2.9009912E-2,-3.2254532E-2],"split_indices":[6,0,8,0,0,10,9,0,32,17,0,14,17,0,8,0,0,0,0,0,0,0,0,0,0,0,0,0,0,0,0],"split_type":[0,0,0,0,0,0,0,0,0,0,0,0,0,0,0,0,0,0,0,0,0,0,0,0,0,0,0,0,0,0,0],"sum_hessian":[2.7256775E4,9.782487E3,1.7474287E4,9.424466E3,3.5802148E2,1.6308274E4,1.166013E3,9.220501E3,2.0396541E2,1.5733809E2,2.0068341E2,4.6987104E3,1.1609563E4,9.387323E2,2.272806E2,9.050027E3,1.7047282E2,1.1450498E2,8.946043E1,2.069811E1,1.3663998E2,5.00639E1,1.506195E2,3.3130872E3,1.3856232E3,2.2624824E3,9.347081E3,9.05567E2,3.316533E1,1.974933E2,2.9787294E1],"tree_param":{"num_deleted":"0","num_feature":"59","num_nodes":"31","size_leaf_vector":"1"}},{"base_weights":[-6.0570533E-3,-1.3050076E0,7.195567E-1,-1.3147502E0,-1.3095166E-1,1.032704E0,1.6153315E-1,-5.834913E-1,-1.3224492E0,2.893875E-1,-4.313644E-2,5.2201736E-1,1.2403234E0,-5.987819E-1,1.1365253E0,-3.281303E-2,7.7265822E-3,-3.978148E-2,-1.9079369E-2,1.9987475E-2,-4.309895E-2,-3.0571338E-2,2.2394935E-2,3.8108364E-2,-5.082698E-2,-3.120671E-2,2.2296747E-2,2.0894313E-2,4.069325E-2],"categories":[],"categories_nodes":[],"categories_segments":[],"categories_sizes":[],"default_left":[0,0,0,0,0,0,0,1,0,0,0,0,0,0,0,0,0,0,0,0,0,0,0,0,0,0,0,0,0],"id":18,"left_children":[1,3,5,7,9,11,13,15,17,19,-1,21,23,25,27,-1,-1,-1,-1,-1,-1,-1,-1,-1,-1,-1,-1,-1,-1],"loss_changes":[2.5374275E4,1.1019336E2,3.0181016E3,5.3103516E1,4.4649586E1,1.172417E3,4.6040903E3,4.3836945E1,2.255664E1,4.112818E1,0E0,1.1076147E3,6.9353613E2,2.068149E3,2.623943E2,0E0,0E0,0E0,0E0,0E0,0E0,0E0,0E0,0E0,0E0,0E0,0E0,0E0,0E0],"parents":[2147483647,0,0,1,1,2,2,3,3,4,4,5,5,6,6,7,7,8,8,9,9,11,11,12,12,13,13,14,14],"right_children":[2,4,6,8,10,12,14,16,18,20,-1,22,24,26,28,-1,-1,-1,-1,-1,-1,-1,-1,-1,-1,-1,-1,-1,-1],"split_conditions":[1E0,1.2766E2,1.7550207E-7,3.47E0,5E0,6.8E0,4.5672756E1,7.659417E-1,2.057E1,1.8E1,-4.313644E-2,7.16E0,2.411E3,7.203E4,8.6635765E1,-3.281303E-2,7.7265822E-3,-3.978148E-2,-1.9079369E-2,1.9987475E-2,-4.309895E-2,-3.0571338E-2,2.2394935E-2,3.8108364E-2,-5.082698E-2,-3.120671E-2,2.2296747E-2,2.0894313E-2,4.069325E-2],"split_indices":[6,3,4,2,22,28,9,58,2,15,0,2,24,30,9,0,0,0,0,0,0,0,0,0,0,0,0,0,0],"split_type":[0,0,0,0,0,0,0,0,0,0,0,0,0,0,0,0,0,0,0,0,0,0,0,0,0,0,0,0,0],"sum_hessian":[2.6919273E4,9.647713E3,1.727156E4,9.568194E3,7.951913E1,1.1062656E4,6.2089043E3,1.0048836E2,9.467705E3,6.075687E1,1.8762257E1,3.1985703E3,7.8640854E3,3.4887249E3,2.7201797E3,6.235561E1,3.8132748E1,9.417384E3,5.0321884E1,5.0372467E1,1.0384406E1,4.062332E2,2.7923372E3,7.785183E3,7.8902374E1,2.6253596E3,8.6336505E2,9.0781946E2,1.8123602E3],"tree_param":{"num_deleted":"0","num_feature":"59","num_nodes":"29","size_leaf_vector":"1"}},{"base_weights":[1.3061899E-2,-1.2843337E0,7.1945655E-1,-1.3759081E0,8.9801455E-1,1.1443901E0,3.3638075E-1,-1.3919083E0,-7.4398124E-1,-1.247208E-1,1.2129296E0,7.732E-1,1.3027061E0,-2.087692E-1,1.0711519E0,-4.1862886E-2,-3.819979E-2,-6.816893E-4,-4.0255956E-2,1.4560165E-2,-3.808956E-2,2.3843398E-2,4.296267E-2,3.129113E-2,-9.567751E-3,3.9603606E-2,-5.7085965E-2,-3.2329228E-2,1.8474218E-2,3.302237E-2,-3.7687693E-2],"categories":[],"categories_nodes":[],"categories_segments":[],"categories_sizes":[],"default_left":[0,0,0,0,0,0,0,0,0,0,0,0,0,0,0,0,0,0,0,0,0,0,0,0,0,0,0,0,0,0,0],"id":19,"left_children":[1,3,5,7,9,11,13,15,17,19,21,23,25,27,29,-1,-1,-1,-1,-1,-1,-1,-1,-1,-1,-1,-1,-1,-1,-1,-1],"loss_changes":[2.456563E4,1.8896699E3,2.8247139E3,9.066016E1,1.22908936E2,4.824912E2,3.656744E3,1.9179688E0,9.747402E1,6.392457E1,2.557608E1,7.26E2,3.2439355E2,3.755792E3,2.691919E2,0E0,0E0,0E0,0E0,0E0,0E0,0E0,0E0,0E0,0E0,0E0,0E0,0E0,0E0,0E0,0E0],"parents":[2147483647,0,0,1,1,2,2,3,3,4,4,5,5,6,6,7,7,8,8,9,9,10,10,11,11,12,12,13,13,14,14],"right_children":[2,4,6,8,10,12,14,16,18,20,22,24,26,28,30,-1,-1,-1,-1,-1,-1,-1,-1,-1,-1,-1,-1,-1,-1,-1,-1],"split_conditions":[1E0,4.8E0,5.96709E-8,4.2E0,5.1E0,6.8E0,3.5598843E1,3.8E0,1.6E1,7.5160384E0,5.6E0,7.9E1,2.464E3,1.2617E2,1.7009027E1,-4.1862886E-2,-3.819979E-2,-6.816893E-4,-4.0255956E-2,1.4560165E-2,-3.808956E-2,2.3843398E-2,4.296267E-2,3.129113E-2,-9.567751E-3,3.9603606E-2,-5.7085965E-2,-3.2329228E-2,1.8474218E-2,3.302237E-2,-3.7687693E-2],"split_indices":[6,0,4,0,0,28,9,0,11,23,0,31,24,3,8,0,0,0,0,0,0,0,0,0,0,0,0,0,0,0,0],"split_type":[0,0,0,0,0,0,0,0,0,0,0,0,0,0,0,0,0,0,0,0,0,0,0,0,0,0,0,0,0,0,0],"sum_hessian":[2.6802516E4,9.448382E3,1.7354133E4,9.068235E3,3.801465E2,8.226622E3,9.127512E3,8.843127E3,2.251086E2,8.96378E1,2.905087E2,2.4614216E3,5.7652E3,5.24029E3,3.8872214E3,8.577646E3,2.6548026E2,1.02497986E2,1.2261061E2,5.885427E1,3.0783527E1,1.0149187E2,1.8901685E2,1.9737904E3,4.876313E2,5.7346353E3,3.0564816E1,2.551461E3,2.688829E3,3.838935E3,4.82864E1],"tree_param":{"num_deleted":"0","num_feature":"59","num_nodes":"31","size_leaf_vector":"1"}},{"base_weights":[-9.279698E-4,-1.27032E0,6.925617E-1,-1.3533931E0,9.799058E-1,1.0007503E0,1.3283196E-1,-1.373578E0,-6.678699E-1,5.2185535E-1,1.3508931E0,4.9175027E-1,1.2100525E0,-5.4765713E-1,1.0715226E0,-4.131194E-2,-3.769714E-2,-3.199966E-3,-3.7464235E-2,-1.4763591E-2,2.9534549E-2,4.209711E-2,1.2534091E-4,1.9328259E-2,-4.7919624E-2,3.718466E-2,-4.429411E-2,-2.9190902E-2,2.1908144E-2,1.6816942E-2,3.945589E-2],"categories":[],"categories_nodes":[],"categories_segments":[],"categories_sizes":[],"default_left":[0,0,0,0,0,0,0,0,0,0,1,0,0,0,0,0,0,0,0,0,0,0,0,0,0,0,0,0,0,0,0],"id":20,"left_children":[1,3,5,7,9,11,13,15,17,19,21,23,25,27,29,-1,-1,-1,-1,-1,-1,-1,-1,-1,-1,-1,-1,-1,-1,-1,-1],"loss_changes":[2.317393E4,1.7399131E3,2.9365728E3,1.2319922E2,5.5662903E1,1.169041E3,3.862743E3,1.8222656E0,8.414595E1,7.088023E1,1.286908E1,1.0209079E3,6.170127E2,1.9064875E3,3.1568286E2,0E0,0E0,0E0,0E0,0E0,0E0,0E0,0E0,0E0,0E0,0E0,0E0,0E0,0E0,0E0,0E0],"parents":[2147483647,0,0,1,1,2,2,3,3,4,4,5,5,6,6,7,7,8,8,9,9,10,10,11,11,12,12,13,13,14,14],"right_children":[2,4,6,8,10,12,14,16,18,20,22,24,26,28,30,-1,-1,-1,-1,-1,-1,-1,-1,-1,-1,-1,-1,-1,-1,-1,-1],"split_conditions":[1E0,4.9E0,1.7550207E-7,4.2E0,5.5E0,6.8E0,4.5672756E1,3.8E0,7.197848E0,7.13E2,5.3E0,1.0113681E1,2.411E3,7.203E4,8.6635765E1,-4.131194E-2,-3.769714E-2,-3.199966E-3,-3.7464235E-2,-1.4763591E-2,2.9534549E-2,4.209711E-2,1.2534091E-4,1.9328259E-2,-4.7919624E-2,3.718466E-2,-4.429411E-2,-2.9190902E-2,2.1908144E-2,1.6816942E-2,3.945589E-2],"split_indices":[6,0,4,0,0,28,9,0,23,40,32,39,24,30,9,0,0,0,0,0,0,0,0,0,0,0,0,0,0,0,0],"split_type":[0,0,0,0,0,0,0,0,0,0,0,0,0,0,0,0,0,0,0,0,0,0,0,0,0,0,0,0,0,0,0],"sum_hessian":[2.632273E4,9.299574E3,1.7023156E4,8.968863E3,3.307107E2,1.0977905E4,6.0452515E3,8.711358E3,2.5750525E2,1.4906718E2,1.8164351E2,3.199769E3,7.7781367E3,3.5048684E3,2.540383E3,8.448828E3,2.6253036E2,1.315792E2,1.2592604E2,4.6683723E1,1.0238347E2,1.7480717E2,6.836342E0,2.9826917E3,2.1707748E2,7.694368E3,8.376854E1,2.6297612E3,8.751071E2,8.213663E2,1.7190167E3],"tree_param":{"num_deleted":"0","num_feature":"59","num_nodes":"31","size_leaf_vector":"1"}},{"base_weights":[-2.2459324E-3,-1.2543036E0,6.777207E-1,-1.3416616E0,1.0060211E0,1.1004866E0,3.0041775E-1,-1.3623596E0,-6.43757E-1,7.0745444E-1,4.291881E-2,7.196018E-1,1.2665806E0,-4.9069637E-1,7.6427233E-1,-4.0925257E-2,-3.6398E-2,-3.360426E-2,-3.2510771E-3,2.42264E-2,-4.9750555E-2,3.3467833E-2,-2.6401922E-3,3.8488295E-2,-5.389613E-2,-3.182567E-2,2.7305141E-2,2.5422897E-2,-3.3522207E-2],"categories":[],"categories_nodes":[],"categories_segments":[],"categories_sizes":[],"default_left":[0,0,0,0,0,0,0,0,1,0,0,0,0,0,0,0,0,0,0,0,0,0,0,0,0,0,0,0,0],"id":21,"left_children":[1,3,5,7,9,11,13,15,17,19,-1,21,23,25,27,-1,-1,-1,-1,-1,-1,-1,-1,-1,-1,-1,-1,-1,-1],"loss_changes":[2.2111217E4,1.8062324E3,2.6844116E3,1.2625488E2,4.2179077E1,5.0120215E2,3.2645479E3,6.582031E-1,6.5016335E1,4.9176353E1,0E0,7.716113E2,2.7924902E2,2.6274502E3,8.7842456E2,0E0,0E0,0E0,0E0,0E0,0E0,0E0,0E0,0E0,0E0,0E0,0E0,0E0,0E0],"parents":[2147483647,0,0,1,1,2,2,3,3,4,4,5,5,6,6,7,7,8,8,9,9,11,11,12,12,13,13,14,14],"right_children":[2,4,6,8,10,12,14,16,18,20,-1,22,24,26,28,-1,-1,-1,-1,-1,-1,-1,-1,-1,-1,-1,-1,-1,-1],"split_conditions":[1E0,4.9E0,5.96709E-8,4.2E0,5.9E0,6.8E0,1.2542E2,4E0,6.2E0,2.8855843E-4,4.291881E-2,1.62E2,2.464E3,3.8746952E1,1.2952084E1,-4.0925257E-2,-3.6398E-2,-3.360426E-2,-3.2510771E-3,2.42264E-2,-4.9750555E-2,3.3467833E-2,-2.6401922E-3,3.8488295E-2,-5.389613E-2,-3.182567E-2,2.7305141E-2,2.5422897E-2,-3.3522207E-2],"split_indices":[6,0,4,0,0,28,3,0,41,4,0,34,24,9,8,0,0,0,0,0,0,0,0,0,0,0,0,0,0],"split_type":[0,0,0,0,0,0,0,0,0,0,0,0,0,0,0,0,0,0,0,0,0,0,0,0,0,0,0,0,0],"sum_hessian":[2.5969719E4,9.13962E3,1.6830098E4,8.799924E3,3.396968E2,7.935971E3,8.894127E3,8.545532E3,2.5439128E2,2.0101608E2,1.3868073E2,2.4114333E3,5.5245376E3,3.2873765E3,5.6067505E3,8.434671E3,1.1086181E2,1.3403525E2,1.2035603E2,1.9348865E2,7.5274315E0,1.6177998E3,7.9363354E2,5.4957617E3,2.8776194E1,2.3366091E3,9.507674E2,5.369983E3,2.3676752E2],"tree_param":{"num_deleted":"0","num_feature":"59","num_nodes":"29","size_leaf_vector":"1"}},{"base_weights":[-6.34336E-3,-1.2450644E0,6.624458E-1,-1.3307496E0,8.2691014E-1,1.0819008E0,2.881068E-1,-1.3455545E0,-7.4247533E-1,3.7137035E-1,1.2960622E0,6.983202E-1,1.2528137E0,-2.576744E-1,9.527544E-1,-4.0494245E-2,-3.7077654E-2,-4.329656E-2,-5.4163137E-3,-4.6983343E-2,1.5270662E-2,4.0637456E-2,2.6250297E-2,-1.0171543E-3,3.163224E-2,3.814739E-2,-4.1309386E-2,-2.3766572E-2,2.7979791E-2,1.9872243E-2,3.826407E-2],"categories":[],"categories_nodes":[],"categories_segments":[],"categories_sizes":[],"default_left":[0,0,0,0,0,0,0,1,0,1,1,0,0,0,0,0,0,0,0,0,0,0,0,0,0,0,0,0,0,0,0],"id":22,"left_children":[1,3,5,7,9,11,13,15,17,19,21,23,25,27,29,-1,-1,-1,-1,-1,-1,-1,-1,-1,-1,-1,-1,-1,-1,-1,-1],"loss_changes":[2.1163012E4,1.5912109E3,2.6044746E3,7.391113E1,7.566562E1,5.1197363E2,3.1806084E3,2.243164E0,8.376199E1,4.9382233E1,3.1297302E0,6.29318E2,2.687539E2,3.064415E3,3.6958374E2,0E0,0E0,0E0,0E0,0E0,0E0,0E0,0E0,0E0,0E0,0E0,0E0,0E0,0E0,0E0,0E0],"parents":[2147483647,0,0,1,1,2,2,3,3,4,4,5,5,6,6,7,7,8,8,9,9,10,10,11,11,12,12,13,13,14,14],"right_children":[2,4,6,8,10,12,14,16,18,20,22,24,26,28,30,-1,-1,-1,-1,-1,-1,-1,-1,-1,-1,-1,-1,-1,-1,-1,-1],"split_conditions":[1E0,4.8E0,5.96709E-8,4.2E0,5.5E0,6.8E0,3.1628534E1,5.6E0,9.443338E0,4.4E0,3.6E0,1.1E1,2.411E3,7.203E4,8.0552185E1,-4.0494245E-2,-3.7077654E-2,-4.329656E-2,-5.4163137E-3,-4.6983343E-2,1.5270662E-2,4.0637456E-2,2.6250297E-2,-1.0171543E-3,3.163224E-2,3.814739E-2,-4.1309386E-2,-2.3766572E-2,2.7979791E-2,1.9872243E-2,3.826407E-2],"split_indices":[6,0,4,0,0,28,9,19,55,38,57,11,24,30,9,0,0,0,0,0,0,0,0,0,0,0,0,0,0,0,0],"split_type":[0,0,0,0,0,0,0,0,0,0,0,0,0,0,0,0,0,0,0,0,0,0,0,0,0,0,0,0,0,0,0],"sum_hessian":[2.5543525E4,8.955473E3,1.6588053E4,8.600176E3,3.552971E2,7.821735E3,8.766317E3,8.387796E3,2.123799E2,1.8117267E2,1.741244E2,2.4124788E3,5.4092563E3,4.813929E3,3.952388E3,8.0636143E3,3.2418182E2,9.381803E1,1.1856187E2,1.1329523E1,1.6984314E2,1.5093039E2,2.3194025E1,7.8964087E2,1.6228379E3,5.371442E3,3.781404E1,3.32231E3,1.4916191E3,2.08214E3,1.8702479E3],"tree_param":{"num_deleted":"0","num_feature":"59","num_nodes":"31","size_leaf_vector":"1"}},{"base_weights":[4.6186056E-3,-1.2280843E0,6.544468E-1,-1.3198011E0,6.4060414E-1,9.853704E-1,1.7565608E-1,-1.3294225E0,-8.257164E-1,-2.0157778E-1,1.1562626E0,5.6417185E-1,1.1742722E0,-4.6101978E-1,9.687352E-1,-4.000926E-2,-3.6572643E-2,-3.0181631E-2,4.3820348E-2,-2.3054762E-2,2.0241212E-2,2.5490336E-2,4.170739E-2,-2.554738E-2,2.2970213E-2,3.6027353E-2,-4.5383282E-2,-2.6837207E-2,2.2975639E-2,1.8052442E-2,3.7788387E-2],"categories":[],"categories_nodes":[],"categories_segments":[],"categories_sizes":[],"default_left":[0,0,0,0,0,0,0,1,0,1,0,0,0,0,0,0,0,0,0,0,0,0,0,0,0,0,0,0,0,0,0],"id":23,"left_children":[1,3,5,7,9,11,13,15,17,19,21,23,25,27,29,-1,-1,-1,-1,-1,-1,-1,-1,-1,-1,-1,-1,-1,-1,-1,-1],"loss_changes":[2.0381781E4,1.5061602E3,2.6396504E3,3.870215E1,1.7897383E2,7.831787E2,3.4392693E3,2.1982422E0,6.8497955E1,7.8589775E1,1.7141876E1,8.7137604E2,4.8860156E2,2.0104758E3,3.2301367E2,0E0,0E0,0E0,0E0,0E0,0E0,0E0,0E0,0E0,0E0,0E0,0E0,0E0,0E0,0E0,0E0],"parents":[2147483647,0,0,1,1,2,2,3,3,4,4,5,5,6,6,7,7,8,8,9,9,10,10,11,11,12,12,13,13,14,14],"right_children":[2,4,6,8,10,12,14,16,18,20,22,24,26,28,30,-1,-1,-1,-1,-1,-1,-1,-1,-1,-1,-1,-1,-1,-1,-1,-1],"split_conditions":[1E0,4.6E0,1.2835343E-7,4.2E0,5.2E0,6.8E0,3.8746952E1,5.6E0,6.129E3,9.6811495E0,5.9E0,7.16E0,2.411E3,7.203E4,8.6635765E1,-4.000926E-2,-3.6572643E-2,-3.0181631E-2,4.3820348E-2,-2.3054762E-2,2.0241212E-2,2.5490336E-2,4.170739E-2,-2.554738E-2,2.2970213E-2,3.6027353E-2,-4.5383282E-2,-2.6837207E-2,2.2975639E-2,1.8052442E-2,3.7788387E-2],"split_indices":[6,0,4,0,0,28,9,19,40,29,0,2,24,30,9,0,0,0,0,0,0,0,0,0,0,0,0,0,0,0,0],"split_type":[0,0,0,0,0,0,0,0,0,0,0,0,0,0,0,0,0,0,0,0,0,0,0,0,0,0,0,0,0,0,0],"sum_hessian":[2.5441986E4,8.781976E3,1.6660012E4,8.371395E3,4.1058112E2,9.850575E3,6.809435E3,8.209832E3,1.6156255E2,1.561551E2,2.5442601E2,3.05121E3,6.7993657E3,3.7773975E3,3.0320376E3,7.8967466E3,3.1308514E2,1.5027007E2,1.1292484E1,9.48893E1,6.1265816E1,1.1213233E2,1.4229369E2,3.79764E2,2.6714458E3,6.7331655E3,6.6200066E1,2.7912827E3,9.8611487E2,1.3419852E3,1.6900525E3],"tree_param":{"num_deleted":"0","num_feature":"59","num_nodes":"31","size_leaf_vector":"1"}},{"base_weights":[-6.5986477E-3,-1.2098573E0,6.315709E-1,-1.3010116E0,9.668807E-1,7.3718244E-1,-8.286445E-1,-1.3183703E0,-7.187627E-1,4.0376168E-1,1.2209342E0,1.1225455E-1,1.0074668E0,-1.13005E0,7.7935225E-1,-3.9608985E-2,-3.4799855E-2,-3.6603406E-2,-4.2732204E-3,-4.9446013E-2,2.3254849E-2,2.845068E-2,4.1435823E-2,-6.7666313E-3,2.8120792E-2,3.459061E-2,1.7765446E-2,-3.692171E-2,3.2856084E-2,3.176811E-2,-1.3749315E-2],"categories":[],"categories_nodes":[],"categories_segments":[],"categories_sizes":[],"default_left":[0,0,0,0,0,0,0,0,0,0,0,0,0,0,0,0,0,0,0,0,0,0,0,0,0,0,0,0,0,0,0],"id":24,"left_children":[1,3,5,7,9,11,13,15,17,19,21,23,25,27,29,-1,-1,-1,-1,-1,-1,-1,-1,-1,-1,-1,-1,-1,-1,-1,-1],"loss_changes":[1.9164736E4,1.7174746E3,2.5156265E3,8.296582E1,4.932486E1,2.5688115E3,5.3421826E2,9.316406E-1,6.990852E1,8.492164E1,9.151001E0,1.2804243E3,6.410703E2,2.0904968E2,6.0798515E1,0E0,0E0,0E0,0E0,0E0,0E0,0E0,0E0,0E0,0E0,0E0,0E0,0E0,0E0,0E0,0E0],"parents":[2147483647,0,0,1,1,2,2,3,3,4,4,5,5,6,6,7,7,8,8,9,9,10,10,11,11,12,12,13,13,14,14],"right_children":[2,4,6,8,10,12,14,16,18,20,22,24,26,28,30,-1,-1,-1,-1,-1,-1,-1,-1,-1,-1,-1,-1,-1,-1,-1,-1],"split_conditions":[1E0,4.9E0,8.35625E0,4.2E0,5.3E0,5.8E0,6.179925E1,4E0,5.9E0,4E0,5.9E0,3.37E2,2.1430554E0,4.5E0,1.2952084E1,-3.9608985E-2,-3.4799855E-2,-3.6603406E-2,-4.2732204E-3,-4.9446013E-2,2.3254849E-2,2.845068E-2,4.1435823E-2,-6.7666313E-3,2.8120792E-2,3.459061E-2,1.7765446E-2,-3.692171E-2,3.2856084E-2,3.176811E-2,-1.3749315E-2],"split_indices":[6,0,8,0,0,10,9,0,10,19,0,14,8,0,8,0,0,0,0,0,0,0,0,0,0,0,0,0,0,0,0],"split_type":[0,0,0,0,0,0,0,0,0,0,0,0,0,0,0,0,0,0,0,0,0,0,0,0,0,0,0,0,0,0,0],"sum_hessian":[2.495589E4,8.64846E3,1.6307432E4,8.301235E3,3.472246E2,1.5207993E4,1.0994385E3,8.059685E3,2.4155014E2,1.0875483E2,2.3846979E2,4.592056E3,1.0615937E4,9.2613873E2,1.732997E2,7.955444E3,1.0424091E2,1.2857971E2,1.1297042E2,1.6140692E1,9.2614136E1,9.0855606E1,1.4761418E2,3.258649E3,1.3334072E3,7.8594844E3,2.7564524E3,8.8648004E2,3.9658737E1,1.4148338E2,3.1816303E1],"tree_param":{"num_deleted":"0","num_feature":"59","num_nodes":"31","size_leaf_vector":"1"}},{"base_weights":[3.791189E-3,-1.208733E0,6.314364E-1,-4.9524698E-1,-1.2186602E0,1.0122637E0,2.5953168E-1,-1.0644072E0,1.6202003E-1,-1.2225254E0,-2.3765513E-1,2.9403028E-1,1.1093317E0,-2.1136467E-1,1.0033132E0,-1.5160823E-2,-4.213601E-2,2.5687171E-2,-4.2953376E-2,-3.7165474E-2,-3.183036E-2,1.3331376E-2,-3.751218E-2,-4.0122434E-2,1.9037956E-2,3.5687473E-2,1.3496432E-2,-3.0274864E-2,1.6090127E-2,2.2142317E-2,3.7247114E-2],"categories":[],"categories_nodes":[],"categories_segments":[],"categories_sizes":[],"default_left":[0,0,0,1,0,0,0,0,0,0,0,0,0,0,0,0,0,0,0,0,0,0,0,0,0,0,0,0,0,0,0],"id":25,"left_children":[1,3,5,7,9,11,13,15,17,19,21,23,25,27,29,-1,-1,-1,-1,-1,-1,-1,-1,-1,-1,-1,-1,-1,-1,-1,-1],"loss_changes":[1.885241E4,5.9242188E1,2.3115596E3,4.417756E1,3.1304688E1,5.6189844E2,2.8930479E3,1.1302452E1,6.2587975E1,2.0567383E1,2.4000748E1,5.350655E2,3.7541016E2,3.017918E3,2.0144092E2,0E0,0E0,0E0,0E0,0E0,0E0,0E0,0E0,0E0,0E0,0E0,0E0,0E0,0E0,0E0,0E0],"parents":[2147483647,0,0,1,1,2,2,3,3,4,4,5,5,6,6,7,7,8,8,9,9,10,10,11,11,12,12,13,13,14,14],"right_children":[2,4,6,8,10,12,14,16,18,20,22,24,26,28,30,-1,-1,-1,-1,-1,-1,-1,-1,-1,-1,-1,-1,-1,-1,-1,-1],"split_conditions":[1E0,3.47E0,7.169725E-8,8.64964E0,1.1068572E1,5.2E0,4.0310535E1,3.1E1,5.7E1,8.866754E0,1.43E2,5.8E0,1.34E2,1.2617E2,8.6635765E1,-1.5160823E-2,-4.213601E-2,2.5687171E-2,-4.2953376E-2,-3.7165474E-2,-3.183036E-2,1.3331376E-2,-3.751218E-2,-4.0122434E-2,1.9037956E-2,3.5687473E-2,1.3496432E-2,-3.0274864E-2,1.6090127E-2,2.2142317E-2,3.7247114E-2],"split_indices":[6,2,4,39,29,10,9,27,37,20,14,28,18,3,9,0,0,0,0,0,0,0,0,0,0,0,0,0,0,0,0],"split_type":[0,0,0,0,0,0,0,0,0,0,0,0,0,0,0,0,0,0,0,0,0,0,0,0,0,0,0,0,0,0,0],"sum_hessian":[2.4770062E4,8.448261E3,1.6321803E4,1.1663231E2,8.331628E3,8.063316E3,8.258486E3,6.2173626E1,5.4458683E1,8.298686E3,3.294244E1,9.604816E2,7.1028345E3,5.0573423E3,3.2011438E3,2.445846E1,3.7715164E1,3.8257458E1,1.6201223E1,7.5308853E3,7.678005E2,2.0020742E1,1.2921699E1,1.6537048E2,7.9511115E2,6.3315264E3,7.713079E2,2.4465386E3,2.610804E3,1.5167477E3,1.6843962E3],"tree_param":{"num_deleted":"0","num_feature":"59","num_nodes":"31","size_leaf_vector":"1"}},{"base_weights":[1.4668847E-3,-1.1858246E0,6.1391664E-1,-1.2808145E0,8.414299E-1,7.0076597E-1,-1.0040457E0,-1.2945012E0,-7.579517E-1,3.6139455E-1,1.1727101E0,2.066216E-1,1.0208787E0,-1.1666244E0,1.2275256E0,-3.890396E-2,-3.4385968E-2,-4.1605353E-2,-7.791025E-3,-2.0153016E-2,2.0741144E-2,2.5965469E-2,4.104481E-2,-1.4074489E-3,3.817926E-2,3.2097433E-2,-1.7883604E-2,-3.7128102E-2,4.4319373E-2,3.8010556E-2,1.8938726E-2],"categories":[],"categories_nodes":[],"categories_segments":[],"categories_sizes":[],"default_left":[0,0,0,0,0,0,0,0,1,1,0,0,0,0,0,0,0,0,0,0,0,0,0,0,0,0,0,0,0,0,0],"id":26,"left_children":[1,3,5,7,9,11,13,15,17,19,21,23,25,27,29,-1,-1,-1,-1,-1,-1,-1,-1,-1,-1,-1,-1,-1,-1,-1,-1],"loss_changes":[1.7726158E4,1.5985479E3,2.260497E3,5.573047E1,5.8719177E1,2.4141348E3,2.9881494E2,1.1435547E0,6.373841E1,5.272887E1,1.2001038E1,1.6221722E3,7.350625E2,1.4530261E2,5.2228546E-1,0E0,0E0,0E0,0E0,0E0,0E0,0E0,0E0,0E0,0E0,0E0,0E0,0E0,0E0,0E0,0E0],"parents":[2147483647,0,0,1,1,2,2,3,3,4,4,5,5,6,6,7,7,8,8,9,9,10,10,11,11,12,12,13,13,14,14],"right_children":[2,4,6,8,10,12,14,16,18,20,22,24,26,28,30,-1,-1,-1,-1,-1,-1,-1,-1,-1,-1,-1,-1,-1,-1,-1,-1],"split_conditions":[1E0,4.8E0,1.0961111E1,4.2E0,5.3E0,6.8E0,9.799409E1,3.7369E4,9.443338E0,5.9E0,5.9E0,9.329028E1,2.218E3,5.1E0,1.5314584E1,-3.890396E-2,-3.4385968E-2,-4.1605353E-2,-7.791025E-3,-2.0153016E-2,2.0741144E-2,2.5965469E-2,4.104481E-2,-1.4074489E-3,3.817926E-2,3.2097433E-2,-1.7883604E-2,-3.7128102E-2,4.4319373E-2,3.8010556E-2,1.8938726E-2],"split_indices":[6,0,8,0,0,28,9,17,42,41,0,9,24,0,8,0,0,0,0,0,0,0,0,0,0,0,0,0,0,0,0],"split_type":[0,0,0,0,0,0,0,0,0,0,0,0,0,0,0,0,0,0,0,0,0,0,0,0,0,0,0,0,0,0,0],"sum_hessian":[2.4375365E4,8.294589E3,1.6080777E4,7.9236816E3,3.70907E2,1.5262103E4,8.186752E2,7.72012E3,2.0356122E2,1.5230426E2,2.1860274E2,6.000709E3,9.261394E3,7.635265E2,5.5148647E1,7.594718E3,1.2540273E2,8.919529E1,1.1436593E2,3.661777E1,1.15686485E2,8.7113106E1,1.3148964E2,4.848519E3,1.1521898E3,8.989134E3,2.7225912E2,7.4408276E2,1.9443705E1,5.0667538E1,4.481111E0],"tree_param":{"num_deleted":"0","num_feature":"59","num_nodes":"31","size_leaf_vector":"1"}},{"base_weights":[7.5329054E-4,-1.1724162E0,5.995931E-1,-1.2700773E0,6.842088E-1,9.1848445E-1,1.5774629E-1,-1.2806131E0,-7.490298E-1,7.6842315E-2,1.1241715E0,4.5968276E-1,1.1205835E0,-2.0794797E-1,9.2330736E-1,-3.8543157E-2,-3.426914E-2,-4.1147806E-2,-4.397392E-3,-1.297885E-2,2.4104511E-2,2.5918486E-2,4.0238388E-2,2.2736114E-2,-1.5070664E-2,3.4308806E-2,-4.532824E-2,4.872556E-4,-3.5804424E-2,3.396E-2,-4.029568E-2],"categories":[],"categories_nodes":[],"categories_segments":[],"categories_sizes":[],"default_left":[0,0,0,0,0,0,0,0,1,1,0,0,0,1,0,0,0,0,0,0,0,0,0,0,0,0,0,0,0,0,0],"id":27,"left_children":[1,3,5,7,9,11,13,15,17,19,21,23,25,27,29,-1,-1,-1,-1,-1,-1,-1,-1,-1,-1,-1,-1,-1,-1,-1,-1],"loss_changes":[1.6926008E4,1.477166E3,2.247317E3,4.150586E1,1.0881192E2,8.584868E2,1.8724332E3,2.8935547E0,5.8204414E1,6.412121E1,1.2188934E1,8.135382E2,3.9166943E2,1.0001307E3,1.0241547E3,0E0,0E0,0E0,0E0,0E0,0E0,0E0,0E0,0E0,0E0,0E0,0E0,0E0,0E0,0E0,0E0],"parents":[2147483647,0,0,1,1,2,2,3,3,4,4,5,5,6,6,7,7,8,8,9,9,10,10,11,11,12,12,13,13,14,14],"right_children":[2,4,6,8,10,12,14,16,18,20,22,24,26,28,30,-1,-1,-1,-1,-1,-1,-1,-1,-1,-1,-1,-1,-1,-1,-1,-1],"split_conditions":[1E0,4.6E0,1.2835343E-7,4.2E0,5.2E0,6.8E0,7.203E4,3.8E0,6.2E0,9.673298E0,5.9E0,7.2E1,4.767E3,9.524343E0,3.5E2,-3.8543157E-2,-3.426914E-2,-4.1147806E-2,-4.397392E-3,-1.297885E-2,2.4104511E-2,2.5918486E-2,4.0238388E-2,2.2736114E-2,-1.5070664E-2,3.4308806E-2,-4.532824E-2,4.872556E-4,-3.5804424E-2,3.396E-2,-4.029568E-2],"split_indices":[6,0,4,0,0,28,30,0,41,29,0,31,27,49,14,0,0,0,0,0,0,0,0,0,0,0,0,0,0,0,0],"split_type":[0,0,0,0,0,0,0,0,0,0,0,0,0,0,0,0,0,0,0,0,0,0,0,0,0,0,0,0,0,0,0],"sum_hessian":[2.4090568E4,8.140938E3,1.5949631E4,7.7344126E3,4.065252E2,9.263131E3,6.6865005E3,7.5796914E3,1.5472147E2,1.712668E2,2.3525839E2,2.833605E3,6.4295254E3,4.525488E3,2.1610127E3,7.3503804E3,2.2931084E2,7.546267E1,7.925879E1,1.0091606E2,7.035074E1,1.0926942E2,1.25988976E2,2.163295E3,6.7031E2,6.3742734E3,5.525205E1,3.6876106E3,8.3787714E2,1.979268E3,1.8174478E2],"tree_param":{"num_deleted":"0","num_feature":"59","num_nodes":"31","size_leaf_vector":"1"}},{"base_weights":[-1.0348563E-2,-1.1535032E0,5.767861E-1,-4.0837476E-1,-1.1641629E0,2.5849813E-1,1.0141052E0,-1.0045298E0,1.9528724E-1,-1.1695517E0,-1.5087217E-1,5.0642455E-1,-1.1725832E0,1.1046077E0,-8.890084E-1,-3.5266165E-2,2.0241389E-2,2.7384551E-2,-3.0193504E-2,-3.5258267E-2,-8.983935E-3,2.509939E-2,-2.6160482E-2,-6.2166764E-3,2.9948397E-2,-4.1429065E-2,8.124287E-3,3.4300677E-2,-4.450337E-2,-4.052395E-2,2.0367594E-2],"categories":[],"categories_nodes":[],"categories_segments":[],"categories_sizes":[],"default_left":[0,0,0,1,0,0,0,1,0,0,0,0,0,0,0,0,0,0,0,0,0,0,0,0,0,0,0,0,0,0,0],"id":28,"left_children":[1,3,5,7,9,11,13,15,17,19,21,23,25,27,29,-1,-1,-1,-1,-1,-1,-1,-1,-1,-1,-1,-1,-1,-1,-1,-1],"loss_changes":[1.5800962E4,6.2975586E1,2.1646787E3,4.129728E1,4.282715E1,3.1949387E3,1.1293589E3,1.7340965E1,5.0572876E1,3.865918E1,3.1215652E1,2.6940151E3,4.003329E2,6.289004E2,2.1665518E2,0E0,0E0,0E0,0E0,0E0,0E0,0E0,0E0,0E0,0E0,0E0,0E0,0E0,0E0,0E0,0E0],"parents":[2147483647,0,0,1,1,2,2,3,3,4,4,5,5,6,6,7,7,8,8,9,9,10,10,11,11,12,12,13,13,14,14],"right_children":[2,4,6,8,10,12,14,16,18,20,22,24,26,28,30,-1,-1,-1,-1,-1,-1,-1,-1,-1,-1,-1,-1,-1,-1,-1,-1],"split_conditions":[1E0,3.47E0,3.36E2,8.611362E0,1.2766E2,2.1430554E0,7.4708E4,1.4861431E0,5E0,1.96E2,6.015549E0,5.9E0,7.1E0,2.411E3,9.09E0,-3.5266165E-2,2.0241389E-2,2.7384551E-2,-3.0193504E-2,-3.5258267E-2,-8.983935E-3,2.509939E-2,-2.6160482E-2,-6.2166764E-3,2.9948397E-2,-4.1429065E-2,8.124287E-3,3.4300677E-2,-4.450337E-2,-4.052395E-2,2.0367594E-2],"split_indices":[6,2,14,39,3,8,30,58,22,1,23,10,10,24,2,0,0,0,0,0,0,0,0,0,0,0,0,0,0,0,0],"split_type":[0,0,0,0,0,0,0,0,0,0,0,0,0,0,0,0,0,0,0,0,0,0,0,0,0,0,0,0,0,0,0],"sum_hessian":[2.3539875E4,7.9873984E3,1.5552477E4,1.13209045E2,7.8741895E3,9.002154E3,6.5503223E3,5.6624573E1,5.6584473E1,7.8323804E3,4.1808933E1,7.6734243E3,1.3287294E3,6.2533633E3,2.9695874E2,5.1663296E1,4.961277E0,3.5580532E1,2.100394E1,7.780844E3,5.153647E1,1.7577934E1,2.4230999E1,3.1310593E3,4.542365E3,1.161137E3,1.6759244E2,6.1616694E3,9.169427E1,2.2950333E2,6.745539E1],"tree_param":{"num_deleted":"0","num_feature":"59","num_nodes":"31","size_leaf_vector":"1"}},{"base_weights":[2.1973562E-3,5.776814E-1,-1.1559392E0,2.7228224E-1,1.0014703E0,-1.253282E0,6.6427827E-1,5.204932E-1,-1.1427253E0,1.0904666E0,-7.837033E-1,-1.262023E0,-9.8547965E-1,1.2878393E-1,1.1701727E0,-8.370727E-3,2.848414E-2,-4.1950017E-2,2.4491567E-2,3.3871558E-2,-4.3809276E-2,-3.797007E-2,3.6413584E-2,-3.7934437E-2,-3.3149943E-2,-3.584703E-2,4.1176964E-2,-8.7317815E-3,2.2405576E-2,3.8125575E-2,1.8612402E-2],"categories":[],"categories_nodes":[],"categories_segments":[],"categories_sizes":[],"default_left":[0,0,0,0,0,0,0,0,0,0,0,0,0,1,1,0,0,0,0,0,0,0,0,0,0,0,0,0,0,0,0],"id":29,"left_children":[1,3,5,7,9,11,13,15,17,19,21,23,25,27,29,-1,-1,-1,-1,-1,-1,-1,-1,-1,-1,-1,-1,-1,-1,-1,-1],"loss_changes":[1.5649447E4,2.0298818E3,1.3818896E3,3.2029297E3,1.0445347E3,1.6076172E1,1.07216324E2,2.6609773E3,6.826837E2,6.175493E2,3.0241266E2,1.3671875E0,1.1938579E2,5.0469494E1,1.0484833E1,0E0,0E0,0E0,0E0,0E0,0E0,0E0,0E0,0E0,0E0,0E0,0E0,0E0,0E0,0E0,0E0],"parents":[2147483647,0,0,1,1,2,2,3,3,4,4,5,5,6,6,7,7,8,8,9,9,10,10,11,11,12,12,13,13,14,14],"right_children":[2,4,6,8,10,12,14,16,18,20,22,24,26,28,30,-1,-1,-1,-1,-1,-1,-1,-1,-1,-1,-1,-1,-1,-1,-1,-1],"split_conditions":[3.4400853E-6,3.36E2,4.6E0,2.0597222E0,3.94E4,4E0,5.3E0,5.5E0,6.4735306E1,2.411E3,9.799409E1,3.7369E4,1.72E2,9.673298E0,3.5E0,-8.370727E-3,2.848414E-2,-4.1950017E-2,2.4491567E-2,3.3871558E-2,-4.3809276E-2,-3.797007E-2,3.6413584E-2,-3.7934437E-2,-3.3149943E-2,-3.584703E-2,4.1176964E-2,-8.7317815E-3,2.2405576E-2,3.8125575E-2,1.8612402E-2],"split_indices":[4,14,0,8,17,0,0,10,9,24,9,17,31,29,57,0,0,0,0,0,0,0,0,0,0,0,0,0,0,0,0],"split_type":[0,0,0,0,0,0,0,0,0,0,0,0,0,0,0,0,0,0,0,0,0,0,0,0,0,0,0,0,0,0,0],"sum_hessian":[2.347842E4,1.5684977E4,7.7934443E3,9.116736E3,6.56824E3,7.398115E3,3.9532922E2,7.756735E3,1.360001E3,6.2567134E3,3.1152698E2,7.160679E3,2.3743602E2,1.9265575E2,2.0267348E2,2.7086948E3,5.04804E3,1.2032917E3,1.5670927E2,6.1640283E3,9.2685295E1,2.5126636E2,6.0260616E1,7.043353E3,1.173263E2,2.1852203E2,1.8913986E1,1.1504009E2,7.7615654E1,1.7019353E2,3.2479942E1],"tree_param":{"num_deleted":"0","num_feature":"59","num_nodes":"31","size_leaf_vector":"1"}},{"base_weights":[3.4441266E-3,-1.130763E0,5.6511146E-1,-1.2384115E0,6.979574E-1,9.646237E-1,2.2604914E-1,-1.2498358E0,-6.884342E-1,-1.5114088E-1,1.0186303E0,6.069446E-1,1.1359708E0,-2.3888257E-1,8.973075E-1,-3.7628844E-2,-3.314367E-2,1.961085E-2,-3.2417387E-2,-4.558881E-2,9.267058E-3,1.6417926E-2,3.502026E-2,-2.2603799E-2,2.3902217E-2,3.4701727E-2,-5.1683176E-2,-2.0735119E-2,2.3301944E-2,1.878252E-2,3.591375E-2],"categories":[],"categories_nodes":[],"categories_segments":[],"categories_sizes":[],"default_left":[0,0,0,0,0,0,0,0,0,0,0,0,0,0,0,0,0,0,0,0,0,0,0,0,0,0,0,0,0,0,0],"id":30,"left_children":[1,3,5,7,9,11,13,15,17,19,21,23,25,27,29,-1,-1,-1,-1,-1,-1,-1,-1,-1,-1,-1,-1,-1,-1,-1,-1],"loss_changes":[1.4728075E4,1.5082168E3,2.0942925E3,4.4578125E1,1.162325E2,4.3433105E2,2.6109048E3,3.194336E0,7.933073E1,7.459289E1,2.1061829E1,5.947553E2,2.8664648E2,2.271073E3,2.7762256E2,0E0,0E0,0E0,0E0,0E0,0E0,0E0,0E0,0E0,0E0,0E0,0E0,0E0,0E0,0E0,0E0],"parents":[2147483647,0,0,1,1,2,2,3,3,4,4,5,5,6,6,7,7,8,8,9,9,10,10,11,11,12,12,13,13,14,14],"right_children":[2,4,6,8,10,12,14,16,18,20,22,24,26,28,30,-1,-1,-1,-1,-1,-1,-1,-1,-1,-1,-1,-1,-1,-1,-1,-1],"split_conditions":[1E0,4.6E0,-7.2242374E0,4.2E0,5E0,6.8E0,3.5598843E1,3.8E0,1.0972722E0,3.778026E1,5.3E0,7.16E0,2.411E3,7.1434E4,8.6635765E1,-3.7628844E-2,-3.314367E-2,1.961085E-2,-3.2417387E-2,-4.558881E-2,9.267058E-3,1.6417926E-2,3.502026E-2,-2.2603799E-2,2.3902217E-2,3.4701727E-2,-5.1683176E-2,-2.0735119E-2,2.3301944E-2,1.878252E-2,3.591375E-2],"split_indices":[6,0,5,0,0,41,9,0,56,9,0,2,24,30,9,0,0,0,0,0,0,0,0,0,0,0,0,0,0,0,0],"split_type":[0,0,0,0,0,0,0,0,0,0,0,0,0,0,0,0,0,0,0,0,0,0,0,0,0,0,0,0,0,0,0],"sum_hessian":[2.3117283E4,7.6560225E3,1.546126E4,7.2307065E3,4.2531613E2,7.0970566E3,8.364203E3,7.0823184E3,1.4838799E2,1.1673811E2,3.08578E2,2.300148E3,4.7969087E3,4.9419316E3,3.4222715E3,6.8636646E3,2.1865396E2,3.340193E1,1.1498605E2,2.8790873E1,8.794724E1,7.512788E1,2.3345013E2,2.8125082E2,2.0188971E3,4.762927E3,3.398171E1,3.4194514E3,1.5224803E3,1.7984398E3,1.6238318E3],"tree_param":{"num_deleted":"0","num_feature":"59","num_nodes":"31","size_leaf_vector":"1"}},{"base_weights":[-2.469966E-3,-1.1207012E0,5.5021375E-1,-1.2242633E0,7.3739034E-1,2.5573364E-1,9.710479E-1,-1.2402041E0,-5.750909E-1,2.6645976E-1,1.1209253E0,4.9417207E-1,-1.1382533E0,1.0593898E0,-7.956987E-1,-3.7342418E-2,-3.2640528E-2,-3.529055E-2,3.9259503E-3,1.3608413E-2,-4.680568E-2,2.5216617E-2,3.9241754E-2,-8.562854E-3,2.7474783E-2,-4.0036656E-2,2.5777394E-2,3.3164654E-2,1.3148232E-3,-9.3886524E-4,-5.06455E-2],"categories":[],"categories_nodes":[],"categories_segments":[],"categories_sizes":[],"default_left":[0,0,0,0,0,0,0,0,0,0,0,0,0,0,0,0,0,0,0,0,0,0,0,0,0,0,0,0,0,0,0],"id":31,"left_children":[1,3,5,7,9,11,13,15,17,19,21,23,25,27,29,-1,-1,-1,-1,-1,-1,-1,-1,-1,-1,-1,-1,-1,-1,-1,-1],"loss_changes":[1.4066004E4,1.4495176E3,1.8873379E3,7.308008E1,7.159758E1,2.9794536E3,9.7946436E2,3.4570312E0,7.3489944E1,6.2237648E1,1.0394592E1,2.5162754E3,5.1456836E2,2.7953467E2,2.0404071E2,0E0,0E0,0E0,0E0,0E0,0E0,0E0,0E0,0E0,0E0,0E0,0E0,0E0,0E0,0E0,0E0],"parents":[2147483647,0,0,1,1,2,2,3,3,4,4,5,5,6,6,7,7,8,8,9,9,10,10,11,11,12,12,13,13,14,14],"right_children":[2,4,6,8,10,12,14,16,18,20,22,24,26,28,30,-1,-1,-1,-1,-1,-1,-1,-1,-1,-1,-1,-1,-1,-1,-1,-1],"split_conditions":[1E0,4.7E0,3.36E2,4.2E0,5.3E0,2.1430554E0,7.4708E4,3.8E0,1.17E3,6E0,5.9E0,5.5E0,7.668758E1,8.084028E0,1.033211E1,-3.7342418E-2,-3.2640528E-2,-3.529055E-2,3.9259503E-3,1.3608413E-2,-4.680568E-2,2.5216617E-2,3.9241754E-2,-8.562854E-3,2.7474783E-2,-4.0036656E-2,2.5777394E-2,3.3164654E-2,1.3148232E-3,-9.3886524E-4,-5.06455E-2],"split_indices":[6,0,14,0,0,8,30,0,40,16,0,10,9,8,52,0,0,0,0,0,0,0,0,0,0,0,0,0,0,0,0],"split_type":[0,0,0,0,0,0,0,0,0,0,0,0,0,0,0,0,0,0,0,0,0,0,0,0,0,0,0,0,0,0,0],"sum_hessian":[2.2757486E4,7.5270884E3,1.5230398E4,7.1300317E3,3.970565E2,8.961304E3,6.269095E3,6.9582583E3,1.7177333E2,1.7898326E2,2.1807324E2,7.6529316E3,1.308372E3,5.9709336E3,2.9816168E2,6.7495845E3,2.0867386E2,9.2405495E1,7.936784E1,1.6303116E2,1.5952105E1,8.9488846E1,1.285844E2,2.6863796E3,4.9665522E3,1.1916007E3,1.1677125E2,5.711583E3,2.5935052E2,1.611627E2,1.3699898E2],"tree_param":{"num_deleted":"0","num_feature":"59","num_nodes":"31","size_leaf_vector":"1"}},{"base_weights":[-4.3359604E-3,5.415924E-1,-1.1306528E0,9.334749E-1,2.1379837E-1,-1.2125869E0,9.206837E-1,5.6517357E-1,1.1112483E0,-2.0498776E-1,8.931017E-1,-1.2293571E0,-6.3126427E-1,-5.0136555E-2,9.657472E-1,2.8936414E-2,-4.876048E-3,3.3876345E-2,-4.971218E-2,-2.7294302E-2,1.4552117E-2,1.9544624E-2,3.525696E-2,-3.706669E-2,-3.2064676E-2,-3.685173E-2,-1.7128472E-3,1.8482214E-2,3.7411086E-2],"categories":[],"categories_nodes":[],"categories_segments":[],"categories_sizes":[],"default_left":[0,0,0,0,0,0,0,0,0,0,0,0,1,0,0,0,0,0,0,0,0,0,0,0,0,0,0,0,0],"id":32,"left_children":[1,3,5,7,9,11,13,15,17,19,21,23,25,-1,27,-1,-1,-1,-1,-1,-1,-1,-1,-1,-1,-1,-1,-1,-1],"loss_changes":[1.3759694E4,1.9359111E3,1.2289795E3,4.488286E2,2.3353425E3,6.771289E1,3.445291E1,6.502338E2,2.3205518E2,2.470581E3,2.126438E2,5.473633E0,6.8171844E1,0E0,2.6475677E1,0E0,0E0,0E0,0E0,0E0,0E0,0E0,0E0,0E0,0E0,0E0,0E0,0E0,0E0],"parents":[2147483647,0,0,1,1,2,2,3,3,4,4,5,5,6,6,7,7,8,8,9,9,10,10,11,11,12,12,14,14],"right_children":[2,4,6,8,10,12,14,16,18,20,22,24,26,-1,28,-1,-1,-1,-1,-1,-1,-1,-1,-1,-1,-1,-1,-1,-1],"split_conditions":[3.4400853E-6,5.96709E-8,5E0,6.8E0,3.8746952E1,4.3E0,3.571E3,1.55E2,2.464E3,1.2618E2,9.329028E1,3.8E0,6.2E0,-5.0136555E-2,5.6E0,2.8936414E-2,-4.876048E-3,3.3876345E-2,-4.971218E-2,-2.7294302E-2,1.4552117E-2,1.9544624E-2,3.525696E-2,-3.706669E-2,-3.2064676E-2,-3.685173E-2,-1.7128472E-3,1.8482214E-2,3.7411086E-2],"split_indices":[4,4,0,28,9,0,17,34,24,3,9,0,41,0,0,0,0,0,0,0,0,0,0,0,0,0,0,0,0],"split_type":[0,0,0,0,0,0,0,0,0,0,0,0,0,0,0,0,0,0,0,0,0,0,0,0,0,0,0,0,0],"sum_hessian":[2.2375555E4,1.5071085E4,7.3044697E3,6.863647E3,8.2074375E3,7.024315E3,2.8015494E2,2.2358044E3,4.6278423E3,5.077741E3,3.1296965E3,6.826273E3,1.9804218E2,4.1709294E0,2.75984E2,1.4433527E3,7.924517E2,4.5985947E3,2.9247574E1,2.5118406E3,2.5659006E3,1.6876854E3,1.4420111E3,6.5660254E3,2.602474E2,9.652173E1,1.01520454E2,1.244585E2,1.5152548E2],"tree_param":{"num_deleted":"0","num_feature":"59","num_nodes":"29","size_leaf_vector":"1"}},{"base_weights":[-2.9186956E-3,-1.1188155E0,5.3415895E-1,-3.4990197E-1,-1.1307092E0,1.1238882E-1,8.186199E-1,-8.5018015E-1,4.8873323E-1,-1.1502692E0,-9.4567275E-1,-1.1472023E-1,1.192065E0,9.309479E-1,-7.372421E-1,-3.6100782E-2,-8.520697E-4,-3.8055543E-2,2.9602217E-2,-2.8542196E-2,-3.484052E-2,1.3871563E-2,-3.0211132E-2,1.6615756E-2,-1.9637067E-2,2.7647909E-2,3.7662446E-2,3.1679373E-2,1.2595576E-2,3.246718E-2,-4.185407E-2],"categories":[],"categories_nodes":[],"categories_segments":[],"categories_sizes":[],"default_left":[0,0,0,1,0,0,0,1,0,0,0,0,0,0,0,0,0,0,0,0,0,0,0,0,0,0,0,0,0,0,0],"id":33,"left_children":[1,3,5,7,9,11,13,15,17,19,21,23,25,27,29,-1,-1,-1,-1,-1,-1,-1,-1,-1,-1,-1,-1,-1,-1,-1,-1],"loss_changes":[1.3250022E4,6.5296875E1,1.790563E3,4.693026E1,2.4513672E1,1.4744882E3,1.5584229E3,2.022646E1,3.8059612E1,1.2981445E1,5.938275E1,1.7937194E3,1.6749146E1,5.30813E2,7.2060144E2,0E0,0E0,0E0,0E0,0E0,0E0,0E0,0E0,0E0,0E0,0E0,0E0,0E0,0E0,0E0,0E0],"parents":[2147483647,0,0,1,1,2,2,3,3,4,4,5,5,6,6,7,7,8,8,9,9,10,10,11,11,12,12,13,13,14,14],"right_children":[2,4,6,8,10,12,14,16,18,20,22,24,26,28,30,-1,-1,-1,-1,-1,-1,-1,-1,-1,-1,-1,-1,-1,-1,-1,-1],"split_conditions":[1E0,3.47E0,6.8E0,7.2138613E-1,8.866754E0,9.329028E1,2.068E3,4.5E0,5.843585E0,5.52E0,9.000616E0,5.96709E-8,1.2938686E2,2.917925E-7,2.934E3,-3.6100782E-2,-8.520697E-4,-3.8055543E-2,2.9602217E-2,-2.8542196E-2,-3.484052E-2,1.3871563E-2,-3.0211132E-2,1.6615756E-2,-1.9637067E-2,2.7647909E-2,3.7662446E-2,3.1679373E-2,1.2595576E-2,3.246718E-2,-4.185407E-2],"split_indices":[6,2,54,58,20,9,24,57,56,2,20,4,9,4,40,0,0,0,0,0,0,0,0,0,0,0,0,0,0,0,0],"split_type":[0,0,0,0,0,0,0,0,0,0,0,0,0,0,0,0,0,0,0,0,0,0,0,0,0,0,0,0,0,0,0],"sum_hessian":[2.210631E4,7.1823394E3,1.4923971E4,1.0986794E2,7.072471E3,6.0117485E3,8.912223E3,6.880772E1,4.106022E1,6.3916035E3,6.8086774E2,4.967692E3,1.0440564E3,8.31249E3,5.9973224E2,4.7800106E1,2.1007616E1,8.725287E0,3.233493E1,3.4195474E2,6.049649E3,2.8161E1,6.527067E2,2.2192378E3,2.748454E3,2.010852E2,8.4297125E2,6.6778066E3,1.6346835E3,1.5909407E2,4.4063818E2],"tree_param":{"num_deleted":"0","num_feature":"59","num_nodes":"31","size_leaf_vector":"1"}},{"base_weights":[-3.967618E-3,-1.0978682E0,5.1975644E-1,-1.1978748E0,7.803424E-1,2.2208856E-1,9.42732E-1,-1.2170346E0,-5.405336E-1,2.958351E-1,1.0921962E0,4.526696E-1,-1.1367136E0,1.0227724E0,-8.438109E-1,-3.665939E-2,-3.1634063E-2,-4.5602405E-3,-4.062063E-2,-3.28998E-2,1.9404033E-2,2.4978658E-2,3.8428336E-2,-6.5591447E-3,2.7958594E-2,-5.5489247E-4,-4.1271023E-2,3.167197E-2,-5.122544E-2,2.447781E-5,-4.5141857E-2],"categories":[],"categories_nodes":[],"categories_segments":[],"categories_sizes":[],"default_left":[0,0,0,0,0,0,0,0,0,1,0,0,0,0,0,0,0,0,0,0,0,0,0,0,0,0,0,0,0,0,0],"id":34,"left_children":[1,3,5,7,9,11,13,15,17,19,21,23,25,27,29,-1,-1,-1,-1,-1,-1,-1,-1,-1,-1,-1,-1,-1,-1,-1,-1],"loss_changes":[1.2484137E4,1.3261162E3,1.8551394E3,8.3711914E1,5.3658493E1,2.7108225E3,8.7120703E2,3.9433594E0,6.0326912E1,6.975409E1,9.564728E0,2.3799067E3,3.354286E2,5.2608154E2,1.4600124E2,0E0,0E0,0E0,0E0,0E0,0E0,0E0,0E0,0E0,0E0,0E0,0E0,0E0,0E0,0E0,0E0],"parents":[2147483647,0,0,1,1,2,2,3,3,4,4,5,5,6,6,7,7,8,8,9,9,10,10,11,11,12,12,13,13,14,14],"right_children":[2,4,6,8,10,12,14,16,18,20,22,24,26,28,30,-1,-1,-1,-1,-1,-1,-1,-1,-1,-1,-1,-1,-1,-1,-1,-1],"split_conditions":[1E0,4.8E0,3.36E2,4.2E0,5.3E0,2.1430554E0,1.0961111E1,3.8E0,3.6E1,3.4E0,5.9E0,5.9E0,8.3E1,2.411E3,1.033211E1,-3.665939E-2,-3.1634063E-2,-4.5602405E-3,-4.062063E-2,-3.28998E-2,1.9404033E-2,2.4978658E-2,3.8428336E-2,-6.5591447E-3,2.7958594E-2,-5.5489247E-4,-4.1271023E-2,3.167197E-2,-5.122544E-2,2.447781E-5,-4.5141857E-2],"split_indices":[6,0,14,0,0,8,8,0,1,19,0,10,21,24,39,0,0,0,0,0,0,0,0,0,0,0,0,0,0,0,0],"split_type":[0,0,0,0,0,0,0,0,0,0,0,0,0,0,0,0,0,0,0,0,0,0,0,0,0,0,0,0,0,0,0],"sum_hessian":[2.1789053E4,7.0540947E3,1.4734958E4,6.6978267E3,3.562682E2,8.649453E3,6.0855044E3,6.5073037E3,1.9052254E2,1.4027719E2,2.1599101E2,7.3951973E3,1.2542561E3,5.824963E3,2.6054156E2,6.3088735E3,1.9843054E2,1.2974335E2,6.0779194E1,2.7810675E1,1.12466515E2,9.3212616E1,1.227784E2,3.0807266E3,4.31447E3,2.2104897E2,1.0332072E3,5.756089E3,6.887405E1,1.1481335E2,1.4572821E2],"tree_param":{"num_deleted":"0","num_feature":"59","num_nodes":"31","size_leaf_vector":"1"}},{"base_weights":[-3.0162523E-4,5.1007366E-1,-1.0914624E0,2.2531696E-1,9.2202014E-1,-1.1910918E0,6.7091846E-1,4.54062E-1,-1.1052442E0,1.0146711E0,-7.763816E-1,-1.206004E0,-6.125515E-1,1.159705E-1,1.0955856E0,-5.0561726E-3,2.7345084E-2,-3.982829E-2,2.1810863E-2,3.1543583E-2,-4.4408694E-2,1.7353417E-2,-3.8290918E-2,-3.6329187E-2,-3.1467978E-2,-2.3494948E-2,5.2551415E-2,1.3559711E-2,-3.4579016E-2,2.4158888E-2,3.852041E-2],"categories":[],"categories_nodes":[],"categories_segments":[],"categories_sizes":[],"default_left":[0,0,0,0,0,0,0,0,0,0,0,0,0,0,0,0,0,0,0,0,0,0,0,0,0,0,0,0,0,0,0],"id":35,"left_children":[1,3,5,7,9,11,13,15,17,19,21,23,25,27,29,-1,-1,-1,-1,-1,-1,-1,-1,-1,-1,-1,-1,-1,-1,-1,-1],"loss_changes":[1.2002547E4,1.722303E3,1.2067656E3,2.6434753E3,9.451533E2,5.534961E1,8.663095E1,2.110705E3,5.201041E2,5.2384424E2,2.1141783E2,3.6748047E0,6.808687E1,6.902655E1,1.0366821E1,0E0,0E0,0E0,0E0,0E0,0E0,0E0,0E0,0E0,0E0,0E0,0E0,0E0,0E0,0E0,0E0],"parents":[2147483647,0,0,1,1,2,2,3,3,4,4,5,5,6,6,7,7,8,8,9,9,10,10,11,11,12,12,13,13,14,14],"right_children":[2,4,6,8,10,12,14,16,18,20,22,24,26,28,30,-1,-1,-1,-1,-1,-1,-1,-1,-1,-1,-1,-1,-1,-1,-1,-1],"split_conditions":[3.4400853E-6,3.37E2,4.7E0,2.1430554E0,3.94E4,4.2E0,5.3E0,5.9E0,6.4735306E1,2.411E3,1.063312E1,3.8E0,6.129E3,5E0,5.9E0,-5.0561726E-3,2.7345084E-2,-3.982829E-2,2.1810863E-2,3.1543583E-2,-4.4408694E-2,1.7353417E-2,-3.8290918E-2,-3.6329187E-2,-3.1467978E-2,-2.3494948E-2,5.2551415E-2,1.3559711E-2,-3.4579016E-2,2.4158888E-2,3.852041E-2],"split_indices":[4,14,0,8,17,0,0,10,9,24,42,0,40,16,0,0,0,0,0,0,0,0,0,0,0,0,0,0,0,0,0],"split_type":[0,0,0,0,0,0,0,0,0,0,0,0,0,0,0,0,0,0,0,0,0,0,0,0,0,0,0,0,0,0,0],"sum_hessian":[2.1550371E4,1.4683092E4,6.8672793E3,8.6827295E3,6.000362E3,6.500143E3,3.6713626E2,7.4095645E3,1.2731656E3,5.690345E3,3.1001633E2,6.335751E3,1.6439177E2,1.5970695E2,2.0742929E2,3.1385132E3,4.2710513E3,1.1356215E3,1.3754416E2,5.608245E3,8.210029E1,8.35256E1,2.2649074E2,6.1349644E3,2.0078683E2,1.539509E2,1.0440872E1,1.2677209E2,3.2934875E1,8.3722084E1,1.2370721E2],"tree_param":{"num_deleted":"0","num_feature":"59","num_nodes":"31","size_leaf_vector":"1"}},{"base_weights":[-2.93666E-3,-1.0841216E0,5.0131917E-1,-1.182652E0,5.809193E-1,1.0017992E-1,7.8786016E-1,-1.1982703E0,-5.1134163E-1,-1.0648174E-1,8.775445E-1,-1.2444392E-1,1.1677164E0,9.1231924E-1,-6.4217937E-1,-3.6100015E-2,-3.1129109E-2,9.702317E-3,-3.9078787E-2,-4.4841856E-2,1.2744403E-2,1.8680008E-2,3.6963027E-2,1.5185208E-2,-1.8761698E-2,2.7095435E-2,3.727247E-2,2.9099176E-2,-7.0834444E-3,1.38342595E-2,-3.6585536E-2],"categories":[],"categories_nodes":[],"categories_segments":[],"categories_sizes":[],"default_left":[0,0,0,0,0,0,0,0,0,0,0,0,0,0,0,0,0,0,0,0,0,0,0,0,0,0,0,0,0,0,0],"id":36,"left_children":[1,3,5,7,9,11,13,15,17,19,21,23,25,27,29,-1,-1,-1,-1,-1,-1,-1,-1,-1,-1,-1,-1,-1,-1,-1,-1],"loss_changes":[1.1549421E4,1.1060518E3,1.6604307E3,6.6086914E1,7.6985016E1,1.443858E3,1.5003921E3,3.8066406E0,9.711185E1,8.5135284E1,2.3048294E1,1.5719252E3,1.956128E1,5.135293E2,4.3069968E2,0E0,0E0,0E0,0E0,0E0,0E0,0E0,0E0,0E0,0E0,0E0,0E0,0E0,0E0,0E0,0E0],"parents":[2147483647,0,0,1,1,2,2,3,3,4,4,5,5,6,6,7,7,8,8,9,9,10,10,11,11,12,12,13,13,14,14],"right_children":[2,4,6,8,10,12,14,16,18,20,22,24,26,28,30,-1,-1,-1,-1,-1,-1,-1,-1,-1,-1,-1,-1,-1,-1,-1,-1],"split_conditions":[1E0,4.6E0,6.8E0,4.2E0,5E0,9.563053E1,8.084028E0,3.8E0,1.6E1,5.0033447E1,5.9E0,5.96709E-8,1.3928044E2,2.068E3,1.033211E1,-3.6100015E-2,-3.1129109E-2,9.702317E-3,-3.9078787E-2,-4.4841856E-2,1.2744403E-2,1.8680008E-2,3.6963027E-2,1.5185208E-2,-1.8761698E-2,2.7095435E-2,3.727247E-2,2.9099176E-2,-7.0834444E-3,1.38342595E-2,-3.6585536E-2],"split_indices":[6,0,28,0,0,9,8,0,11,9,0,4,9,24,39,0,0,0,0,0,0,0,0,0,0,0,0,0,0,0,0],"split_type":[0,0,0,0,0,0,0,0,0,0,0,0,0,0,0,0,0,0,0,0,0,0,0,0,0,0,0,0,0,0,0],"sum_hessian":[2.1182068E4,6.7366763E3,1.4445392E4,6.3605728E3,3.761035E2,6.0196343E3,8.425757E3,6.215189E3,1.4538408E2,1.13565994E2,2.625375E2,4.9739355E3,1.0456986E3,7.7514917E3,6.7426544E2,6.0189663E3,1.9622272E2,7.103655E1,7.434753E1,3.0931145E1,8.263485E1,1.5434251E2,1.08194984E2,2.2019692E3,2.7719666E3,2.3314496E2,8.1255365E2,7.381104E3,3.703881E2,2.3169211E2,4.4257333E2],"tree_param":{"num_deleted":"0","num_feature":"59","num_nodes":"31","size_leaf_vector":"1"}},{"base_weights":[-3.7567131E-3,4.8822168E-1,-1.0659266E0,8.667534E-1,1.7658676E-1,-1.1798599E0,6.474457E-1,4.8419106E-1,1.0616866E0,-2.291196E-1,8.41644E-1,-1.1887305E0,-5.8209413E-1,1.5187408E-1,1.0649424E0,-8.160194E-3,2.5669305E-2,3.3809602E-2,1.0707586E-2,-2.598366E-2,1.2295645E-2,1.7789096E-2,3.3404104E-2,-3.5914294E-2,-2.9416483E-2,3.9897347E-3,-3.8552035E-2,-2.4454681E-2,1.1457498E-2,2.3553312E-2,3.8090248E-2],"categories":[],"categories_nodes":[],"categories_segments":[],"categories_sizes":[],"default_left":[0,0,0,0,0,0,0,0,0,0,0,1,0,0,0,0,0,0,0,0,0,0,0,0,0,0,0,0,0,0,0],"id":37,"left_children":[1,3,5,7,9,11,13,15,17,19,21,23,25,27,29,-1,-1,-1,-1,-1,-1,-1,-1,-1,-1,-1,-1,-1,-1,-1,-1],"loss_changes":[1.0878701E4,1.6782148E3,1.2872144E3,4.785586E2,2.1060444E3,3.2075195E1,8.498569E1,6.098501E2,1.9541064E2,1.9737649E3,1.9924683E2,9.489258E0,4.6578766E1,4.2431816E1,1.17903595E1,0E0,0E0,0E0,0E0,0E0,0E0,0E0,0E0,0E0,0E0,0E0,0E0,0E0,0E0,0E0,0E0],"parents":[2147483647,0,0,1,1,2,2,3,3,4,4,5,5,6,6,7,7,8,8,9,9,10,10,11,11,12,12,13,13,14,14],"right_children":[2,4,6,8,10,12,14,16,18,20,22,24,26,28,30,-1,-1,-1,-1,-1,-1,-1,-1,-1,-1,-1,-1,-1,-1,-1,-1],"split_conditions":[3.4400853E-6,5.96709E-8,4.6E0,6.8E0,3.8746952E1,4.3E0,5.3E0,1.1E1,1.34E2,1.2617E2,8.875539E1,5.6E0,1.6E1,2.32271E-5,5.9E0,-8.160194E-3,2.5669305E-2,3.3809602E-2,1.0707586E-2,-2.598366E-2,1.2295645E-2,1.7789096E-2,3.3404104E-2,-3.5914294E-2,-2.9416483E-2,3.9897347E-3,-3.8552035E-2,-2.4454681E-2,1.1457498E-2,2.3553312E-2,3.8090248E-2],"split_indices":[4,4,0,28,9,0,0,11,18,3,9,19,11,4,0,0,0,0,0,0,0,0,0,0,0,0,0,0,0,0,0],"split_type":[0,0,0,0,0,0,0,0,0,0,0,0,0,0,0,0,0,0,0,0,0,0,0,0,0,0,0,0,0,0,0],"sum_hessian":[2.081591E4,1.4226832E4,6.589078E3,6.423119E3,7.803713E3,6.178538E3,4.1053998E2,2.1692954E3,4.2538237E3,4.8473364E3,2.9563762E3,6.0872183E3,9.1319756E1,1.8834128E2,2.221987E2,7.1466284E2,1.4546326E3,3.89256E3,3.6126385E2,2.427236E3,2.4201006E3,1.5456002E3,1.4107761E3,5.8462183E3,2.4099985E2,4.567184E1,4.5647915E1,3.570493E1,1.5263635E2,9.592355E1,1.2627515E2],"tree_param":{"num_deleted":"0","num_feature":"59","num_nodes":"31","size_leaf_vector":"1"}},{"base_weights":[3.0066553E-3,4.8626792E-1,-1.0699807E0,8.413746E-1,1.600904E-1,-1.1722716E0,5.7976264E-1,4.7817332E-1,1.0354456E0,-2.665119E-1,7.8976035E-1,-1.1834519E0,-6.546224E-1,2.1349233E-1,1.1548301E0,-2.8093481E-2,2.0442149E-2,3.2538813E-2,-4.5656916E-3,-2.6851077E-2,1.1367452E-2,1.5578987E-2,3.2677863E-2,-3.566472E-2,-3.0394066E-2,1.1410392E-2,-3.369559E-2,-4.6169795E-2,1.111183E-2,3.6357045E-2,8.594673E-3],"categories":[],"categories_nodes":[],"categories_segments":[],"categories_sizes":[],"default_left":[0,0,0,0,0,0,0,0,0,0,0,0,0,0,1,0,0,0,0,0,0,0,0,0,0,0,0,0,0,0,0],"id":38,"left_children":[1,3,5,7,9,11,13,15,17,19,21,23,25,27,29,-1,-1,-1,-1,-1,-1,-1,-1,-1,-1,-1,-1,-1,-1,-1,-1],"loss_changes":[1.0711704E4,1.6495852E3,1.083206E3,4.801411E2,1.9947211E3,3.418457E1,7.8780426E1,6.83878E2,2.596963E2,1.7962288E3,2.4236829E2,4.2041016E0,6.3444336E1,6.3932102E1,6.876251E0,0E0,0E0,0E0,0E0,0E0,0E0,0E0,0E0,0E0,0E0,0E0,0E0,0E0,0E0,0E0,0E0],"parents":[2147483647,0,0,1,1,2,2,3,3,4,4,5,5,6,6,7,7,8,8,9,9,10,10,11,11,12,12,13,13,14,14],"right_children":[2,4,6,8,10,12,14,16,18,20,22,24,26,28,30,-1,-1,-1,-1,-1,-1,-1,-1,-1,-1,-1,-1,-1,-1,-1,-1],"split_conditions":[3.4400853E-6,7.169725E-8,4.6E0,6.8E0,3.64107E1,4.2E0,5.6E0,7.1E0,3.96875E0,1.2617E2,8.6635765E1,3.8E0,9E0,3.4E0,5.3E0,-2.8093481E-2,2.0442149E-2,3.2538813E-2,-4.5656916E-3,-2.6851077E-2,1.1367452E-2,1.5578987E-2,3.2677863E-2,-3.566472E-2,-3.0394066E-2,1.1410392E-2,-3.369559E-2,-4.6169795E-2,1.111183E-2,3.6357045E-2,8.594673E-3],"split_indices":[4,4,0,28,9,0,0,2,8,3,9,0,1,19,32,0,0,0,0,0,0,0,0,0,0,0,0,0,0,0,0],"split_type":[0,0,0,0,0,0,0,0,0,0,0,0,0,0,0,0,0,0,0,0,0,0,0,0,0,0,0,0,0,0,0],"sum_hessian":[2.0655695E4,1.4241868E4,6.413828E3,6.8178047E3,7.4240635E3,6.0396353E3,3.7419305E2,2.3755183E3,4.442286E3,4.426011E3,2.9980522E3,5.9106895E3,1.2894588E2,2.294339E2,1.4475914E2,2.9795468E2,2.0775635E3,4.2657236E3,1.7656259E2,2.242172E3,2.183839E3,1.5768418E3,1.4212104E3,5.724158E3,1.8653139E2,4.024363E1,8.8702255E1,1.812966E1,2.1130424E2,1.3546039E2,9.298756E0],"tree_param":{"num_deleted":"0","num_feature":"59","num_nodes":"31","size_leaf_vector":"1"}},{"base_weights":[1.3712175E-3,-1.0497527E0,4.7499216E-1,-2.6702514E-1,-1.0629151E0,7.351669E-1,4.862727E-2,-8.2584184E-1,5.5670536E-1,-1.0687932E0,-2.5767598E-1,3.5833797E-1,9.987486E-1,-4.874582E-1,8.265784E-1,-3.51517E-2,-9.3754224E-4,-2.0103643E-2,3.1571962E-2,-3.2866538E-2,-2.7001843E-2,3.145117E-2,-3.6783826E-2,1.8737437E-2,-1.1135436E-2,3.0945217E-2,-5.3117912E-2,-3.8309302E-2,-4.070972E-3,1.1863605E-2,3.2759454E-2],"categories":[],"categories_nodes":[],"categories_segments":[],"categories_sizes":[],"default_left":[0,0,0,1,0,0,0,1,0,0,0,0,0,0,0,0,0,0,0,0,0,0,0,0,0,0,0,0,0,0,0],"id":39,"left_children":[1,3,5,7,9,11,13,15,17,19,21,23,25,27,29,-1,-1,-1,-1,-1,-1,-1,-1,-1,-1,-1,-1,-1,-1,-1,-1],"loss_changes":[1.0107764E4,6.469141E1,1.552614E3,4.908544E1,2.9081543E1,8.630156E2,2.21299E3,1.7371696E1,2.7034016E1,2.6811035E1,5.9801693E1,6.954171E2,4.6578613E2,8.723031E2,2.4726733E2,0E0,0E0,0E0,0E0,0E0,0E0,0E0,0E0,0E0,0E0,0E0,0E0,0E0,0E0,0E0,0E0],"parents":[2147483647,0,0,1,1,2,2,3,3,4,4,5,5,6,6,7,7,8,8,9,9,10,10,11,11,12,12,13,13,14,14],"right_children":[2,4,6,8,10,12,14,16,18,20,22,24,26,28,30,-1,-1,-1,-1,-1,-1,-1,-1,-1,-1,-1,-1,-1,-1,-1,-1],"split_conditions":[1E0,3.47E0,1.7550207E-7,7.2138613E-1,1.96E2,7E0,4.5672756E1,4.5E0,5.843585E0,1.2648E2,3.5E0,7.2E1,3.9182E4,3.1727E4,9.078205E1,-3.51517E-2,-9.3754224E-4,-2.0103643E-2,3.1571962E-2,-3.2866538E-2,-2.7001843E-2,3.145117E-2,-3.6783826E-2,1.8737437E-2,-1.1135436E-2,3.0945217E-2,-5.3117912E-2,-3.8309302E-2,-4.070972E-3,1.1863605E-2,3.2759454E-2],"split_indices":[6,2,4,58,1,41,9,57,56,3,22,31,17,17,9,0,0,0,0,0,0,0,0,0,0,0,0,0,0,0,0],"split_type":[0,0,0,0,0,0,0,0,0,0,0,0,0,0,0,0,0,0,0,0,0,0,0,0,0,0,0,0,0,0,0],"sum_hessian":[2.0301467E4,6.305726E3,1.399574E4,1.0463583E2,6.2010903E3,8.69139E3,5.3043506E3,6.2341175E1,4.229466E1,6.1558267E3,4.5263596E1,3.5781936E3,5.1131963E3,3.140564E3,2.1637866E3,4.3103706E1,1.9237469E1,1.2069963E1,3.0224693E1,5.308495E3,8.473317E2,1.9237492E1,2.6026102E1,2.6215747E3,9.566189E2,5.0540396E3,5.915674E1,9.6715875E2,2.1734053E3,8.254328E2,1.3383539E3],"tree_param":{"num_deleted":"0","num_feature":"59","num_nodes":"31","size_leaf_vector":"1"}},{"base_weights":[-1.707156E-4,4.6421555E-1,-1.0549188E0,1.8383764E-1,8.7635905E-1,-1.0664726E0,7.390376E-2,4.0141377E-1,-1.0207008E0,9.701851E-1,-8.561787E-1,-7.5754637E-1,-1.0888482E0,4.441207E-1,-3.632979E-2,-5.7926755E-3,2.5760902E-2,-3.6790267E-2,1.3159806E-2,3.0293813E-2,-4.464753E-2,-3.5723098E-2,3.0793933E-2,1.4330697E-2,-2.5080988E-2,-3.2984216E-2,-2.2161357E-2,2.2587767E-2,-3.7748754E-2],"categories":[],"categories_nodes":[],"categories_segments":[],"categories_sizes":[],"default_left":[0,0,0,0,0,0,0,0,0,0,0,0,0,0,0,0,0,0,0,0,0,0,0,0,0,0,0,0,0],"id":40,"left_children":[1,3,5,7,9,11,13,15,17,19,21,23,25,27,-1,-1,-1,-1,-1,-1,-1,-1,-1,-1,-1,-1,-1,-1,-1],"loss_changes":[9.833569E3,1.6105884E3,8.012158E1,2.174858E3,9.181738E2,4.1168457E1,3.0560974E1,1.9108403E3,3.8157178E2,5.228286E2,1.8417523E2,4.0496124E1,2.0254883E1,2.7090572E1,0E0,0E0,0E0,0E0,0E0,0E0,0E0,0E0,0E0,0E0,0E0,0E0,0E0,0E0,0E0],"parents":[2147483647,0,0,1,1,2,2,3,3,4,4,5,5,6,6,7,7,8,8,9,9,10,10,11,11,12,12,13,13],"right_children":[2,4,6,8,10,12,14,16,18,20,22,24,26,28,-1,-1,-1,-1,-1,-1,-1,-1,-1,-1,-1,-1,-1,-1,-1],"split_conditions":[3.4400853E-6,1.2E1,1.2766E2,1.98125E0,3.94E4,5.52E0,5E0,5.9E0,5.609709E1,2.411E3,9.563053E1,1.0416667E-2,2.84E2,1.8E1,-3.632979E-2,-5.7926755E-3,2.5760902E-2,-3.6790267E-2,1.3159806E-2,3.0293813E-2,-4.464753E-2,-3.5723098E-2,3.0793933E-2,1.4330697E-2,-2.5080988E-2,-3.2984216E-2,-2.2161357E-2,2.2587767E-2,-3.7748754E-2],"split_indices":[4,13,3,8,17,2,22,10,9,24,9,8,18,15,0,0,0,0,0,0,0,0,0,0,0,0,0,0,0],"split_type":[0,0,0,0,0,0,0,0,0,0,0,0,0,0,0,0,0,0,0,0,0,0,0,0,0,0,0,0,0],"sum_hessian":[2.0074275E4,1.3938131E4,6.136144E3,8.295926E3,5.642205E3,6.0740293E3,6.211487E1,7.027257E3,1.2686687E3,5.3527646E3,2.8944037E2,4.1258383E2,5.6614453E3,4.872896E1,1.3385908E1,3.0554783E3,3.9717783E3,1.1121178E3,1.5655092E2,5.2684717E3,8.429294E1,2.460745E2,4.336588E1,2.4345406E1,3.8823843E2,5.4926206E3,1.6882486E2,4.171915E1,7.00981E0],"tree_param":{"num_deleted":"0","num_feature":"59","num_nodes":"29","size_leaf_vector":"1"}},{"base_weights":[-5.1828306E-3,-1.0453153E0,4.538865E-1,-1.1529257E0,5.852639E-1,1.7875811E-1,8.6504894E-1,-1.1678803E0,-5.222242E-1,1.6300544E-1,1.0116231E0,3.90281E-1,-1.0785279E0,9.5980763E-1,-8.734108E-1,-3.521302E-2,-2.9381877E-2,2.588918E-2,-2.8530937E-2,-9.842076E-3,2.411341E-2,3.2737434E-2,-5.2197995E-3,-8.597263E-3,2.3587126E-2,-3.6233258E-2,3.768312E-2,2.9850552E-2,-4.7539055E-2,-3.6856372E-2,2.9848067E-2],"categories":[],"categories_nodes":[],"categories_segments":[],"categories_sizes":[],"default_left":[0,0,0,0,0,0,0,0,0,1,1,0,0,0,0,0,0,0,0,0,0,0,0,0,0,0,0,0,0,0,0],"id":41,"left_children":[1,3,5,7,9,11,13,15,17,19,21,23,25,27,29,-1,-1,-1,-1,-1,-1,-1,-1,-1,-1,-1,-1,-1,-1,-1,-1],"loss_changes":[9.438158E3,1.0626992E3,1.5511533E3,5.2945312E1,6.741502E1,2.1857278E3,9.0644434E2,5.005371E0,8.001398E1,5.998326E1,1.780455E1,1.8855195E3,3.5866687E2,4.6868115E2,1.901131E2,0E0,0E0,0E0,0E0,0E0,0E0,0E0,0E0,0E0,0E0,0E0,0E0,0E0,0E0,0E0,0E0],"parents":[2147483647,0,0,1,1,2,2,3,3,4,4,5,5,6,6,7,7,8,8,9,9,10,10,11,11,12,12,13,13,14,14],"right_children":[2,4,6,8,10,12,14,16,18,20,22,24,26,28,30,-1,-1,-1,-1,-1,-1,-1,-1,-1,-1,-1,-1,-1,-1,-1,-1],"split_conditions":[1E0,4.6E0,3.36E2,4.2E0,5.3E0,2.2305555E0,7.4708E4,3.8E0,1.0972722E0,9.673298E0,7.9249177E0,5.5E0,4.5E0,2.464E3,9.799409E1,-3.521302E-2,-2.9381877E-2,2.588918E-2,-2.8530937E-2,-9.842076E-3,2.411341E-2,3.2737434E-2,-5.2197995E-3,-8.597263E-3,2.3587126E-2,-3.6233258E-2,3.768312E-2,2.9850552E-2,-4.7539055E-2,-3.6856372E-2,2.9848067E-2],"split_indices":[6,0,14,0,0,8,30,0,56,29,20,10,0,24,9,0,0,0,0,0,0,0,0,0,0,0,0,0,0,0,0],"split_type":[0,0,0,0,0,0,0,0,0,0,0,0,0,0,0,0,0,0,0,0,0,0,0,0,0,0,0,0,0,0,0],"sum_hessian":[1.9764074E4,6.05155E3,1.3712524E4,5.6771763E3,3.7437354E2,8.216145E3,5.49638E3,5.5448506E3,1.3232597E2,1.887858E2,1.8558774E2,7.0335293E3,1.1826151E3,5.2126978E3,2.8368195E2,5.3718423E3,1.7300806E2,3.1040804E1,1.01285164E2,1.0715373E2,8.1632065E1,1.7398283E2,1.1604902E1,2.596055E3,4.4374746E3,1.1210363E3,6.1578915E1,5.1421484E3,7.054968E1,2.3865994E2,4.5022E1],"tree_param":{"num_deleted":"0","num_feature":"59","num_nodes":"31","size_leaf_vector":"1"}},{"base_weights":[6.456664E-3,-1.0312318E0,4.553435E-1,-4.994377E-1,-1.0519274E0,2.3301329E-1,9.2983675E-1,-1.1013309E0,-2.0936006E-1,-1.0566705E0,-4.693895E-2,4.258754E-1,-6.757672E-1,1.0776545E0,-1.085844E0,-3.6550116E-2,3.1718619E-3,-3.036806E-2,6.0315803E-3,-3.26276E-2,-2.7488787E-2,1.9046715E-2,-3.309293E-2,-3.41977E-3,2.5307467E-2,-3.243873E-2,3.2565676E-2,3.298956E-2,-1.7067226E-2,-6.687872E-3,-5.183528E-2],"categories":[],"categories_nodes":[],"categories_segments":[],"categories_sizes":[],"default_left":[0,0,0,0,0,0,0,1,0,0,0,0,0,0,0,0,0,0,0,0,0,0,0,0,0,0,0,0,0,0,0],"id":42,"left_children":[1,3,5,7,9,11,13,15,17,19,21,23,25,27,29,-1,-1,-1,-1,-1,-1,-1,-1,-1,-1,-1,-1,-1,-1,-1,-1],"loss_changes":[9.1129375E3,6.449121E1,1.4404478E3,3.8737915E1,2.7050293E1,1.6303707E3,1.2993198E3,1.0347023E1,5.0239395E1,2.35625E1,2.068549E1,1.7303737E3,1.1643893E3,1.4766992E2,1.6480139E2,0E0,0E0,0E0,0E0,0E0,0E0,0E0,0E0,0E0,0E0,0E0,0E0,0E0,0E0,0E0,0E0],"parents":[2147483647,0,0,1,1,2,2,3,3,4,4,5,5,6,6,7,7,8,8,9,9,10,10,11,11,12,12,13,13,14,14],"right_children":[2,4,6,8,10,12,14,16,18,20,22,24,26,28,30,-1,-1,-1,-1,-1,-1,-1,-1,-1,-1,-1,-1,-1,-1,-1,-1],"split_conditions":[1E0,4.66E0,1.1035607E1,1.2623E2,1.1068572E1,1.98125E0,3.46E2,1.4861431E0,4.490925E-5,5E0,1.43E2,5.9E0,7.203E4,4.767E3,1.033211E1,-3.6550116E-2,3.1718619E-3,-3.036806E-2,6.0315803E-3,-3.26276E-2,-2.7488787E-2,1.9046715E-2,-3.309293E-2,-3.41977E-3,2.5307467E-2,-3.243873E-2,3.2565676E-2,3.298956E-2,-1.7067226E-2,-6.687872E-3,-5.183528E-2],"split_indices":[6,2,42,3,29,8,14,58,4,19,14,10,30,27,39,0,0,0,0,0,0,0,0,0,0,0,0,0,0,0,0],"split_type":[0,0,0,0,0,0,0,0,0,0,0,0,0,0,0,0,0,0,0,0,0,0,0,0,0,0,0,0,0,0,0],"sum_hessian":[1.956185E4,5.9065117E3,1.3655337E4,2.2219263E2,5.6843193E3,9.299446E3,4.3558906E3,7.13497E1,1.5084293E2,5.657567E3,2.6752514E1,7.6718516E3,1.627595E3,4.0587148E3,2.9717593E2,6.503609E1,6.3136134E0,5.0527424E1,1.003155E2,4.630923E3,1.026644E3,1.6499634E1,1.0252879E1,3.3468816E3,4.32497E3,1.3233009E3,3.0429404E2,4.0055342E3,5.318055E1,1.27350464E2,1.6982547E2],"tree_param":{"num_deleted":"0","num_feature":"59","num_nodes":"31","size_leaf_vector":"1"}},{"base_weights":[7.0045344E-3,4.4459358E-1,-1.0169015E0,1.786215E-1,8.451608E-1,-1.1402408E0,6.4857733E-1,3.844042E-1,-9.522238E-1,9.6287197E-1,-5.2210426E-1,-1.1562095E0,-4.8997128E-1,1.7625885E-2,9.1280264E-1,-5.1355786E-3,2.4700752E-2,-3.466734E-2,2.1529404E-2,1.232108E-2,3.1893313E-2,7.124028E-3,-5.059991E-2,-3.4786895E-2,-2.8333178E-2,2.8448312E-2,-2.7953077E-2,-4.2468447E-2,1.6313298E-2,2.0194357E-2,3.700356E-2],"categories":[],"categories_nodes":[],"categories_segments":[],"categories_sizes":[],"default_left":[0,0,0,0,0,0,0,0,0,0,0,0,0,0,0,0,0,0,0,0,0,0,0,0,0,0,0,0,0,0,0],"id":43,"left_children":[1,3,5,7,9,11,13,15,17,19,21,23,25,27,29,-1,-1,-1,-1,-1,-1,-1,-1,-1,-1,-1,-1,-1,-1,-1,-1],"loss_changes":[8.658033E3,1.4421853E3,1.1892485E3,1.8939496E3,8.6989185E2,5.5373047E1,6.659721E1,1.6792686E3,4.2633606E2,2.7486865E2,3.797416E2,2.6396484E0,8.403328E1,9.047636E1,2.0810272E1,0E0,0E0,0E0,0E0,0E0,0E0,0E0,0E0,0E0,0E0,0E0,0E0,0E0,0E0,0E0,0E0],"parents":[2147483647,0,0,1,1,2,2,3,3,4,4,5,5,6,6,7,7,8,8,9,9,10,10,11,11,12,12,13,13,14,14],"right_children":[2,4,6,8,10,12,14,16,18,20,22,24,26,28,30,-1,-1,-1,-1,-1,-1,-1,-1,-1,-1,-1,-1,-1,-1,-1,-1],"split_conditions":[3.4400853E-6,3.36E2,4.6E0,1.98125E0,3.9182E4,4.2E0,5E0,5.9E0,6.4735306E1,7.69E0,1.033211E1,3.7369E4,7E0,4.6701935E1,5.9E0,-5.1355786E-3,2.4700752E-2,-3.466734E-2,2.1529404E-2,1.232108E-2,3.1893313E-2,7.124028E-3,-5.059991E-2,-3.4786895E-2,-2.8333178E-2,2.8448312E-2,-2.7953077E-2,-4.2468447E-2,1.6313298E-2,2.0194357E-2,3.700356E-2],"split_indices":[4,14,0,8,17,0,0,10,9,2,39,17,11,9,0,0,0,0,0,0,0,0,0,0,0,0,0,0,0,0,0],"split_type":[0,0,0,0,0,0,0,0,0,0,0,0,0,0,0,0,0,0,0,0,0,0,0,0,0,0,0,0,0,0,0],"sum_hessian":[1.9321799E4,1.3537018E4,5.7847803E3,8.1361514E3,5.400866E3,5.3862124E3,3.985679E2,6.884095E3,1.2520559E3,4.9730225E3,4.2784396E2,5.256354E3,1.2985887E2,1.1795834E2,2.8060953E2,3.038648E3,3.8454473E3,1.1164093E3,1.3564658E2,7.6485767E2,4.2081646E3,2.5942972E2,1.6841425E2,5.170004E3,8.634965E1,3.0246546E1,9.961232E1,3.122112E1,8.673722E1,1.6235939E2,1.18250145E2],"tree_param":{"num_deleted":"0","num_feature":"59","num_nodes":"31","size_leaf_vector":"1"}},{"base_weights":[-5.748175E-3,4.2557976E-1,-1.0179718E0,2.8094435E-2,7.147962E-1,-1.1341163E0,6.204516E-1,-1.646781E-1,1.0817546E0,8.2910734E-1,-5.245419E-1,-1.1504778E0,-4.8702636E-1,9.597788E-2,1.0485206E0,1.2613698E-2,-1.879363E-2,2.282811E-2,3.5079394E-2,2.6543198E-2,-1.0429043E-2,1.3468832E-2,-3.1974535E-2,-3.460896E-2,-2.7479323E-2,2.8137581E-2,-2.7659427E-2,-1.5973423E-2,2.3204794E-2,3.509212E-2,2.0475265E-2],"categories":[],"categories_nodes":[],"categories_segments":[],"categories_sizes":[],"default_left":[0,0,0,0,