{"learner":{"attributes":{"best_iteration":"1192","best_score":"0.17501376882447142","scikit_learn":"{\"_estimator_type\": \"classifier\"}"},"feature_names":["magnitude","depth_km","latitude","longitude","eta","log10_eta","is_strong_link","has_parent","parent_time_gap_days","parent_distance_km","parent_magnitude","parent_depth_km","event_year","event_month","event_dayofyear","event_hour","event_weekday","events_past_1d","local_events_10km_past_1d","local_max_mag_10km_past_1d","local_log10_energy_10km_past_1d","local_events_25km_past_1d","local_max_mag_25km_past_1d","local_log10_energy_25km_past_1d","local_events_50km_past_1d","local_max_mag_50km_past_1d","local_log10_energy_50km_past_1d","local_events_100km_past_1d","local_max_mag_100km_past_1d","local_log10_energy_100km_past_1d","events_past_7d","local_events_10km_past_7d","local_max_mag_10km_past_7d","local_log10_energy_10km_past_7d","local_events_25km_past_7d","local_max_mag_25km_past_7d","local_log10_energy_25km_past_7d","local_events_50km_past_7d","local_max_mag_50km_past_7d","local_log10_energy_50km_past_7d","local_events_100km_past_7d","local_max_mag_100km_past_7d","local_log10_energy_100km_past_7d","events_past_30d","local_events_10km_past_30d","local_max_mag_10km_past_30d","local_log10_energy_10km_past_30d","local_events_25km_past_30d","local_max_mag_25km_past_30d","local_log10_energy_25km_past_30d","local_events_50km_past_30d","local_max_mag_50km_past_30d","local_log10_energy_50km_past_30d","local_events_100km_past_30d","local_max_mag_100km_past_30d","local_log10_energy_100km_past_30d","nearest_recent_event_distance_km_past_30d","nearest_recent_event_magnitude_past_30d","nearest_recent_event_age_days_past_30d"],"feature_types":["float","float","float","float","float","float","int","int","float","float","float","float","int","int","int","int","int","int","int","float","float","int","float","float","int","float","float","int","float","float","int","int","float","float","int","float","float","int","float","float","int","float","float","int","int","float","float","int","float","float","int","float","float","int","float","float","float","float","float"],"gradient_booster":{"model":{"cats":{"enc":[],"feature_segments":[],"sorted_idx":[]},"gbtree_model_param":{"num_parallel_tree":"1","num_trees":"1200"},"iteration_indptr":[0,1,2,3,4,5,6,7,8,9,10,11,12,13,14,15,16,17,18,19,20,21,22,23,24,25,26,27,28,29,30,31,32,33,34,35,36,37,38,39,40,41,42,43,44,45,46,47,48,49,50,51,52,53,54,55,56,57,58,59,60,61,62,63,64,65,66,67,68,69,70,71,72,73,74,75,76,77,78,79,80,81,82,83,84,85,86,87,88,89,90,91,92,93,94,95,96,97,98,99,100,101,102,103,104,105,106,107,108,109,110,111,112,113,114,115,116,117,118,119,120,121,122,123,124,125,126,127,128,129,130,131,132,133,134,135,136,137,138,139,140,141,142,143,144,145,146,147,148,149,150,151,152,153,154,155,156,157,158,159,160,161,162,163,164,165,166,167,168,169,170,171,172,173,174,175,176,177,178,179,180,181,182,183,184,185,186,187,188,189,190,191,192,193,194,195,196,197,198,199,200,201,202,203,204,205,206,207,208,209,210,211,212,213,214,215,216,217,218,219,220,221,222,223,224,225,226,227,228,229,230,231,232,233,234,235,236,237,238,239,240,241,242,243,244,245,246,247,248,249,250,251,252,253,254,255,256,257,258,259,260,261,262,263,264,265,266,267,268,269,270,271,272,273,274,275,276,277,278,279,280,281,282,283,284,285,286,287,288,289,290,291,292,293,294,295,296,297,298,299,300,301,302,303,304,305,306,307,308,309,310,311,312,313,314,315,316,317,318,319,320,321,322,323,324,325,326,327,328,329,330,331,332,333,334,335,336,337,338,339,340,341,342,343,344,345,346,347,348,349,350,351,352,353,354,355,356,357,358,359,360,361,362,363,364,365,366,367,368,369,370,371,372,373,374,375,376,377,378,379,380,381,382,383,384,385,386,387,388,389,390,391,392,393,394,395,396,397,398,399,400,401,402,403,404,405,406,407,408,409,410,411,412,413,414,415,416,417,418,419,420,421,422,423,424,425,426,427,428,429,430,431,432,433,434,435,436,437,438,439,440,441,442,443,444,445,446,447,448,449,450,451,452,453,454,455,456,457,458,459,460,461,462,463,464,465,466,467,468,469,470,471,472,473,474,475,476,477,478,479,480,481,482,483,484,485,486,487,488,489,490,491,492,493,494,495,496,497,498,499,500,501,502,503,504,505,506,507,508,509,510,511,512,513,514,515,516,517,518,519,520,521,522,523,524,525,526,527,528,529,530,531,532,533,534,535,536,537,538,539,540,541,542,543,544,545,546,547,548,549,550,551,552,553,554,555,556,557,558,559,560,561,562,563,564,565,566,567,568,569,570,571,572,573,574,575,576,577,578,579,580,581,582,583,584,585,586,587,588,589,590,591,592,593,594,595,596,597,598,599,600,601,602,603,604,605,606,607,608,609,610,611,612,613,614,615,616,617,618,619,620,621,622,623,624,625,626,627,628,629,630,631,632,633,634,635,636,637,638,639,640,641,642,643,644,645,646,647,648,649,650,651,652,653,654,655,656,657,658,659,660,661,662,663,664,665,666,667,668,669,670,671,672,673,674,675,676,677,678,679,680,681,682,683,684,685,686,687,688,689,690,691,692,693,694,695,696,697,698,699,700,701,702,703,704,705,706,707,708,709,710,711,712,713,714,715,716,717,718,719,720,721,722,723,724,725,726,727,728,729,730,731,732,733,734,735,736,737,738,739,740,741,742,743,744,745,746,747,748,749,750,751,752,753,754,755,756,757,758,759,760,761,762,763,764,765,766,767,768,769,770,771,772,773,774,775,776,777,778,779,780,781,782,783,784,785,786,787,788,789,790,791,792,793,794,795,796,797,798,799,800,801,802,803,804,805,806,807,808,809,810,811,812,813,814,815,816,817,818,819,820,821,822,823,824,825,826,827,828,829,830,831,832,833,834,835,836,837,838,839,840,841,842,843,844,845,846,847,848,849,850,851,852,853,854,855,856,857,858,859,860,861,862,863,864,865,866,867,868,869,870,871,872,873,874,875,876,877,878,879,880,881,882,883,884,885,886,887,888,889,890,891,892,893,894,895,896,897,898,899,900,901,902,903,904,905,906,907,908,909,910,911,912,913,914,915,916,917,918,919,920,921,922,923,924,925,926,927,928,929,930,931,932,933,934,935,936,937,938,939,940,941,942,943,944,945,946,947,948,949,950,951,952,953,954,955,956,957,958,959,960,961,962,963,964,965,966,967,968,969,970,971,972,973,974,975,976,977,978,979,980,981,982,983,984,985,986,987,988,989,990,991,992,993,994,995,996,997,998,999,1000,1001,1002,1003,1004,1005,1006,1007,1008,1009,1010,1011,1012,1013,1014,1015,1016,1017,1018,1019,1020,1021,1022,1023,1024,1025,1026,1027,1028,1029,1030,1031,1032,1033,1034,1035,1036,1037,1038,1039,1040,1041,1042,1043,1044,1045,1046,1047,1048,1049,1050,1051,1052,1053,1054,1055,1056,1057,1058,1059,1060,1061,1062,1063,1064,1065,1066,1067,1068,1069,1070,1071,1072,1073,1074,1075,1076,1077,1078,1079,1080,1081,1082,1083,1084,1085,1086,1087,1088,1089,1090,1091,1092,1093,1094,1095,1096,1097,1098,1099,1100,1101,1102,1103,1104,1105,1106,1107,1108,1109,1110,1111,1112,1113,1114,1115,1116,1117,1118,1119,1120,1121,1122,1123,1124,1125,1126,1127,1128,1129,1130,1131,1132,1133,1134,1135,1136,1137,1138,1139,1140,1141,1142,1143,1144,1145,1146,1147,1148,1149,1150,1151,1152,1153,1154,1155,1156,1157,1158,1159,1160,1161,1162,1163,1164,1165,1166,1167,1168,1169,1170,1171,1172,1173,1174,1175,1176,1177,1178,1179,1180,1181,1182,1183,1184,1185,1186,1187,1188,1189,1190,1191,1192,1193,1194,1195,1196,1197,1198,1199,1200],"tree_info":[0,0,0,0,0,0,0,0,0,0,0,0,0,0,0,0,0,0,0,0,0,0,0,0,0,0,0,0,0,0,0,0,0,0,0,0,0,0,0,0,0,0,0,0,0,0,0,0,0,0,0,0,0,0,0,0,0,0,0,0,0,0,0,0,0,0,0,0,0,0,0,0,0,0,0,0,0,0,0,0,0,0,0,0,0,0,0,0,0,0,0,0,0,0,0,0,0,0,0,0,0,0,0,0,0,0,0,0,0,0,0,0,0,0,0,0,0,0,0,0,0,0,0,0,0,0,0,0,0,0,0,0,0,0,0,0,0,0,0,0,0,0,0,0,0,0,0,0,0,0,0,0,0,0,0,0,0,0,0,0,0,0,0,0,0,0,0,0,0,0,0,0,0,0,0,0,0,0,0,0,0,0,0,0,0,0,0,0,0,0,0,0,0,0,0,0,0,0,0,0,0,0,0,0,0,0,0,0,0,0,0,0,0,0,0,0,0,0,0,0,0,0,0,0,0,0,0,0,0,0,0,0,0,0,0,0,0,0,0,0,0,0,0,0,0,0,0,0,0,0,0,0,0,0,0,0,0,0,0,0,0,0,0,0,0,0,0,0,0,0,0,0,0,0,0,0,0,0,0,0,0,0,0,0,0,0,0,0,0,0,0,0,0,0,0,0,0,0,0,0,0,0,0,0,0,0,0,0,0,0,0,0,0,0,0,0,0,0,0,0,0,0,0,0,0,0,0,0,0,0,0,0,0,0,0,0,0,0,0,0,0,0,0,0,0,0,0,0,0,0,0,0,0,0,0,0,0,0,0,0,0,0,0,0,0,0,0,0,0,0,0,0,0,0,0,0,0,0,0,0,0,0,0,0,0,0,0,0,0,0,0,0,0,0,0,0,0,0,0,0,0,0,0,0,0,0,0,0,0,0,0,0,0,0,0,0,0,0,0,0,0,0,0,0,0,0,0,0,0,0,0,0,0,0,0,0,0,0,0,0,0,0,0,0,0,0,0,0,0,0,0,0,0,0,0,0,0,0,0,0,0,0,0,0,0,0,0,0,0,0,0,0,0,0,0,0,0,0,0,0,0,0,0,0,0,0,0,0,0,0,0,0,0,0,0,0,0,0,0,0,0,0,0,0,0,0,0,0,0,0,0,0,0,0,0,0,0,0,0,0,0,0,0,0,0,0,0,0,0,0,0,0,0,0,0,0,0,0,0,0,0,0,0,0,0,0,0,0,0,0,0,0,0,0,0,0,0,0,0,0,0,0,0,0,0,0,0,0,0,0,0,0,0,0,0,0,0,0,0,0,0,0,0,0,0,0,0,0,0,0,0,0,0,0,0,0,0,0,0,0,0,0,0,0,0,0,0,0,0,0,0,0,0,0,0,0,0,0,0,0,0,0,0,0,0,0,0,0,0,0,0,0,0,0,0,0,0,0,0,0,0,0,0,0,0,0,0,0,0,0,0,0,0,0,0,0,0,0,0,0,0,0,0,0,0,0,0,0,0,0,0,0,0,0,0,0,0,0,0,0,0,0,0,0,0,0,0,0,0,0,0,0,0,0,0,0,0,0,0,0,0,0,0,0,0,0,0,0,0,0,0,0,0,0,0,0,0,0,0,0,0,0,0,0,0,0,0,0,0,0,0,0,0,0,0,0,0,0,0,0,0,0,0,0,0,0,0,0,0,0,0,0,0,0,0,0,0,0,0,0,0,0,0,0,0,0,0,0,0,0,0,0,0,0,0,0,0,0,0,0,0,0,0,0,0,0,0,0,0,0,0,0,0,0,0,0,0,0,0,0,0,0,0,0,0,0,0,0,0,0,0,0,0,0,0,0,0,0,0,0,0,0,0,0,0,0,0,0,0,0,0,0,0,0,0,0,0,0,0,0,0,0,0,0,0,0,0,0,0,0,0,0,0,0,0,0,0,0,0,0,0,0,0,0,0,0,0,0,0,0,0,0,0,0,0,0,0,0,0,0,0,0,0,0,0,0,0,0,0,0,0,0,0,0,0,0,0,0,0,0,0,0,0,0,0,0,0,0,0,0,0,0,0,0,0,0,0,0,0,0,0,0,0,0,0,0,0,0,0,0,0,0,0,0,0,0,0,0,0,0,0,0,0,0,0,0,0,0,0,0,0,0,0,0,0,0,0,0,0,0,0,0,0,0,0,0,0,0,0,0,0,0,0,0,0,0,0,0,0,0,0,0,0,0,0,0,0,0,0,0,0,0,0,0,0,0,0,0,0,0,0,0,0,0,0,0,0,0,0,0,0,0,0,0,0,0,0,0,0,0,0,0,0,0,0,0,0,0,0,0,0,0,0,0,0,0,0,0,0,0,0,0,0,0,0,0,0,0,0,0,0,0,0,0,0,0,0,0,0,0,0,0,0,0,0,0,0,0,0,0,0,0,0,0,0,0,0,0,0,0,0,0,0,0,0,0,0,0,0,0,0,0,0,0,0,0,0,0,0,0,0,0,0,0,0,0,0,0,0,0,0,0,0,0,0,0,0,0,0,0,0,0,0,0,0,0,0,0,0,0,0,0,0,0,0,0,0,0,0,0,0,0,0,0,0,0,0,0,0,0,0,0,0,0,0,0,0,0,0,0,0,0,0,0,0,0,0,0,0,0,0,0,0,0,0,0,0,0,0,0,0,0,0,0,0,0,0,0,0,0,0,0,0,0,0,0,0,0,0,0],"trees":[{"base_weights":[-3.3408236E-3,-1.5866783E0,1.5693293E0,-1.7901512E0,-1.9620676E-1,1.0017813E0,1.7304932E0,-1.8732556E0,-1.4595575E0,-5.874825E-1,8.984415E-1,5.674914E-1,1.3240365E0,1.1324251E0,1.8960052E0,-5.7275724E-2,-5.2208748E-2,-3.7885096E-2,-5.327138E-2,-4.477798E-2,-4.8185536E-3,-1.6192107E-2,3.6774173E-2,8.737926E-3,4.7362056E-2,4.8759762E-2,3.1505596E-2,4.187005E-2,-5.9623234E-2,4.7592137E-2,5.894851E-2],"categories":[],"categories_nodes":[],"categories_segments":[],"categories_sizes":[],"default_left":[0,0,0,0,0,0,0,0,0,0,0,0,0,0,0,0,0,0,0,0,0,0,0,0,0,0,0,0,0,0,0],"id":0,"left_children":[1,3,5,7,9,11,13,15,17,19,21,23,25,27,29,-1,-1,-1,-1,-1,-1,-1,-1,-1,-1,-1,-1,-1,-1,-1,-1],"loss_changes":[5.995157E4,3.3940117E3,1.1030957E3,2.8480078E2,6.569729E2,3.7344727E2,9.2893555E2,3.6623047E1,1.287959E2,4.3622137E2,1.9085547E2,3.1816324E2,1.2486914E2,1.679279E3,1.5410938E2,0E0,0E0,0E0,0E0,0E0,0E0,0E0,0E0,0E0,0E0,0E0,0E0,0E0,0E0,0E0,0E0],"parents":[2147483647,0,0,1,1,2,2,3,3,4,4,5,5,6,6,7,7,8,8,9,9,10,10,11,11,12,12,13,13,14,14],"right_children":[2,4,6,8,10,12,14,16,18,20,22,24,26,28,30,-1,-1,-1,-1,-1,-1,-1,-1,-1,-1,-1,-1,-1,-1,-1,-1],"split_conditions":[1E0,3.5E0,6E0,2.9E0,4.4E0,5.9130416E0,2.02E3,2.6E0,2.4E1,6.59E0,4.88E0,4.2799065E1,3.8082578E-7,1.001E3,5.2E0,-5.7275724E-2,-5.2208748E-2,-3.7885096E-2,-5.327138E-2,-4.477798E-2,-4.8185536E-3,-1.6192107E-2,3.6774173E-2,8.737926E-3,4.7362056E-2,4.8759762E-2,3.1505596E-2,4.187005E-2,-5.9623234E-2,4.7592137E-2,5.894851E-2],"split_indices":[6,0,27,0,0,39,12,0,1,2,2,9,4,50,54,0,0,0,0,0,0,0,0,0,0,0,0,0,0,0,0],"split_type":[0,0,0,0,0,0,0,0,0,0,0,0,0,0,0,0,0,0,0,0,0,0,0,0,0,0,0,0,0,0,0],"sum_hessian":[2.4074285E4,1.1996452E4,1.2077833E4,1.046481E4,1.5316426E3,2.6727627E3,9.40507E3,8.358893E3,2.1059167E3,1.1286694E3,4.029731E2,1.1396564E3,1.5331064E3,2.0403223E3,7.3647476E3,6.569925E3,1.7889674E3,1.3012411E3,8.046757E2,3.609081E2,7.6776135E2,7.459838E1,3.2837473E2,8.961545E2,2.4350185E2,7.2763226E2,8.054741E2,1.8820723E3,1.5825E2,1.3457267E3,6.019021E3],"tree_param":{"num_deleted":"0","num_feature":"59","num_nodes":"31","size_leaf_vector":"1"}},{"base_weights":[-5.5440357E-3,-1.5367507E0,1.5225646E0,-1.3480601E0,-1.6996015E0,8.3417505E-1,1.6588559E0,-1.3835177E0,-5.710178E-1,-1.7748736E0,-1.6445657E0,-1.4980537E-1,1.1484034E0,1.0907271E0,1.8101182E0,-4.36235E-2,-3.643431E-2,-1.082976E-2,-3.5318162E-2,-5.3305157E-2,4.162234E-3,-4.9513876E-2,-2.1098457E-2,-3.8947538E-2,1.5130845E-5,4.1598015E-2,1.0390414E-2,4.2808235E-2,-3.1598337E-2,4.4333275E-2,5.7042908E-2],"categories":[],"categories_nodes":[],"categories_segments":[],"categories_sizes":[],"default_left":[0,0,0,1,0,0,0,1,0,1,0,0,0,0,0,0,0,0,0,0,0,0,0,0,0,0,0,0,0,0,0],"id":1,"left_children":[1,3,5,7,9,11,13,15,17,19,21,23,25,27,29,-1,-1,-1,-1,-1,-1,-1,-1,-1,-1,-1,-1,-1,-1,-1,-1],"loss_changes":[5.6404715E4,3.6770312E2,1.1305957E3,1.5302637E2,2.383789E1,6.173192E2,8.634297E2,6.194336E1,3.0813156E1,1.0457031E1,1.9625E1,8.355131E1,2.8856982E2,1.5296484E3,2.3849219E2,0E0,0E0,0E0,0E0,0E0,0E0,0E0,0E0,0E0,0E0,0E0,0E0,0E0,0E0,0E0,0E0],"parents":[2147483647,0,0,1,1,2,2,3,3,4,4,5,5,6,6,7,7,8,8,9,9,10,10,11,11,12,12,13,13,14,14],"right_children":[2,4,6,8,10,12,14,16,18,20,22,24,26,28,30,-1,-1,-1,-1,-1,-1,-1,-1,-1,-1,-1,-1,-1,-1,-1,-1],"split_conditions":[1E0,2.1E1,3E0,5.256845E0,5.4490185E0,4.1E0,2.02E3,3.9644167E0,1.234E1,8.030935E0,4E0,3.6264348E0,1.8873611E1,1.626E3,5.2E0,-4.36235E-2,-3.643431E-2,-1.082976E-2,-3.5318162E-2,-5.3305157E-2,4.162234E-3,-4.9513876E-2,-2.1098457E-2,-3.8947538E-2,1.5130845E-5,4.1598015E-2,1.0390414E-2,4.2808235E-2,-3.1598337E-2,4.4333275E-2,5.7042908E-2],"split_indices":[6,1,24,33,42,10,12,46,2,46,18,23,8,43,54,0,0,0,0,0,0,0,0,0,0,0,0,0,0,0,0],"split_type":[0,0,0,0,0,0,0,0,0,0,0,0,0,0,0,0,0,0,0,0,0,0,0,0,0,0,0,0,0,0,0],"sum_hessian":[2.4104121E4,1.2039854E4,1.2064268E4,5.581735E3,6.458119E3,1.9949832E3,1.0069285E4,5.337401E3,2.4433392E2,2.7144E3,3.7437192E3,4.8300763E2,1.5119755E3,2.1189375E3,7.9503477E3,3.759615E3,1.5777858E3,1.8265265E2,6.1681267E1,2.711687E3,2.7129326E0,3.7196628E3,2.4056314E1,5.5016357E1,4.2799127E2,1.1652017E3,3.4677386E2,1.8319872E3,2.8695023E2,1.7172766E3,6.233071E3],"tree_param":{"num_deleted":"0","num_feature":"59","num_nodes":"31","size_leaf_vector":"1"}},{"base_weights":[-4.9115054E-4,-1.490604E0,1.4776852E0,-1.6720295E0,4.530193E-3,9.2843866E-1,1.6336873E0,-1.7584596E0,-1.2703979E0,-4.284588E-1,9.4893175E-1,5.894549E-1,1.3148415E0,1.0482161E0,1.7875271E0,-5.4136284E-2,-4.8686914E-2,-3.2079276E-2,-4.9802303E-2,-4.0817436E-2,-7.3890504E-4,-9.5060505E-3,3.7447006E-2,1.0306778E-2,4.5627527E-2,3.4904633E-2,5.109564E-2,4.013033E-2,-5.3263493E-2,4.409635E-2,5.5642944E-2],"categories":[],"categories_nodes":[],"categories_segments":[],"categories_sizes":[],"default_left":[0,0,0,0,0,0,0,0,0,0,0,0,0,0,0,0,0,0,0,0,0,0,0,0,0,0,0,0,0,0,0],"id":2,"left_children":[1,3,5,7,9,11,13,15,17,19,21,23,25,27,29,-1,-1,-1,-1,-1,-1,-1,-1,-1,-1,-1,-1,-1,-1,-1,-1],"loss_changes":[5.3030336E4,3.252209E3,1.0340762E3,3.6891992E2,5.313466E2,3.4971484E2,8.4580273E2,5.201953E1,1.4687671E2,3.3533142E2,1.551478E2,3.263627E2,7.1468994E1,1.60502E3,1.5642383E2,0E0,0E0,0E0,0E0,0E0,0E0,0E0,0E0,0E0,0E0,0E0,0E0,0E0,0E0,0E0,0E0],"parents":[2147483647,0,0,1,1,2,2,3,3,4,4,5,5,6,6,7,7,8,8,9,9,10,10,11,11,12,12,13,13,14,14],"right_children":[2,4,6,8,10,12,14,16,18,20,22,24,26,28,30,-1,-1,-1,-1,-1,-1,-1,-1,-1,-1,-1,-1,-1,-1,-1,-1],"split_conditions":[1E0,3.6E0,6E0,3E0,4.4E0,4.9E0,7.24E0,2.6E0,2.7E1,6.25E0,4.88E0,4.890513E1,2.7E1,1.081E3,5.2E0,-5.4136284E-2,-4.8686914E-2,-3.2079276E-2,-4.9802303E-2,-4.0817436E-2,-7.3890504E-4,-9.5060505E-3,3.7447006E-2,1.0306778E-2,4.5627527E-2,3.4904633E-2,5.109564E-2,4.013033E-2,-5.3263493E-2,4.409635E-2,5.5642944E-2],"split_indices":[6,0,27,0,0,51,2,0,1,2,2,9,37,53,54,0,0,0,0,0,0,0,0,0,0,0,0,0,0,0,0],"split_type":[0,0,0,0,0,0,0,0,0,0,0,0,0,0,0,0,0,0,0,0,0,0,0,0,0,0,0,0,0,0,0],"sum_hessian":[2.4073701E4,1.1988441E4,1.2085259E4,1.0691031E4,1.2974103E3,2.6748167E3,9.410442E3,8.794995E3,1.8960361E3,8.8993805E2,4.074723E2,1.4261809E3,1.2486356E3,1.9598004E3,7.450642E3,6.554529E3,2.2404663E3,1.253123E3,6.4291315E2,2.6829254E2,6.216455E2,7.791161E1,3.2956067E2,1.1294008E3,2.9678018E2,9.013433E2,3.4729227E2,1.7780537E3,1.817467E2,1.305585E3,6.145057E3],"tree_param":{"num_deleted":"0","num_feature":"59","num_nodes":"31","size_leaf_vector":"1"}},{"base_weights":[3.3350345E-3,-1.4486445E0,1.4443494E0,-1.646156E0,-1.0424388E-1,1.2442112E0,1.8407887E0,-1.7249719E0,-1.3346293E0,-4.6850926E-1,9.1538405E-1,1.3434868E0,-1.9063929E0,1.6430424E0,5.5445656E-2,-5.286244E-2,-4.7632143E-2,-3.422347E-2,-4.9305238E-2,-3.7715137E-2,-1.4855476E-3,-8.568821E-3,3.6213852E-2,2.2703927E-2,4.5947216E-2,1.4716847E-2,-5.7908103E-2,3.5923198E-2,5.517595E-2],"categories":[],"categories_nodes":[],"categories_segments":[],"categories_sizes":[],"default_left":[0,0,0,0,0,1,0,0,0,0,0,0,0,0,0,0,0,0,0,0,0,0,0,0,0,0,0,0,0],"id":3,"left_children":[1,3,5,7,9,11,13,15,17,19,21,23,25,27,-1,-1,-1,-1,-1,-1,-1,-1,-1,-1,-1,-1,-1,-1,-1],"loss_changes":[5.015941E4,3.1706016E3,9.523594E2,2.5333203E2,5.6894104E2,2.5043467E3,2.866211E0,3.9501953E1,1.2426099E2,3.7281808E2,1.4163425E2,8.5457715E2,1.4954651E1,1.1305054E1,0E0,0E0,0E0,0E0,0E0,0E0,0E0,0E0,0E0,0E0,0E0,0E0,0E0,0E0,0E0],"parents":[2147483647,0,0,1,1,2,2,3,3,4,4,5,5,6,6,7,7,8,8,9,9,10,10,11,11,12,12,13,13],"right_children":[2,4,6,8,10,12,14,16,18,20,22,24,26,28,-1,-1,-1,-1,-1,-1,-1,-1,-1,-1,-1,-1,-1,-1,-1],"split_conditions":[1E0,3.5E0,6.8E0,2.9E0,4.4E0,1.0108271E1,1.4E1,2.6E0,2.4E1,7.1E0,4.88E0,3E0,5.4354405E0,9.150054E0,5.5445656E-2,-5.286244E-2,-4.7632143E-2,-3.422347E-2,-4.9305238E-2,-3.7715137E-2,-1.4855476E-3,-8.568821E-3,3.6213852E-2,2.2703927E-2,4.5947216E-2,1.4716847E-2,-5.7908103E-2,3.5923198E-2,5.517595E-2],"split_indices":[6,0,54,0,0,52,37,0,1,2,2,24,36,42,0,0,0,0,0,0,0,0,0,0,0,0,0,0,0],"split_type":[0,0,0,0,0,0,0,0,0,0,0,0,0,0,0,0,0,0,0,0,0,0,0,0,0,0,0,0,0],"sum_hessian":[2.3971066E4,1.1940104E4,1.2030964E4,1.0410438E4,1.5296649E3,7.997597E3,4.033367E3,8.304794E3,2.1056443E3,1.1274281E3,4.0223682E2,7.7538467E3,2.4375026E2,1.5353317E2,3.8798337E3,6.527778E3,1.7770159E3,1.2966088E3,8.090355E2,3.904632E2,7.369649E2,7.861731E1,3.236195E2,1.8835679E3,5.870279E3,2.211385E0,2.4153888E2,4.909952E1,1.04433655E2],"tree_param":{"num_deleted":"0","num_feature":"59","num_nodes":"29","size_leaf_vector":"1"}},{"base_weights":[-5.559614E-3,-1.4119482E0,1.3995293E0,-1.5911567E0,2.7072774E-2,7.538347E-1,1.5281738E0,-1.682792E0,-1.259632E0,-3.780504E-1,8.9046836E-1,-1.6208886E-1,1.0476991E0,1.0103464E0,1.6700307E0,-5.155232E-2,-4.651302E-2,-3.2108724E-2,-4.699685E-2,9.5485564E-4,-3.4512077E-2,1.4550084E-2,4.7581837E-2,-9.041602E-3,3.8643125E-2,1.4705089E-2,4.0919617E-2,3.725122E-2,-5.4322004E-2,4.0310938E-2,5.2766558E-2],"categories":[],"categories_nodes":[],"categories_segments":[],"categories_sizes":[],"default_left":[0,0,0,0,0,0,0,0,0,0,0,0,0,0,0,0,0,0,0,0,0,0,0,0,0,0,0,0,0,0,0],"id":4,"left_children":[1,3,5,7,9,11,13,15,17,19,21,23,25,27,29,-1,-1,-1,-1,-1,-1,-1,-1,-1,-1,-1,-1,-1,-1,-1,-1],"loss_changes":[4.7254004E4,3.0819863E3,9.924629E2,3.2073242E2,4.6360922E2,5.355934E2,7.309531E2,3.657422E1,1.3229688E2,2.8563885E2,1.1861441E2,9.8174324E1,2.6493298E2,1.4037256E3,2.2460156E2,0E0,0E0,0E0,0E0,0E0,0E0,0E0,0E0,0E0,0E0,0E0,0E0,0E0,0E0,0E0,0E0],"parents":[2147483647,0,0,1,1,2,2,3,3,4,4,5,5,6,6,7,7,8,8,9,9,10,10,11,11,12,12,13,13,14,14],"right_children":[2,4,6,8,10,12,14,16,18,20,22,24,26,28,30,-1,-1,-1,-1,-1,-1,-1,-1,-1,-1,-1,-1,-1,-1,-1,-1],"split_conditions":[1E0,3.6E0,3E0,2.9E0,4.4E0,4.1E0,2.02E3,2.6E0,2.4E1,2.9E1,5E0,3.9E0,8.462447E0,1.001E3,5.2E0,-5.155232E-2,-4.651302E-2,-3.2108724E-2,-4.699685E-2,9.5485564E-4,-3.4512077E-2,1.4550084E-2,4.7581837E-2,-9.041602E-3,3.8643125E-2,1.4705089E-2,4.0919617E-2,3.725122E-2,-5.4322004E-2,4.0310938E-2,5.2766558E-2],"split_indices":[6,0,24,0,0,10,12,0,1,1,0,0,9,50,54,0,0,0,0,0,0,0,0,0,0,0,0,0,0,0,0],"split_type":[0,0,0,0,0,0,0,0,0,0,0,0,0,0,0,0,0,0,0,0,0,0,0,0,0,0,0,0,0,0,0],"sum_hessian":[2.391075E4,1.1949846E4,1.1960903E4,1.0626383E4,1.3234625E3,1.9882592E3,9.972645E3,8.322047E3,2.3043364E3,9.0117474E2,4.2228778E2,4.8306842E2,1.5051908E3,2.1462397E3,7.8264043E3,6.547949E3,1.7740974E3,1.427943E3,8.7639343E2,5.8936426E2,3.1181046E2,2.6785223E2,1.5443555E2,4.414566E2,4.161182E1,5.457435E2,9.594472E2,1.984082E3,1.6215765E2,1.6783846E3,6.14802E3],"tree_param":{"num_deleted":"0","num_feature":"59","num_nodes":"31","size_leaf_vector":"1"}},{"base_weights":[-7.933403E-4,-1.3708044E0,1.3663567E0,-1.5610648E0,-9.820707E-2,1.1664214E0,1.7558655E0,-1.6391803E0,-1.2532257E0,-4.4547325E-1,8.7390804E-1,1.262906E0,-1.8408371E0,1.5662935E0,5.288981E-2,-4.9403347E-2,-3.0436803E-2,-4.9243446E-2,-3.339429E-2,-3.826829E-2,-1.7989555E-3,-1.3485821E-2,3.5172787E-2,2.0755388E-2,4.3380998E-2,-5.5923868E-2,1.5062107E-2,3.46272E-2,5.2691776E-2],"categories":[],"categories_nodes":[],"categories_segments":[],"categories_sizes":[],"default_left":[0,0,0,0,0,1,0,0,0,0,0,0,0,0,0,0,0,0,0,0,0,0,0,0,0,0,0,0,0],"id":5,"left_children":[1,3,5,7,9,11,13,15,17,19,21,23,25,27,-1,-1,-1,-1,-1,-1,-1,-1,-1,-1,-1,-1,-1,-1,-1],"loss_changes":[4.459619E4,2.8793184E3,9.2603516E2,2.4672852E2,5.229051E2,2.2881768E3,2.7001953E0,3.7476562E1,1.1227759E2,3.6509906E2,1.6160818E2,7.9731445E2,1.432251E1,1.014389E1,0E0,0E0,0E0,0E0,0E0,0E0,0E0,0E0,0E0,0E0,0E0,0E0,0E0,0E0,0E0],"parents":[2147483647,0,0,1,1,2,2,3,3,4,4,5,5,6,6,7,7,8,8,9,9,10,10,11,11,12,12,13,13],"right_children":[2,4,6,8,10,12,14,16,18,20,22,24,26,28,-1,-1,-1,-1,-1,-1,-1,-1,-1,-1,-1,-1,-1,-1,-1],"split_conditions":[1E0,3.5E0,6.8E0,2.9E0,4.4E0,1.0108271E1,1.4E1,1.1E1,6.59E0,6.59E0,4.88E0,3E0,4.5672756E1,6.1E0,5.288981E-2,-4.9403347E-2,-3.0436803E-2,-4.9243446E-2,-3.339429E-2,-3.826829E-2,-1.7989555E-3,-1.3485821E-2,3.5172787E-2,2.0755388E-2,4.3380998E-2,-5.5923868E-2,1.5062107E-2,3.46272E-2,5.2691776E-2],"split_indices":[6,0,54,0,0,52,37,24,2,2,2,24,9,41,0,0,0,0,0,0,0,0,0,0,0,0,0,0,0],"split_type":[0,0,0,0,0,0,0,0,0,0,0,0,0,0,0,0,0,0,0,0,0,0,0,0,0,0,0,0,0],"sum_hessian":[2.3807896E4,1.1891504E4,1.1916393E4,1.0344688E4,1.5468156E3,7.877076E3,4.0393164E3,8.247521E3,2.097167E3,1.1400869E3,4.067286E2,7.6327676E3,2.4430855E2,1.543816E2,3.8849348E3,8.1467876E3,1.0073379E2,5.532319E2,1.5439352E3,3.6081488E2,7.792721E2,7.47647E1,3.319639E2,1.854506E3,5.7782617E3,2.4210602E2,2.2025256E0,5.09707E1,1.0341091E2],"tree_param":{"num_deleted":"0","num_feature":"59","num_nodes":"29","size_leaf_vector":"1"}},{"base_weights":[-1.24059E-3,-1.3472095E0,1.3372188E0,-1.5312455E0,-1.08178996E-1,1.1440343E0,1.7163789E0,-1.5968777E0,-1.1834004E0,-4.4659472E-1,8.454738E-1,1.2261413E0,-1.873354E0,1.2766562E0,1.7195884E0,-4.8229136E-2,-3.195489E-2,-3.0004738E-2,-4.5704525E-2,-3.7265614E-2,-2.4202822E-3,-1.1771984E-2,3.390227E-2,2.0816457E-2,4.1909494E-2,-6.2904224E-2,-5.166586E-2,4.4296697E-2,-2.5012514E-3,2.2837289E-2,5.1601194E-2],"categories":[],"categories_nodes":[],"categories_segments":[],"categories_sizes":[],"default_left":[0,0,0,0,0,1,0,0,0,0,0,0,0,1,0,0,0,0,0,0,0,0,0,0,0,0,0,0,0,0,0],"id":6,"left_children":[1,3,5,7,9,11,13,15,17,19,21,23,25,27,29,-1,-1,-1,-1,-1,-1,-1,-1,-1,-1,-1,-1,-1,-1,-1,-1],"loss_changes":[4.2572582E4,2.686588E3,8.659336E2,2.323164E2,4.924942E2,1.9477256E3,3.446289E0,4.7652344E1,1.0019531E2,3.27738E2,1.412691E2,6.94209E2,3.4282837E0,9.053249E0,4.0625E-1,0E0,0E0,0E0,0E0,0E0,0E0,0E0,0E0,0E0,0E0,0E0,0E0,0E0,0E0,0E0,0E0],"parents":[2147483647,0,0,1,1,2,2,3,3,4,4,5,5,6,6,7,7,8,8,9,9,10,10,11,11,12,12,13,13,14,14],"right_children":[2,4,6,8,10,12,14,16,18,20,22,24,26,28,30,-1,-1,-1,-1,-1,-1,-1,-1,-1,-1,-1,-1,-1,-1,-1,-1],"split_conditions":[1E0,3.5E0,6.8E0,3E0,4.4E0,9.98186E0,2E0,2E0,2.6E1,6.59E0,4.88E0,3E0,1.001E3,1.5838195E1,5.921082E0,-4.8229136E-2,-3.195489E-2,-3.0004738E-2,-4.5704525E-2,-3.7265614E-2,-2.4202822E-3,-1.1771984E-2,3.390227E-2,2.0816457E-2,4.1909494E-2,-6.2904224E-2,-5.166586E-2,4.4296697E-2,-2.5012514E-3,2.2837289E-2,5.1601194E-2],"split_indices":[6,0,54,0,0,49,27,18,1,2,2,24,50,58,42,0,0,0,0,0,0,0,0,0,0,0,0,0,0,0,0],"split_type":[0,0,0,0,0,0,0,0,0,0,0,0,0,0,0,0,0,0,0,0,0,0,0,0,0,0,0,0,0,0,0],"sum_hessian":[2.3629416E4,1.1781653E4,1.1847762E4,1.0257804E4,1.5238503E3,7.851427E3,3.996335E3,8.626537E3,1.6312661E3,1.1251193E3,3.9873105E2,7.6440166E3,2.0740991E2,3.1847004E1,3.964488E3,8.453442E3,1.7309444E2,1.0626399E3,5.686263E2,3.5369946E2,7.714198E2,7.446544E1,3.242656E2,1.8585979E3,5.785419E3,7.8497536E1,1.2891238E2,2.769121E1,4.155794E0,2.6611931E0,3.961827E3],"tree_param":{"num_deleted":"0","num_feature":"59","num_nodes":"31","size_leaf_vector":"1"}},{"base_weights":[1.9865795E-3,-1.3149678E0,1.3062334E0,-1.4974715E0,-1.0235971E-1,5.8459604E-1,1.4041655E0,-1.558866E0,-1.1730374E0,-4.0820092E-1,7.6901877E-1,4.192901E-1,1.5976151E0,9.1871417E-1,1.5435969E0,-4.8028566E-2,-4.300041E-2,-3.0146448E-2,-4.4946868E-2,-1.3559904E-3,-3.444872E-2,-1.5037055E-2,3.2365106E-2,-1.4616093E-3,3.394813E-2,2.1311553E-2,4.932929E-2,3.3599555E-2,-5.0773203E-2,3.466804E-2,4.912737E-2],"categories":[],"categories_nodes":[],"categories_segments":[],"categories_sizes":[],"default_left":[0,0,1,0,0,0,0,0,0,0,0,0,0,0,0,0,0,0,0,0,0,0,0,0,0,0,0,0,0,0,0],"id":7,"left_children":[1,3,5,7,9,11,13,15,17,19,21,23,25,27,29,-1,-1,-1,-1,-1,-1,-1,-1,-1,-1,-1,-1,-1,-1,-1,-1],"loss_changes":[4.0466125E4,2.5941016E3,8.3569727E2,2.0111914E2,4.092826E2,2.3646902E2,7.0399023E2,4.295117E1,8.737329E1,3.0528467E2,1.5757727E2,4.0636737E2,7.0476074E0,1.2253044E3,2.932793E2,0E0,0E0,0E0,0E0,0E0,0E0,0E0,0E0,0E0,0E0,0E0,0E0,0E0,0E0,0E0,0E0],"parents":[2147483647,0,0,1,1,2,2,3,3,4,4,5,5,6,6,7,7,8,8,9,9,10,10,11,11,12,12,13,13,14,14],"right_children":[2,4,6,8,10,12,14,16,18,20,22,24,26,28,30,-1,-1,-1,-1,-1,-1,-1,-1,-1,-1,-1,-1,-1,-1,-1,-1],"split_conditions":[1E0,3.5E0,6.1443076E0,3E0,4.4E0,1.00731316E2,7.24E0,2.6E0,2.7E1,2.9E1,5.05E0,9E0,3.4722222E-3,1.081E3,6E0,-4.8028566E-2,-4.300041E-2,-3.0146448E-2,-4.4946868E-2,-1.3559904E-3,-3.444872E-2,-1.5037055E-2,3.2365106E-2,-1.4616093E-3,3.394813E-2,2.1311553E-2,4.932929E-2,3.3599555E-2,-5.0773203E-2,3.466804E-2,4.912737E-2],"split_indices":[6,0,42,0,0,9,2,0,1,1,2,34,8,53,24,0,0,0,0,0,0,0,0,0,0,0,0,0,0,0,0],"split_type":[0,0,0,0,0,0,0,0,0,0,0,0,0,0,0,0,0,0,0,0,0,0,0,0,0,0,0,0,0,0,0],"sum_hessian":[2.3557234E4,1.172151E4,1.1835724E4,1.0187938E4,1.5335718E3,1.4151095E3,1.0420614E4,8.563594E3,1.624345E3,1.135544E3,3.980279E2,1.2178009E3,1.9730862E2,2.3268652E3,8.0937485E3,6.4044453E3,2.1591482E3,1.0733884E3,5.509565E2,7.6257513E2,3.7296878E2,7.792355E1,3.2010434E2,7.35493E2,4.8230786E2,1.0675715E1,1.866329E2,2.1608735E3,1.6599176E2,1.5808167E3,6.512932E3],"tree_param":{"num_deleted":"0","num_feature":"59","num_nodes":"31","size_leaf_vector":"1"}},{"base_weights":[-2.279256E-3,-1.2895542E0,1.2752335E0,-1.4614455E0,-1.3737963E-1,7.126044E-1,1.4060011E0,-1.5337664E0,-1.1765183E0,-3.5122734E-1,1.161908E0,-7.369099E-2,9.79462E-1,9.070129E-1,1.540819E0,-4.6328742E-2,-3.0328764E-2,-2.9971361E-2,-4.397212E-2,-3.443534E-2,8.5998396E-4,1.7394295E-2,4.330139E-2,-4.1409038E-2,2.311986E-3,3.5184205E-2,1.0328715E-2,-1.7390776E-2,3.9058235E-2,3.521612E-2,4.8193738E-2],"categories":[],"categories_nodes":[],"categories_segments":[],"categories_sizes":[],"default_left":[0,0,0,0,0,0,0,0,0,0,0,0,0,0,0,0,0,0,0,0,0,0,0,0,0,0,0,0,0,0,0],"id":8,"left_children":[1,3,5,7,9,11,13,15,17,19,21,23,25,27,29,-1,-1,-1,-1,-1,-1,-1,-1,-1,-1,-1,-1,-1,-1,-1,-1],"loss_changes":[3.8416613E4,2.304252E3,8.616289E2,2.0683789E2,4.204256E2,4.6446362E2,6.385332E2,4.2853516E1,1.0396484E2,3.93088E2,3.4204956E1,1.10756195E2,2.0253027E2,1.19022E3,1.7846484E2,0E0,0E0,0E0,0E0,0E0,0E0,0E0,0E0,0E0,0E0,0E0,0E0,0E0,0E0,0E0,0E0],"parents":[2147483647,0,0,1,1,2,2,3,3,4,4,5,5,6,6,7,7,8,8,9,9,10,10,11,11,12,12,13,13,14,14],"right_children":[2,4,6,8,10,12,14,16,18,20,22,24,26,28,30,-1,-1,-1,-1,-1,-1,-1,-1,-1,-1,-1,-1,-1,-1,-1,-1],"split_conditions":[1E0,3.5E0,5E0,2.9E0,4.8E0,4.1E0,7.24E0,2E0,2.4E1,6.59E0,5E0,2.5E0,2.1095139E1,9E0,7E0,-4.6328742E-2,-3.0328764E-2,-2.9971361E-2,-4.397212E-2,-3.443534E-2,8.5998396E-4,1.7394295E-2,4.330139E-2,-4.1409038E-2,2.311986E-3,3.5184205E-2,1.0328715E-2,-1.7390776E-2,3.9058235E-2,3.521612E-2,4.8193738E-2],"split_indices":[6,0,27,0,0,10,2,18,1,2,0,25,8,11,24,0,0,0,0,0,0,0,0,0,0,0,0,0,0,0,0],"split_type":[0,0,0,0,0,0,0,0,0,0,0,0,0,0,0,0,0,0,0,0,0,0,0,0,0,0,0,0,0,0,0],"sum_hessian":[2.335852E4,1.1634801E4,1.1723719E4,1.0124129E4,1.5106718E3,2.2121904E3,9.511528E3,8.071115E3,2.0530134E3,1.2977987E3,2.1287297E2,5.607287E2,1.6514617E3,2.0248564E3,7.486672E3,7.9099214E3,1.6119388E2,1.2750568E3,7.779567E2,4.1840442E2,8.793943E2,7.038109E1,1.4249188E2,5.7160828E1,5.0356787E2,1.2654232E3,3.8603845E2,4.248905E2,1.599966E3,1.1388607E3,6.347811E3],"tree_param":{"num_deleted":"0","num_feature":"59","num_nodes":"31","size_leaf_vector":"1"}},{"base_weights":[3.4544717E-3,-1.2544093E0,1.2469475E0,-1.4136233E0,2.2624476E-2,1.0566893E0,1.619824E0,-1.500307E0,-1.1097921E0,-2.0813401E-1,1.1338348E0,1.1456711E0,-1.7473526E0,2.2369798E-3,1.6207525E0,-4.5257848E-2,-2.5042366E-2,-2.7660934E-2,-4.2565748E-2,9.042952E-3,-2.4426024E-2,8.801573E-3,4.075722E-2,1.7880322E-2,3.9578475E-2,1.0421395E-2,-5.311705E-2,4.3075785E-2,4.8829142E-2],"categories":[],"categories_nodes":[],"categories_segments":[],"categories_sizes":[],"default_left":[0,0,1,0,0,1,0,0,0,0,0,1,0,0,0,0,0,0,0,0,0,0,0,0,0,0,0,0,0],"id":9,"left_children":[1,3,5,7,9,11,13,15,17,19,21,23,25,-1,27,-1,-1,-1,-1,-1,-1,-1,-1,-1,-1,-1,-1,-1,-1],"loss_changes":[3.6309113E4,2.3463672E3,8.264297E2,2.6857812E2,3.2851733E2,1.93129E3,5.5341797E0,4.276172E1,1.3108594E2,3.278974E2,4.1211975E1,7.144531E2,1.2200134E1,0E0,2.678711E0,0E0,0E0,0E0,0E0,0E0,0E0,0E0,0E0,0E0,0E0,0E0,0E0,0E0,0E0],"parents":[2147483647,0,0,1,1,2,2,3,3,4,4,5,5,6,6,7,7,8,8,9,9,10,10,11,11,12,12,14,14],"right_children":[2,4,6,8,10,12,14,16,18,20,22,24,26,-1,28,-1,-1,-1,-1,-1,-1,-1,-1,-1,-1,-1,-1,-1,-1],"split_conditions":[1E0,3.6E0,6.8E0,2.9E0,4.8E0,1.0108271E1,5.7120256E0,1.1E1,2.4E1,2.1E1,2E0,6.042765E0,5.4354405E0,2.2369798E-3,1.4E1,-4.5257848E-2,-2.5042366E-2,-2.7660934E-2,-4.2565748E-2,9.042952E-3,-2.4426024E-2,8.801573E-3,4.075722E-2,1.7880322E-2,3.9578475E-2,1.0421395E-2,-5.311705E-2,4.3075785E-2,4.8829142E-2],"split_indices":[6,0,54,0,0,52,42,24,1,1,40,39,36,0,37,0,0,0,0,0,0,0,0,0,0,0,0,0,0],"split_type":[0,0,0,0,0,0,0,0,0,0,0,0,0,0,0,0,0,0,0,0,0,0,0,0,0,0,0,0,0],"sum_hessian":[2.3211396E4,1.1539017E4,1.167238E4,1.0259774E4,1.2792424E3,7.7313403E3,3.9410393E3,7.979319E3,2.2804556E3,1.059943E3,2.192994E2,7.4941177E3,2.3722267E2,2.4152699E0,3.938624E3,7.8799253E3,9.939341E1,1.4211033E3,8.5935223E2,5.7608655E2,4.8385645E2,4.6755398E1,1.7254399E2,1.7999231E3,5.6941943E3,2.4472582E0,2.347754E2,1.4893704E2,3.789687E3],"tree_param":{"num_deleted":"0","num_feature":"59","num_nodes":"29","size_leaf_vector":"1"}},{"base_weights":[-2.7969165E-3,1.214403E0,-1.22433E0,6.588772E-1,1.3435467E0,-1.3827428E0,2.190339E-2,-3.4330797E-1,8.44448E-1,8.480922E-1,1.4803573E0,-1.4620068E0,-1.0233271E0,-9.8555136E-1,2.9292598E-1,-2.0221747E-2,1.4444911E-2,7.97015E-3,2.9601105E-2,3.1641982E-2,-4.8920035E-2,3.4968432E-2,4.6556402E-2,-4.5188915E-2,-3.995913E-2,-4.2819243E-2,-2.5892163E-2,-4.1180592E-2,1.8324222E-2,-4.3573068E-3,2.7958019E-2],"categories":[],"categories_nodes":[],"categories_segments":[],"categories_sizes":[],"default_left":[0,0,0,0,0,0,0,0,0,0,0,0,0,0,0,0,0,0,0,0,0,0,0,0,0,0,0,0,0,0,0],"id":10,"left_children":[1,3,5,7,9,11,13,15,17,19,21,23,25,27,29,-1,-1,-1,-1,-1,-1,-1,-1,-1,-1,-1,-1,-1,-1,-1,-1],"loss_changes":[3.4124855E4,8.238633E2,2.261502E3,4.039237E2,6.309336E2,2.8804102E2,3.532983E2,9.302321E1,1.5053723E2,1.0366171E3,1.626836E2,4.59375E1,1.17871216E2,1.7035959E2,2.856083E2,0E0,0E0,0E0,0E0,0E0,0E0,0E0,0E0,0E0,0E0,0E0,0E0,0E0,0E0,0E0,0E0],"parents":[2147483647,0,0,1,1,2,2,3,3,4,4,5,5,6,6,7,7,8,8,9,9,10,10,11,11,12,12,13,13,14,14],"right_children":[2,4,6,8,10,12,14,16,18,20,22,24,26,28,30,-1,-1,-1,-1,-1,-1,-1,-1,-1,-1,-1,-1,-1,-1,-1,-1],"split_conditions":[3.4400853E-6,5E0,3.6E0,3.5E0,2.02E3,3E0,5.34E0,3.1E0,3.9303524E0,1.001E3,1E1,2.6E0,6.64E0,4.8E0,4.2E0,-2.0221747E-2,1.4444911E-2,7.97015E-3,2.9601105E-2,3.1641982E-2,-4.8920035E-2,3.4968432E-2,4.6556402E-2,-4.5188915E-2,-3.995913E-2,-4.2819243E-2,-2.5892163E-2,-4.1180592E-2,1.8324222E-2,-4.3573068E-3,2.7958019E-2],"split_indices":[4,27,0,10,12,0,2,0,9,50,27,0,2,0,0,0,0,0,0,0,0,0,0,0,0,0,0,0,0,0,0],"split_type":[0,0,0,0,0,0,0,0,0,0,0,0,0,0,0,0,0,0,0,0,0,0,0,0,0,0,0,0,0,0,0],"sum_hessian":[2.294911E4,1.1494945E4,1.1454164E4,2.1693508E3,9.325595E3,1.0162292E4,1.291872E3,3.3879883E2,1.8305519E3,2.0194457E3,7.306149E3,8.323576E3,1.8387158E3,2.733032E2,1.0185687E3,2.4195616E2,9.684267E1,3.6172336E2,1.4688285E3,1.8645804E3,1.5486528E2,1.3560441E3,5.950105E3,6.200939E3,2.1226372E3,5.1998895E2,1.3187268E3,2.200731E2,5.3230087E1,6.046982E2,4.138705E2],"tree_param":{"num_deleted":"0","num_feature":"59","num_nodes":"31","size_leaf_vector":"1"}},{"base_weights":[1.1802008E-3,-1.2018914E0,1.1944675E0,-1.3562963E0,1.8561104E-2,6.2181336E-1,1.3139272E0,-1.4447508E0,-1.0499268E0,-9.470937E-1,2.8118163E-1,-2.91021E-1,8.85367E-1,8.420802E-1,1.4444443E0,-4.4678982E-2,-4.0258367E-2,-2.5540173E-2,-4.136496E-2,-3.777696E-2,2.4291636E-2,-4.122863E-3,2.7302705E-2,-1.285158E-2,3.5888653E-2,1.0774235E-2,3.5454717E-2,3.0968098E-2,-4.7981564E-2,3.367041E-2,4.6001192E-2],"categories":[],"categories_nodes":[],"categories_segments":[],"categories_sizes":[],"default_left":[0,0,0,0,0,0,0,0,0,0,0,0,0,0,0,0,0,0,0,0,0,0,0,0,0,0,0,0,0,0,0],"id":11,"left_children":[1,3,5,7,9,11,13,15,17,19,21,23,25,27,29,-1,-1,-1,-1,-1,-1,-1,-1,-1,-1,-1,-1,-1,-1,-1,-1],"loss_changes":[3.2594129E4,2.1305068E3,7.789326E2,2.7045508E2,3.2251202E2,4.740257E2,5.795283E2,3.3655273E1,1.4592358E2,1.5013014E2,2.633308E2,9.080272E1,2.3799976E2,9.515375E2,2.0982617E2,0E0,0E0,0E0,0E0,0E0,0E0,0E0,0E0,0E0,0E0,0E0,0E0,0E0,0E0,0E0,0E0],"parents":[2147483647,0,0,1,1,2,2,3,3,4,4,5,5,6,6,7,7,8,8,9,9,10,10,11,11,12,12,13,13,14,14],"right_children":[2,4,6,8,10,12,14,16,18,20,22,24,26,28,30,-1,-1,-1,-1,-1,-1,-1,-1,-1,-1,-1,-1,-1,-1,-1,-1],"split_conditions":[1E0,3.6E0,3E0,2.9E0,5.34E0,4E0,2.02E3,2.5E0,2.4E1,4.9E0,4.2E0,3.9E0,8.462447E0,1.001E3,5.2E0,-4.4678982E-2,-4.0258367E-2,-2.5540173E-2,-4.136496E-2,-3.777696E-2,2.4291636E-2,-4.122863E-3,2.7302705E-2,-1.285158E-2,3.5888653E-2,1.0774235E-2,3.5454717E-2,3.0968098E-2,-4.7981564E-2,3.367041E-2,4.6001192E-2],"split_indices":[6,0,24,0,2,10,12,0,1,0,0,0,9,50,54,0,0,0,0,0,0,0,0,0,0,0,0,0,0,0,0],"split_type":[0,0,0,0,0,0,0,0,0,0,0,0,0,0,0,0,0,0,0,0,0,0,0,0,0,0,0,0,0,0,0],"sum_hessian":[2.2702023E4,1.1304662E4,1.1397361E4,1.0034981E4,1.269681E3,1.968268E3,9.429094E3,7.78391E3,2.2510708E3,2.7091632E2,9.987648E2,4.409401E2,1.5273278E3,2.0446622E3,7.384431E3,5.4212314E3,2.3626787E3,1.4058376E3,8.452332E2,2.302843E2,4.0632027E1,6.0010675E2,3.9865802E2,4.0431073E2,3.6629375E1,5.5117554E2,9.761522E2,1.8974299E3,1.4723228E2,1.6006268E3,5.783804E3],"tree_param":{"num_deleted":"0","num_feature":"59","num_nodes":"31","size_leaf_vector":"1"}},{"base_weights":[-1.3699421E-3,-1.1782446E0,1.169952E0,-9.832416E-1,-1.3226078E0,9.8446244E-1,1.5405046E0,-1.0708612E0,-7.1749145E-1,-1.3367685E0,-9.7201943E-1,1.0871214E0,-1.3033799E0,5.2592236E-1,1.5418911E0,-2.5957782E-2,-3.3783004E-2,-2.4128318E-2,-9.487305E-3,-4.015212E-2,7.5133904E-3,-3.681779E-2,-2.1097925E-2,1.7745355E-2,3.8343363E-2,-5.392808E-2,4.516141E-2,3.828514E-2,-2.0987477E-2,1.3392E-2,4.6277866E-2],"categories":[],"categories_nodes":[],"categories_segments":[],"categories_sizes":[],"default_left":[0,0,0,1,1,1,0,0,1,0,1,1,0,0,0,0,0,0,0,0,0,0,0,0,0,0,0,0,0,0,0],"id":12,"left_children":[1,3,5,7,9,11,13,15,17,19,21,23,25,27,29,-1,-1,-1,-1,-1,-1,-1,-1,-1,-1,-1,-1,-1,-1,-1,-1],"loss_changes":[3.1086855E4,3.153711E2,7.7533105E2,1.1074512E2,3.0776367E1,1.7710806E3,4.491211E0,3.9907227E1,4.120227E1,1.6450195E1,1.6594559E1,6.8188086E2,4.5250964E2,7.0168886E0,2.2148438E0,0E0,0E0,0E0,0E0,0E0,0E0,0E0,0E0,0E0,0E0,0E0,0E0,0E0,0E0,0E0,0E0],"parents":[2147483647,0,0,1,1,2,2,3,3,4,4,5,5,6,6,7,7,8,8,9,9,10,10,11,11,12,12,13,13,14,14],"right_children":[2,4,6,8,10,12,14,16,18,20,22,24,26,28,30,-1,-1,-1,-1,-1,-1,-1,-1,-1,-1,-1,-1,-1,-1,-1,-1],"split_conditions":[1E0,1.9E1,6.8E0,4.401497E0,4.871082E0,9.91008E0,5.9494205E0,1.978193E1,5.256845E0,3.16E2,4.1473227E0,6.633448E0,7.24E0,1.3E1,1.16E2,-2.5957782E-2,-3.3783004E-2,-2.4128318E-2,-9.487305E-3,-4.015212E-2,7.5133904E-3,-3.681779E-2,-2.1097925E-2,1.7745355E-2,3.8343363E-2,-5.392808E-2,4.516141E-2,3.828514E-2,-2.0987477E-2,1.3392E-2,4.6277866E-2],"split_indices":[6,1,54,46,33,52,42,9,33,37,26,42,2,14,30,0,0,0,0,0,0,0,0,0,0,0,0,0,0,0,0],"split_type":[0,0,0,0,0,0,0,0,0,0,0,0,0,0,0,0,0,0,0,0,0,0,0,0,0,0,0,0,0,0,0],"sum_hessian":[2.2549234E4,1.1247954E4,1.1301281E4,4.788096E3,6.4598574E3,7.5337334E3,3.7675479E3,3.5985886E3,1.1895076E3,6.2063623E3,2.5349529E2,7.210703E3,3.2303015E2,5.6607313E0,3.761887E3,7.656115E2,2.832977E3,9.771546E2,2.1235303E2,6.20013E3,6.2324533E0,1.2818753E2,1.2530776E2,2.0069331E3,5.20377E3,2.7500153E2,4.8028618E1,3.4855494E0,2.1751819E0,2.825364E0,3.7590618E3],"tree_param":{"num_deleted":"0","num_feature":"59","num_nodes":"31","size_leaf_vector":"1"}},{"base_weights":[-2.2870908E-4,1.140972E0,-1.1535826E0,9.5755327E-1,1.5156624E0,-1.3238524E0,-7.255422E-2,1.0301534E0,-1.7384534E0,5.119426E-1,1.5173124E0,-1.4230134E0,-1.1047771E0,-3.624573E-1,7.455125E-1,1.5753906E-2,3.5995547E-2,-6.1474714E-2,-4.5931153E-2,-2.453574E-2,3.8939755E-2,1.3122142E-2,4.5540664E-2,-4.292823E-2,-2.3289565E-2,-2.62032E-2,-3.8334835E-2,-3.0899845E-2,-2.5368333E-4,-1.2499209E-2,3.0322215E-2],"categories":[],"categories_nodes":[],"categories_segments":[],"categories_sizes":[],"default_left":[0,0,0,1,0,0,0,0,0,0,0,0,0,0,0,0,0,0,0,0,0,0,0,0,0,0,0,0,0,0,0],"id":13,"left_children":[1,3,5,7,9,11,13,15,17,19,21,23,25,27,29,-1,-1,-1,-1,-1,-1,-1,-1,-1,-1,-1,-1,-1,-1,-1,-1],"loss_changes":[2.9336998E4,7.6851465E2,2.0403682E3,1.474522E3,5.3183594E0,2.0647656E2,3.5826556E2,6.273574E2,9.60199E0,8.952752E0,2.1513672E0,3.26709E1,1.1852734E2,2.635268E2,1.222648E2,0E0,0E0,0E0,0E0,0E0,0E0,0E0,0E0,0E0,0E0,0E0,0E0,0E0,0E0,0E0,0E0],"parents":[2147483647,0,0,1,1,2,2,3,3,4,4,5,5,6,6,7,7,8,8,9,9,10,10,11,11,12,12,13,13,14,14],"right_children":[2,4,6,8,10,12,14,16,18,20,22,24,26,28,30,-1,-1,-1,-1,-1,-1,-1,-1,-1,-1,-1,-1,-1,-1,-1,-1],"split_conditions":[3.4400853E-6,6.8E0,3.5E0,9.98186E0,5.9494205E0,2.7E0,4.4E0,3E0,1.726E3,6.19E0,1.16E2,1.1E1,1.5E1,7.1E0,4.88E0,1.5753906E-2,3.5995547E-2,-6.1474714E-2,-4.5931153E-2,-2.453574E-2,3.8939755E-2,1.3122142E-2,4.5540664E-2,-4.292823E-2,-2.3289565E-2,-2.62032E-2,-3.8334835E-2,-3.0899845E-2,-2.5368333E-4,-1.2499209E-2,3.0322215E-2],"split_indices":[4,54,0,49,42,0,0,24,43,2,30,24,1,2,2,0,0,0,0,0,0,0,0,0,0,0,0,0,0,0,0],"split_type":[0,0,0,0,0,0,0,0,0,0,0,0,0,0,0,0,0,0,0,0,0,0,0,0,0,0,0,0,0,0,0],"sum_hessian":[2.2287025E4,1.120254E4,1.1084485E4,7.523289E3,3.6792507E3,9.575976E3,1.5085095E3,7.3266104E3,1.9667851E2,6.549282E0,3.6727014E3,6.5883604E3,2.9876152E3,1.1142155E3,3.9429407E2,1.8437357E3,5.4828745E3,7.51803E1,1.21498215E2,2.4180586E0,4.1312237E0,2.8176463E0,3.6698838E3,6.507376E3,8.098427E1,1.2810859E3,1.7065293E3,3.8545538E2,7.2876E2,7.3159485E1,3.2113458E2],"tree_param":{"num_deleted":"0","num_feature":"59","num_nodes":"31","size_leaf_vector":"1"}},{"base_weights":[4.869278E-3,-1.1256828E0,1.1254553E0,-1.2828052E0,7.195906E-2,6.46069E-1,1.2672951E0,-1.3625355E0,-9.2884827E-1,-9.1402286E-1,3.2824248E-1,-7.007499E-2,8.9294064E-1,7.5488365E-1,1.4049245E0,-4.2319514E-2,-3.6667082E-2,-2.178422E-2,-3.7473734E-2,-3.8131196E-2,1.7384699E-2,-2.827837E-3,2.8035603E-2,-1.2040644E-2,1.2320073E-2,2.8967371E-2,-1.6706308E-2,4.186039E-2,-4.7682347E-3,3.3015866E-2,4.4141E-2],"categories":[],"categories_nodes":[],"categories_segments":[],"categories_sizes":[],"default_left":[0,0,0,0,0,0,0,0,0,0,0,1,0,0,0,0,0,0,0,0,0,0,0,0,0,0,0,0,0,0,0],"id":14,"left_children":[1,3,5,7,9,11,13,15,17,19,21,23,25,27,29,-1,-1,-1,-1,-1,-1,-1,-1,-1,-1,-1,-1,-1,-1,-1,-1],"loss_changes":[2.8079525E4,2.0762578E3,7.5606055E2,2.739912E2,3.2388025E2,4.4975024E2,6.0463574E2,5.1998047E1,1.1571069E2,1.4174034E2,2.6062155E2,1.0415765E2,1.997439E2,1.0657599E3,1.352832E2,0E0,0E0,0E0,0E0,0E0,0E0,0E0,0E0,0E0,0E0,0E0,0E0,0E0,0E0,0E0,0E0],"parents":[2147483647,0,0,1,1,2,2,3,3,4,4,5,5,6,6,7,7,8,8,9,9,10,10,11,11,12,12,13,13,14,14],"right_children":[2,4,6,8,10,12,14,16,18,20,22,24,26,28,30,-1,-1,-1,-1,-1,-1,-1,-1,-1,-1,-1,-1,-1,-1,-1,-1],"split_conditions":[1E0,3.6E0,6E0,3E0,5.34E0,4.1E0,7.24E0,2.6E0,2.3E1,4.8E0,4.2E0,5.413521E0,1.9179167E2,6.69E0,5.2E0,-4.2319514E-2,-3.6667082E-2,-2.178422E-2,-3.7473734E-2,-3.8131196E-2,1.7384699E-2,-2.827837E-3,2.8035603E-2,-1.2040644E-2,1.2320073E-2,2.8967371E-2,-1.6706308E-2,4.186039E-2,-4.7682347E-3,3.3015866E-2,4.4141E-2],"split_indices":[6,0,27,0,2,10,2,0,1,0,0,36,8,2,54,0,0,0,0,0,0,0,0,0,0,0,0,0,0,0,0],"split_type":[0,0,0,0,0,0,0,0,0,0,0,0,0,0,0,0,0,0,0,0,0,0,0,0,0,0,0,0,0,0,0],"sum_hessian":[2.2162299E4,1.1032089E4,1.113021E4,9.752551E3,1.2795383E3,2.5425447E3,8.587665E3,7.957288E3,1.795263E3,2.6344348E2,1.0160948E3,6.5197186E2,1.8905729E3,1.8195905E3,6.7680747E3,5.918509E3,2.038779E3,1.1014233E3,6.938397E2,2.1273836E2,5.0705112E1,5.9929895E2,4.1679587E2,3.8608594E2,2.6588593E2,1.8006892E3,8.9883705E1,1.0694967E3,7.500938E2,1.215767E3,5.5523076E3],"tree_param":{"num_deleted":"0","num_feature":"59","num_nodes":"31","size_leaf_vector":"1"}},{"base_weights":[-3.4185703E-4,-1.1068187E0,1.1024222E0,-1.2401649E0,2.7265337E-1,9.2107105E-1,1.4727001E0,-1.3411269E0,-8.620266E-1,-7.331004E-1,5.54599E-1,1.0212458E0,-1.2524896E0,1.2967353E0,4.436737E-2,-4.149961E-2,-3.6565162E-2,-2.0594465E-2,-3.8066868E-2,-3.6073484E-2,1.9070735E-2,1.1014854E-2,4.1737318E-2,1.9421402E-2,3.7861574E-2,-5.2106168E-2,4.3305922E-2,-1.4614646E-2,4.029123E-2],"categories":[],"categories_nodes":[],"categories_segments":[],"categories_sizes":[],"default_left":[0,0,0,0,0,1,0,0,0,0,0,0,0,0,0,0,0,0,0,0,0,0,0,0,0,0,0,0,0],"id":15,"left_children":[1,3,5,7,9,11,13,15,17,19,21,23,25,27,-1,-1,-1,-1,-1,-1,-1,-1,-1,-1,-1,-1,-1,-1,-1],"loss_changes":[2.6696525E4,2.0092598E3,7.3447363E2,3.7904297E2,2.7361237E2,1.6034077E3,2.0180664E0,3.886133E1,1.4922021E2,1.3656534E2,1.1758525E2,6.324946E2,4.2644193E2,1.1467743E1,0E0,0E0,0E0,0E0,0E0,0E0,0E0,0E0,0E0,0E0,0E0,0E0,0E0,0E0,0E0],"parents":[2147483647,0,0,1,1,2,2,3,3,4,4,5,5,6,6,7,7,8,8,9,9,10,10,11,11,12,12,13,13],"right_children":[2,4,6,8,10,12,14,16,18,20,22,24,26,28,-1,-1,-1,-1,-1,-1,-1,-1,-1,-1,-1,-1,-1,-1,-1],"split_conditions":[1E0,3.8E0,6.8E0,3E0,5.34E0,9.91008E0,3E0,2.6E0,2.9E1,4.8E0,4.9E0,5E0,7.24E0,4.4E0,4.436737E-2,-4.149961E-2,-3.6565162E-2,-2.0594465E-2,-3.8066868E-2,-3.6073484E-2,1.9070735E-2,1.1014854E-2,4.1737318E-2,1.9421402E-2,3.7861574E-2,-5.2106168E-2,4.3305922E-2,-1.4614646E-2,4.029123E-2],"split_indices":[6,0,54,0,2,52,24,0,1,0,0,24,2,10,0,0,0,0,0,0,0,0,0,0,0,0,0,0,0],"split_type":[0,0,0,0,0,0,0,0,0,0,0,0,0,0,0,0,0,0,0,0,0,0,0,0,0,0,0,0,0],"sum_hessian":[2.187712E4,1.0920175E4,1.0956944E4,9.957716E3,9.6245825E2,7.3571284E3,3.5998157E3,7.8572905E3,2.1004258E3,2.1038274E2,7.520755E2,7.0334995E3,3.2362888E2,1.2990656E2,3.4699092E3,5.834037E3,2.0232534E3,1.4692167E3,6.312091E2,1.567543E2,5.3628433E1,6.1559906E2,1.3647646E2,2.756919E3,4.2765806E3,2.7464102E2,4.898785E1,3.0458922E0,1.26860664E2],"tree_param":{"num_deleted":"0","num_feature":"59","num_nodes":"29","size_leaf_vector":"1"}},{"base_weights":[5.4522157E-3,-1.0860857E0,1.0823871E0,-8.968714E-1,-1.2272801E0,9.051782E-1,1.4507921E0,-6.6761774E-1,-1.0305921E0,-1.2420328E0,-8.644845E-1,9.993076E-1,-9.698298E-1,1.0600119E0,1.4553286E0,-1.7015135E-2,-3.330632E-2,-3.2046173E-2,-2.3233507E-2,-3.7349675E-2,1.1578241E-2,3.2978216E-3,-2.8456338E-2,1.5104994E-2,3.5377886E-2,-5.1209927E-2,4.1092996E-2,-6.6603846E-3,3.5468232E-2,2.4795609E-2,4.3689664E-2],"categories":[],"categories_nodes":[],"categories_segments":[],"categories_sizes":[],"default_left":[0,0,1,0,1,1,0,0,1,0,0,1,0,0,0,0,0,0,0,0,0,0,0,0,0,0,0,0,0,0,0],"id":16,"left_children":[1,3,5,7,9,11,13,15,17,19,21,23,25,27,29,-1,-1,-1,-1,-1,-1,-1,-1,-1,-1,-1,-1,-1,-1,-1,-1],"loss_changes":[2.5460012E4,2.862666E2,7.104346E2,1.403374E2,3.1879883E1,1.3006606E3,4.7319336E0,7.4839966E1,2.7148193E1,2.894629E1,2.0080124E1,6.250796E2,6.1032495E2,7.2057E0,9.7998047E-1,0E0,0E0,0E0,0E0,0E0,0E0,0E0,0E0,0E0,0E0,0E0,0E0,0E0,0E0,0E0,0E0],"parents":[2147483647,0,0,1,1,2,2,3,3,4,4,5,5,6,6,7,7,8,8,9,9,10,10,11,11,12,12,13,13,14,14],"right_children":[2,4,6,8,10,12,14,16,18,20,22,24,26,28,30,-1,-1,-1,-1,-1,-1,-1,-1,-1,-1,-1,-1,-1,-1,-1,-1],"split_conditions":[1E0,1.9E1,6.8E0,2.8175333E1,4.871082E0,9.910198E0,3E0,2.4E1,4.4251776E0,3.78E2,1.2007E2,6.1503096E0,7.33E0,5.1556377E0,4.388971E0,-1.7015135E-2,-3.330632E-2,-3.2046173E-2,-2.3233507E-2,-3.7349675E-2,1.1578241E-2,3.2978216E-3,-2.8456338E-2,1.5104994E-2,3.5377886E-2,-5.1209927E-2,4.1092996E-2,-6.6603846E-3,3.5468232E-2,2.4795609E-2,4.3689664E-2],"split_indices":[6,1,54,9,33,55,27,11,46,40,3,39,2,39,39,0,0,0,0,0,0,0,0,0,0,0,0,0,0,0,0],"split_type":[0,0,0,0,0,0,0,0,0,0,0,0,0,0,0,0,0,0,0,0,0,0,0,0,0,0,0,0,0,0,0],"sum_hessian":[2.16566E4,1.0755375E4,1.0901224E4,4.5992666E3,6.156109E3,7.3629697E3,3.5382542E3,1.6965897E3,2.9026768E3,5.913231E3,2.428779E2,7.0114473E3,3.5152243E2,4.3296646E1,3.4949575E3,1.3846292E3,3.119606E2,2.5282402E3,3.7443646E2,5.902747E3,1.0484095E1,1.9264074E1,2.2361383E2,1.8681558E3,5.1432915E3,2.675061E2,8.401633E1,3.6985393E0,3.9598106E1,6.827633E0,3.48813E3],"tree_param":{"num_deleted":"0","num_feature":"59","num_nodes":"31","size_leaf_vector":"1"}},{"base_weights":[3.7524465E-3,-1.0604193E0,1.0615754E0,-1.233566E0,3.953189E-3,6.3786024E-1,1.216804E0,-1.3352917E0,-1.0128449E0,-3.333162E-1,6.116507E-1,3.489663E-1,1.087238E0,7.3403263E-1,1.3584206E0,-4.0411763E-2,-2.3661086E-2,-2.584898E-2,-3.784999E-2,3.106146E-3,-2.461962E-2,-1.4464253E-2,2.5855245E-2,4.7392063E-3,4.0936556E-2,3.4955338E-2,-4.359141E-2,3.7563115E-2,-8.393929E-3,3.269622E-2,4.254243E-2],"categories":[],"categories_nodes":[],"categories_segments":[],"categories_sizes":[],"default_left":[0,0,1,0,0,0,0,0,0,0,0,0,0,0,0,0,0,0,0,0,0,0,0,0,0,0,0,0,0,0,0],"id":17,"left_children":[1,3,5,7,9,11,13,15,17,19,21,23,25,27,29,-1,-1,-1,-1,-1,-1,-1,-1,-1,-1,-1,-1,-1,-1,-1,-1],"loss_changes":[2.4078113E4,1.9650586E3,7.047471E2,2.0456055E2,3.0617712E2,3.7327295E2,5.3566016E2,3.929297E1,1.0792529E2,2.0461137E2,1.4632144E2,3.3988824E2,2.2458813E2,9.3658905E2,9.567285E1,0E0,0E0,0E0,0E0,0E0,0E0,0E0,0E0,0E0,0E0,0E0,0E0,0E0,0E0,0E0,0E0],"parents":[2147483647,0,0,1,1,2,2,3,3,4,4,5,5,6,6,7,7,8,8,9,9,10,10,11,11,12,12,13,13,14,14],"right_children":[2,4,6,8,10,12,14,16,18,20,22,24,26,28,30,-1,-1,-1,-1,-1,-1,-1,-1,-1,-1,-1,-1,-1,-1,-1,-1],"split_conditions":[1E0,3.5E0,7.1393256E0,2.7E0,4.2E0,1.2E1,7.24E0,2E0,2.4E1,1.8E1,4.88E0,1.00731316E2,1.482E3,6.71E0,8.124962E0,-4.0411763E-2,-2.3661086E-2,-2.584898E-2,-3.784999E-2,3.106146E-3,-2.461962E-2,-1.4464253E-2,2.5855245E-2,4.7392063E-3,4.0936556E-2,3.4955338E-2,-4.359141E-2,3.7563115E-2,-8.393929E-3,3.269622E-2,4.254243E-2],"split_indices":[6,0,42,0,0,34,2,18,1,1,2,9,53,2,55,0,0,0,0,0,0,0,0,0,0,0,0,0,0,0,0],"split_type":[0,0,0,0,0,0,0,0,0,0,0,0,0,0,0,0,0,0,0,0,0,0,0,0,0,0,0,0,0,0,0],"sum_hessian":[2.138736E4,1.0661684E4,1.0725675E4,9.169824E3,1.4918597E3,2.8771792E3,7.8484956E3,6.273466E3,2.896358E3,9.596885E2,5.3217126E2,1.7523883E3,1.124791E3,1.7815094E3,6.0669863E3,6.1398228E3,1.336435E2,1.8043141E3,1.092044E3,5.0647073E2,4.5321777E2,9.8894394E1,4.3327692E2,1.4759703E3,2.7641794E2,1.0918331E3,3.295787E1,1.1788682E3,6.0264136E2,1.1063389E3,4.9606475E3],"tree_param":{"num_deleted":"0","num_feature":"59","num_nodes":"31","size_leaf_vector":"1"}},{"base_weights":[-2.0865565E-3,-1.0453448E0,1.0401543E0,-1.0751538E0,-5.453754E-1,8.605028E-1,1.414075E0,-9.6319574E-1,-1.115238E0,-6.3803416E-1,1.4436626E-1,9.5317686E-1,-1.2236563E0,1.0621074E0,1.4183531E0,-3.3304643E-2,-2.7523495E-2,-3.3958323E-2,-2.8901521E-2,-2.6833463E-2,-1.3755844E-2,2.1373065E-2,-8.966728E-3,1.7295953E-2,3.598762E-2,-4.995777E-2,4.13462E-2,-1.2137673E-2,3.5028428E-2,4.257156E-2,2.623029E-2],"categories":[],"categories_nodes":[],"categories_segments":[],"categories_sizes":[],"default_left":[0,1,0,0,0,1,0,0,1,0,0,0,0,0,0,0,0,0,0,0,0,0,0,0,0,0,0,0,0,0,0],"id":18,"left_children":[1,3,5,7,9,11,13,15,17,19,21,23,25,27,29,-1,-1,-1,-1,-1,-1,-1,-1,-1,-1,-1,-1,-1,-1,-1,-1],"loss_changes":[2.3019857E4,1.5709863E2,7.102178E2,4.373242E1,3.8269394E1,1.3833745E3,3.666504E0,1.6726074E1,1.7543945E1,2.3837158E1,1.8231676E1,6.35251E2,3.5285123E2,7.4726295E0,4.8828125E-2,0E0,0E0,0E0,0E0,0E0,0E0,0E0,0E0,0E0,0E0,0E0,0E0,0E0,0E0,0E0,0E0],"parents":[2147483647,0,0,1,1,2,2,3,3,4,4,5,5,6,6,7,7,8,8,9,9,10,10,11,11,12,12,13,13,14,14],"right_children":[2,4,6,8,10,12,14,16,18,20,22,24,26,28,30,-1,-1,-1,-1,-1,-1,-1,-1,-1,-1,-1,-1,-1,-1,-1,-1],"split_conditions":[1E0,3.2E0,6.8E0,2.1553038E1,9E0,9.91008E0,3E0,1.208E2,4.537078E0,9E0,2.7972221E0,5E0,7.24E0,5.1556377E0,3.1034721E1,-3.3304643E-2,-2.7523495E-2,-3.3958323E-2,-2.8901521E-2,-2.6833463E-2,-1.3755844E-2,2.1373065E-2,-8.966728E-3,1.7295953E-2,3.598762E-2,-4.995777E-2,4.13462E-2,-1.2137673E-2,3.5028428E-2,4.257156E-2,2.623029E-2],"split_indices":[6,32,54,9,24,52,27,3,46,15,58,24,2,39,8,0,0,0,0,0,0,0,0,0,0,0,0,0,0,0,0],"split_type":[0,0,0,0,0,0,0,0,0,0,0,0,0,0,0,0,0,0,0,0,0,0,0,0,0,0,0,0,0,0,0],"sum_hessian":[2.1169062E4,1.0579367E4,1.0589696E4,9.983013E3,5.963545E2,7.155237E3,3.4344592E3,2.638501E3,7.344511E3,5.2579504E2,7.055949E1,6.8511377E3,3.0409943E2,4.4236736E1,3.3902227E3,6.208254E2,2.0176757E3,6.610772E3,7.337394E2,2.1487497E2,3.1092007E2,3.0659557E1,3.989993E1,2.7108582E3,4.1402793E3,2.6028275E2,4.3816673E1,2.7783904E0,4.1458344E1,3.3842659E3,5.9567823E0],"tree_param":{"num_deleted":"0","num_feature":"59","num_nodes":"31","size_leaf_vector":"1"}},{"base_weights":[3.0736865E-3,-1.0228008E0,1.0221012E0,-1.1830049E0,1.3386443E-1,8.444519E-1,1.3952066E0,-1.2645588E0,-8.3084387E-1,-8.2885504E-1,3.7598002E-1,9.218369E-1,-1.5459051E0,-1.2434495E-3,1.3962139E0,-3.8210537E-2,-1.6132923E-2,-3.7080903E-2,-2.0360926E-2,-3.154483E-2,3.1832166E-2,-3.4742944E-3,2.3260906E-2,1.2821995E-2,3.2674637E-2,-4.7091622E-2,1.3713748E-2,3.0665312E-2,4.2012487E-2],"categories":[],"categories_nodes":[],"categories_segments":[],"categories_sizes":[],"default_left":[0,0,0,0,0,1,0,0,0,0,0,1,0,0,0,0,0,0,0,0,0,0,0,0,0,0,0,0,0],"id":19,"left_children":[1,3,5,7,9,11,13,15,17,19,21,23,25,-1,27,-1,-1,-1,-1,-1,-1,-1,-1,-1,-1,-1,-1,-1,-1],"loss_changes":[2.1837285E4,1.9290732E3,6.934219E2,2.615459E2,2.957E2,1.3151011E3,4.9472656E0,4.8541992E1,1.05329346E2,1.08402176E2,1.9911484E2,5.6868066E2,1.135907E1,0E0,3.8754883E0,0E0,0E0,0E0,0E0,0E0,0E0,0E0,0E0,0E0,0E0,0E0,0E0,0E0,0E0],"parents":[2147483647,0,0,1,1,2,2,3,3,4,4,5,5,6,6,7,7,8,8,9,9,10,10,11,11,12,12,14,14],"right_children":[2,4,6,8,10,12,14,16,18,20,22,24,26,-1,28,-1,-1,-1,-1,-1,-1,-1,-1,-1,-1,-1,-1,-1,-1],"split_conditions":[1E0,3.6E0,6.8E0,3E0,5.34E0,1.0108271E1,5.7120256E0,1.1E1,6.61E0,5E0,4E0,6.076789E0,4.5672756E1,-1.2434495E-3,3E0,-3.8210537E-2,-1.6132923E-2,-3.7080903E-2,-2.0360926E-2,-3.154483E-2,3.1832166E-2,-3.4742944E-3,2.3260906E-2,1.2821995E-2,3.2674637E-2,-4.7091622E-2,1.3713748E-2,3.0665312E-2,4.2012487E-2],"split_indices":[6,0,54,0,2,52,42,24,2,0,0,39,9,0,27,0,0,0,0,0,0,0,0,0,0,0,0,0,0],"split_type":[0,0,0,0,0,0,0,0,0,0,0,0,0,0,0,0,0,0,0,0,0,0,0,0,0,0,0,0,0],"sum_hessian":[2.0887043E4,1.0408551E4,1.0478491E4,9.142276E3,1.266275E3,7.100802E3,3.37769E3,7.421096E3,1.7211798E3,2.5397516E2,1.01229987E3,6.878725E3,2.2207631E2,2.3385348E0,3.3753513E3,7.328327E3,9.2769066E1,4.6792053E2,1.2532593E3,2.2760608E2,2.6369078E1,4.5398517E2,5.583147E2,1.7401122E3,5.1386133E3,2.1968066E2,2.3956358E0,4.0214485E1,3.335137E3],"tree_param":{"num_deleted":"0","num_feature":"59","num_nodes":"29","size_leaf_vector":"1"}},{"base_weights":[-3.6167144E-3,-1.0085206E0,9.990183E-1,-1.1948274E0,-6.5723285E-2,5.2161926E-1,1.1489611E0,-1.2817698E0,-9.932678E-1,-3.159346E-1,7.4941164E-1,2.834996E-1,9.522798E-1,6.4835995E-1,1.2922902E0,-3.876028E-2,-2.0396722E-2,-3.188497E-2,-1.7163197E-2,-1.4969447E-2,1.8995559E-2,1.2008057E-2,4.0507976E-2,2.8046195E-3,3.3777893E-2,3.924975E-2,2.413767E-2,-4.6314597E-3,3.3996996E-2,3.0320158E-2,4.0775537E-2],"categories":[],"categories_nodes":[],"categories_segments":[],"categories_sizes":[],"default_left":[0,0,0,0,0,0,0,0,0,0,0,0,0,0,0,0,0,0,0,0,0,0,0,0,0,0,0,0,0,0,0],"id":20,"left_children":[1,3,5,7,9,11,13,15,17,19,21,23,25,27,29,-1,-1,-1,-1,-1,-1,-1,-1,-1,-1,-1,-1,-1,-1,-1,-1],"loss_changes":[2.0780824E4,1.8092666E3,7.3843164E2,1.4945312E2,3.4711383E2,2.5296857E2,5.628174E2,3.6135742E1,7.546289E1,2.2651776E2,8.331862E1,2.5466891E2,4.5159912E1,6.815485E2,1.1365918E2,0E0,0E0,0E0,0E0,0E0,0E0,0E0,0E0,0E0,0E0,0E0,0E0,0E0,0E0,0E0,0E0],"parents":[2147483647,0,0,1,1,2,2,3,3,4,4,5,5,6,6,7,7,8,8,9,9,10,10,11,11,12,12,13,13,14,14],"right_children":[2,4,6,8,10,12,14,16,18,20,22,24,26,28,30,-1,-1,-1,-1,-1,-1,-1,-1,-1,-1,-1,-1,-1,-1,-1,-1],"split_conditions":[1E0,3.4E0,6E0,2.7E0,4.4E0,7.7836504E0,2.02E3,5E0,4E0,9E0,5E0,4.2799065E1,2.0375704E-7,1.2509E2,5.2E0,-3.876028E-2,-2.0396722E-2,-3.188497E-2,-1.7163197E-2,-1.4969447E-2,1.8995559E-2,1.2008057E-2,4.0507976E-2,2.8046195E-3,3.3777893E-2,3.924975E-2,2.413767E-2,-4.6314597E-3,3.3996996E-2,3.0320158E-2,4.0775537E-2],"split_indices":[6,0,27,0,0,52,12,21,34,37,0,9,4,3,54,0,0,0,0,0,0,0,0,0,0,0,0,0,0,0,0],"split_type":[0,0,0,0,0,0,0,0,0,0,0,0,0,0,0,0,0,0,0,0,0,0,0,0,0,0,0,0,0,0,0],"sum_hessian":[2.0623064E4,1.0299876E4,1.0323189E4,8.600131E3,1.6997445E3,2.468445E3,7.8547446E3,6.0046714E3,2.5954597E3,1.3010045E3,3.9873996E2,1.5906213E3,8.7782367E2,1.7495768E3,6.105168E3,5.903096E3,1.0157519E2,2.2262234E3,3.6923615E2,1.0910577E3,2.0994678E2,2.5324887E2,1.454911E2,1.2987875E3,2.9183383E2,2.550658E2,6.227579E2,6.5908936E2,1.0904874E3,1.1749344E3,4.9302334E3],"tree_param":{"num_deleted":"0","num_feature":"59","num_nodes":"31","size_leaf_vector":"1"}},{"base_weights":[1.3670735E-3,-9.876583E-1,9.8558295E-1,-1.179217E0,-4.6251915E-2,5.231727E-1,1.1322485E0,-1.2664205E0,-9.7781885E-1,-4.0012163E-1,4.5961782E-1,-1.6041978E-1,7.61625E-1,6.447085E-1,1.2739655E0,-3.829868E-2,-2.406483E-2,-2.435773E-2,-3.575721E-2,7.020911E-4,-2.3059074E-2,-7.7708107E-3,2.3597471E-2,-1.8227052E-2,6.7107393E-3,2.4697462E-2,-2.3207646E-2,2.6865905E-2,-2.6063882E-2,2.9802818E-2,4.0278982E-2],"categories":[],"categories_nodes":[],"categories_segments":[],"categories_sizes":[],"default_left":[0,0,0,0,0,0,0,0,0,0,0,1,0,0,0,0,0,0,0,0,0,0,0,0,0,0,0,0,0,0,0],"id":21,"left_children":[1,3,5,7,9,11,13,15,17,19,21,23,25,27,29,-1,-1,-1,-1,-1,-1,-1,-1,-1,-1,-1,-1,-1,-1,-1,-1],"loss_changes":[1.9866283E4,1.8356719E3,6.9315625E2,1.4731348E2,3.0847357E2,4.0194012E2,5.3569824E2,2.6917969E1,8.9958984E1,1.5825595E2,1.6687222E2,1.0977138E2,1.7355225E2,6.654371E2,1.145459E2,0E0,0E0,0E0,0E0,0E0,0E0,0E0,0E0,0E0,0E0,0E0,0E0,0E0,0E0,0E0,0E0],"parents":[2147483647,0,0,1,1,2,2,3,3,4,4,5,5,6,6,7,7,8,8,9,9,10,10,11,11,12,12,13,13,14,14],"right_children":[2,4,6,8,10,12,14,16,18,20,22,24,26,28,30,-1,-1,-1,-1,-1,-1,-1,-1,-1,-1,-1,-1,-1,-1,-1,-1],"split_conditions":[1E0,3.4E0,6E0,2.7E0,4E0,4.1E0,2.02E3,2E0,2.1E1,1.0065053E1,1.5E1,4.95E0,2.2993056E2,1.626E3,5.2E0,-3.829868E-2,-2.406483E-2,-2.435773E-2,-3.575721E-2,7.020911E-4,-2.3059074E-2,-7.7708107E-3,2.3597471E-2,-1.8227052E-2,6.7107393E-3,2.4697462E-2,-2.3207646E-2,2.6865905E-2,-2.6063882E-2,2.9802818E-2,4.0278982E-2],"split_indices":[6,0,27,0,0,10,12,18,1,56,53,26,8,43,54,0,0,0,0,0,0,0,0,0,0,0,0,0,0,0,0],"split_type":[0,0,0,0,0,0,0,0,0,0,0,0,0,0,0,0,0,0,0,0,0,0,0,0,0,0,0,0,0,0,0],"sum_hessian":[2.0406863E4,1.017856E4,1.0228303E4,8.457387E3,1.7211733E3,2.4640771E3,7.7642256E3,5.8982246E3,2.559162E3,1.01285944E3,7.0831384E2,6.373258E2,1.8267513E3,1.7498547E3,6.014371E3,5.769683E3,1.2854126E2,1.4445724E3,1.1145898E3,4.7169177E2,5.4116766E2,2.2155641E2,4.8675742E2,2.942287E2,3.430971E2,1.7567008E3,7.005051E1,1.5014407E3,2.484141E2,1.1856996E3,4.8286714E3],"tree_param":{"num_deleted":"0","num_feature":"59","num_nodes":"31","size_leaf_vector":"1"}},{"base_weights":[-2.975582E-3,-9.775619E-1,9.6975267E-1,-1.1320223E0,1.0548958E-1,7.9506576E-1,1.3510988E0,-1.2212396E0,-8.3920455E-1,-7.021131E-2,1.1860371E0,8.857431E-1,-1.2059352E0,1.1259106E0,4.079756E-2,-3.7805576E-2,-3.2459207E-2,-3.4932468E-2,-2.0377895E-2,9.2334915E-3,-2.2924315E-2,4.094242E-2,1.7351836E-2,1.5553083E-2,3.391044E-2,-4.8383344E-2,3.934835E-2,1.8771678E-2,4.002776E-2],"categories":[],"categories_nodes":[],"categories_segments":[],"categories_sizes":[],"default_left":[0,0,0,0,0,1,0,0,0,0,0,0,0,0,0,0,0,0,0,0,0,0,0,0,0,0,0,0,0],"id":22,"left_children":[1,3,5,7,9,11,13,15,17,19,21,23,25,27,-1,-1,-1,-1,-1,-1,-1,-1,-1,-1,-1,-1,-1,-1,-1],"loss_changes":[1.9049963E4,1.6793262E3,6.6888184E2,2.2847656E2,2.3811807E2,1.2530103E3,4.741211E0,3.5146484E1,1.0608728E2,2.8335718E2,1.8258942E1,5.925073E2,3.0891907E2,1.2175369E1,0E0,0E0,0E0,0E0,0E0,0E0,0E0,0E0,0E0,0E0,0E0,0E0,0E0,0E0,0E0],"parents":[2147483647,0,0,1,1,2,2,3,3,4,4,5,5,6,6,7,7,8,8,9,9,10,10,11,11,12,12,13,13],"right_children":[2,4,6,8,10,12,14,16,18,20,22,24,26,28,-1,-1,-1,-1,-1,-1,-1,-1,-1,-1,-1,-1,-1,-1,-1],"split_conditions":[1E0,3.6E0,6.8E0,2.9E0,4.9E0,9.91008E0,1.4E1,2.6E0,7.6E0,2.8E1,8.8E1,5E0,7.24E0,6E0,4.079756E-2,-3.7805576E-2,-3.2459207E-2,-3.4932468E-2,-2.0377895E-2,9.2334915E-3,-2.2924315E-2,4.094242E-2,1.7351836E-2,1.5553083E-2,3.391044E-2,-4.8383344E-2,3.934835E-2,1.8771678E-2,4.002776E-2],"split_indices":[6,0,54,0,0,52,37,0,2,1,1,24,2,41,0,0,0,0,0,0,0,0,0,0,0,0,0,0,0],"split_type":[0,0,0,0,0,0,0,0,0,0,0,0,0,0,0,0,0,0,0,0,0,0,0,0,0,0,0,0,0],"sum_hessian":[2.0092736E4,1.003678E4,1.0055956E4,8.783996E3,1.2527836E3,6.8988286E3,3.157128E3,6.7302256E3,2.0537708E3,1.0783716E3,1.7441205E2,6.6002876E3,2.9854105E2,1.2384263E2,3.0332852E3,5.253122E3,1.4771034E3,6.750012E2,1.3787697E3,6.9846484E2,3.799067E2,1.3381154E2,4.060051E1,2.6396382E3,3.9606494E3,2.5731723E2,4.1223824E1,3.759364E1,8.624899E1],"tree_param":{"num_deleted":"0","num_feature":"59","num_nodes":"29","size_leaf_vector":"1"}},{"base_weights":[5.4312954E-3,-9.539119E-1,9.5305115E-1,-1.1371938E0,-6.213335E-2,7.763977E-1,1.3365549E0,-1.2304362E0,-9.239379E-1,-3.400787E-1,5.5598074E-1,8.637456E-1,-9.6123326E-1,1.1199434E0,4.034608E-2,-3.718842E-2,-1.6153866E-2,-2.0870255E-2,-3.295453E-2,-1.4451471E-3,-2.85027E-2,-1.3540125E-2,2.3733806E-2,1.1003052E-2,3.1456113E-2,-4.7857877E-2,3.8386464E-2,-1.3265448E-2,3.591118E-2],"categories":[],"categories_nodes":[],"categories_segments":[],"categories_sizes":[],"default_left":[0,0,1,0,0,1,0,0,0,0,0,0,0,0,0,0,0,0,0,0,0,0,0,0,0,0,0,0,0],"id":23,"left_children":[1,3,5,7,9,11,13,15,17,19,21,23,25,27,-1,-1,-1,-1,-1,-1,-1,-1,-1,-1,-1,-1,-1,-1,-1],"loss_changes":[1.8107994E4,1.617751E3,6.7783105E2,1.6212695E2,2.9028455E2,1.0424629E3,4.182617E0,3.559375E1,9.891504E1,2.0747362E2,1.2450932E2,5.997627E2,4.6938196E2,1.5311569E1,0E0,0E0,0E0,0E0,0E0,0E0,0E0,0E0,0E0,0E0,0E0,0E0,0E0,0E0,0E0],"parents":[2147483647,0,0,1,1,2,2,3,3,4,4,5,5,6,6,7,7,8,8,9,9,10,10,11,11,12,12,13,13],"right_children":[2,4,6,8,10,12,14,16,18,20,22,24,26,28,-1,-1,-1,-1,-1,-1,-1,-1,-1,-1,-1,-1,-1,-1,-1],"split_conditions":[1E0,3.4E0,6.8E0,2.7E0,4.2E0,9.910198E0,1.4E1,1.1E1,1.5E1,2.9E1,4.88E0,3E0,7.33E0,4.8E0,4.034608E-2,-3.718842E-2,-1.6153866E-2,-2.0870255E-2,-3.295453E-2,-1.4451471E-3,-2.85027E-2,-1.3540125E-2,2.3733806E-2,1.1003052E-2,3.1456113E-2,-4.7857877E-2,3.8386464E-2,-1.3265448E-2,3.591118E-2],"split_indices":[6,0,54,0,0,55,37,24,1,1,2,24,2,10,0,0,0,0,0,0,0,0,0,0,0,0,0,0,0],"split_type":[0,0,0,0,0,0,0,0,0,0,0,0,0,0,0,0,0,0,0,0,0,0,0,0,0,0,0,0,0],"sum_hessian":[1.9916756E4,9.897153E3,1.0019603E4,8.209607E3,1.687546E3,6.861851E3,3.157751E3,5.7087754E3,2.5008325E3,1.1644027E3,5.231434E2,6.5339053E3,3.2794608E2,1.2174216E2,3.0360088E3,5.633268E3,7.550728E1,1.0858279E3,1.4150046E3,7.882719E2,3.7613074E2,9.883499E1,4.2430838E2,1.7718055E3,4.7620996E3,2.5584328E2,7.210278E1,5.5030622E0,1.162391E2],"tree_param":{"num_deleted":"0","num_feature":"59","num_nodes":"29","size_leaf_vector":"1"}},{"base_weights":[-2.5636205E-4,-9.392997E-1,9.3354833E-1,-1.1290046E0,-3.3751257E-2,4.6905887E-1,1.0853728E0,-1.2171769E0,-9.2753875E-1,-2.6658994E-1,7.341155E-1,-4.6435657E-1,6.4359015E-1,5.901294E-1,1.2247058E0,-3.6839142E-2,-1.8114448E-2,-3.629E-2,-2.4181742E-2,-2.7776102E-2,5.671661E-4,-7.13246E-3,2.8113002E-2,-2.4730977E-2,1.2534098E-2,2.1254065E-2,-1.838353E-2,3.6504265E-2,-7.5782817E-3,2.8189288E-2,3.9157495E-2],"categories":[],"categories_nodes":[],"categories_segments":[],"categories_sizes":[],"default_left":[0,0,0,0,0,0,0,0,0,0,0,0,0,0,0,0,0,0,0,0,0,0,0,0,0,0,0,0,0,0,0],"id":24,"left_children":[1,3,5,7,9,11,13,15,17,19,21,23,25,27,29,-1,-1,-1,-1,-1,-1,-1,-1,-1,-1,-1,-1,-1,-1,-1,-1],"loss_changes":[1.7212914E4,1.6813047E3,6.935762E2,1.4261719E2,3.0346954E2,3.9557373E2,5.110752E2,3.6503906E1,8.3598145E1,2.4514241E2,7.813487E1,1.2191429E2,1.670888E2,8.6139624E2,1.3165527E2,0E0,0E0,0E0,0E0,0E0,0E0,0E0,0E0,0E0,0E0,0E0,0E0,0E0,0E0,0E0,0E0],"parents":[2147483647,0,0,1,1,2,2,3,3,4,4,5,5,6,6,7,7,8,8,9,9,10,10,11,11,12,12,13,13,14,14],"right_children":[2,4,6,8,10,12,14,16,18,20,22,24,26,28,30,-1,-1,-1,-1,-1,-1,-1,-1,-1,-1,-1,-1,-1,-1,-1,-1],"split_conditions":[1E0,3.4E0,6E0,2.7E0,4.4E0,3.5E0,7.24E0,5E0,7.52E0,6.61E0,4.66E0,3.1E0,1.8209305E2,6.69E0,8.145938E0,-3.6839142E-2,-1.8114448E-2,-3.629E-2,-2.4181742E-2,-2.7776102E-2,5.671661E-4,-7.13246E-3,2.8113002E-2,-2.4730977E-2,1.2534098E-2,2.1254065E-2,-1.838353E-2,3.6504265E-2,-7.5782817E-3,2.8189288E-2,3.9157495E-2],"split_indices":[6,0,27,0,0,10,2,21,2,2,2,0,8,2,55,0,0,0,0,0,0,0,0,0,0,0,0,0,0,0,0],"split_type":[0,0,0,0,0,0,0,0,0,0,0,0,0,0,0,0,0,0,0,0,0,0,0,0,0,0,0,0,0,0,0],"sum_hessian":[1.9627656E4,9.786374E3,9.841282E3,8.0911084E3,1.6952661E3,2.4253362E3,7.4159463E3,5.6244863E3,2.466622E3,1.3013218E3,3.9394434E2,3.817938E2,2.0435424E3,1.6294575E3,5.786489E3,5.5262285E3,9.825791E1,7.397232E2,1.7268988E3,3.9256E2,9.087618E2,6.803419E1,3.2591016E2,2.7118765E2,1.1060615E2,1.9436111E3,9.993125E1,9.3426965E2,6.951878E2,1.2775668E3,4.508922E3],"tree_param":{"num_deleted":"0","num_feature":"59","num_nodes":"31","size_leaf_vector":"1"}},{"base_weights":[-3.9880984E-3,-9.311804E-1,9.1800684E-1,-9.6049577E-1,-4.1594884E-1,7.396502E-1,1.3104377E0,-8.780253E-1,-1.0326056E0,1.5857597E-1,-5.211762E-1,8.27715E-1,-1.1559594E0,1.0746067E0,3.9581917E-2,-2.0111991E-2,-2.9721854E-2,-3.2186497E-2,-2.920078E-2,1.3115286E-2,-2.3213848E-2,-1.9296195E-2,-5.49575E-4,1.39546245E-2,3.23601E-2,3.6804505E-2,-4.7028083E-2,1.7515684E-2,3.956121E-2],"categories":[],"categories_nodes":[],"categories_segments":[],"categories_sizes":[],"default_left":[0,1,1,0,0,1,0,0,0,0,0,0,0,0,0,0,0,0,0,0,0,0,0,0,0,0,0,0,0],"id":25,"left_children":[1,3,5,7,9,11,13,15,17,19,21,23,25,27,-1,-1,-1,-1,-1,-1,-1,-1,-1,-1,-1,-1,-1,-1,-1],"loss_changes":[1.6538809E4,1.4529785E2,6.779961E2,5.336621E1,3.1583588E1,1.1146975E3,4.9838867E0,9.911084E1,1.0560547E1,2.1489864E1,2.7026947E1,5.7963184E2,2.9284802E2,1.3160248E1,0E0,0E0,0E0,0E0,0E0,0E0,0E0,0E0,0E0,0E0,0E0,0E0,0E0,0E0,0E0],"parents":[2147483647,0,0,1,1,2,2,3,3,4,4,5,5,6,6,7,7,8,8,9,9,10,10,11,11,12,12,13,13],"right_children":[2,4,6,8,10,12,14,16,18,20,22,24,26,28,-1,-1,-1,-1,-1,-1,-1,-1,-1,-1,-1,-1,-1,-1,-1],"split_conditions":[1E0,4.871082E0,6.8E0,2E1,3E0,9.91008E0,1.4E1,2.8734455E1,1.4E1,1.9433997E-5,1.2653E2,5E0,6E1,6.1E0,3.9581917E-2,-2.0111991E-2,-2.9721854E-2,-3.2186497E-2,-2.920078E-2,1.3115286E-2,-2.3213848E-2,-1.9296195E-2,-5.49575E-4,1.39546245E-2,3.23601E-2,3.6804505E-2,-4.7028083E-2,1.7515684E-2,3.956121E-2],"split_indices":[6,33,54,11,11,52,37,9,15,4,3,24,37,41,0,0,0,0,0,0,0,0,0,0,0,0,0,0,0],"split_type":[0,0,0,0,0,0,0,0,0,0,0,0,0,0,0,0,0,0,0,0,0,0,0,0,0,0,0,0,0],"sum_hessian":[1.9344654E4,9.645137E3,9.699518E3,9.125079E3,5.200578E2,6.670647E3,3.0288704E3,4.2628857E3,4.8621934E3,8.042779E1,4.3963E2,6.3750435E3,2.956035E2,1.1528609E2,2.9135842E3,1.5022815E3,2.7606042E3,2.8842644E3,1.977929E3,6.2333218E1,1.8094572E1,3.5355283E2,8.607718E1,2.608841E3,3.7662024E3,4.3253376E1,2.5235011E2,3.942206E1,7.586403E1],"tree_param":{"num_deleted":"0","num_feature":"59","num_nodes":"29","size_leaf_vector":"1"}},{"base_weights":[3.4047474E-4,-9.078181E-1,9.0338933E-1,-1.0820062E0,5.686162E-2,4.774702E-1,1.0721295E0,-1.194043E0,-8.497225E-1,-9.300449E-2,1.1648053E0,-1.3185883E-1,7.1342045E-1,5.7327294E-1,1.2212838E0,-3.619906E-2,-1.9203838E-2,-2.0871477E-2,-3.3365317E-2,8.683234E-3,-1.7710138E-2,3.804669E-2,5.5172667E-3,-1.8301772E-2,7.9257935E-3,2.3242632E-2,-2.3123018E-2,-8.0611715E-3,3.2210205E-2,2.9010085E-2,3.837818E-2],"categories":[],"categories_nodes":[],"categories_segments":[],"categories_sizes":[],"default_left":[0,0,0,0,0,0,0,0,0,0,1,1,0,0,0,0,0,0,0,0,0,0,0,0,0,0,0,0,0,0,0],"id":26,"left_children":[1,3,5,7,9,11,13,15,17,19,21,23,25,27,29,-1,-1,-1,-1,-1,-1,-1,-1,-1,-1,-1,-1,-1,-1,-1,-1],"loss_changes":[1.5649333E4,1.5987646E3,6.871299E2,2.0871387E2,2.4188574E2,3.906897E2,5.091416E2,3.7131836E1,1.0535779E2,2.4430481E2,1.737381E1,1.4394841E2,1.7888873E2,6.6558514E2,7.653174E1,0E0,0E0,0E0,0E0,0E0,0E0,0E0,0E0,0E0,0E0,0E0,0E0,0E0,0E0,0E0,0E0],"parents":[2147483647,0,0,1,1,2,2,3,3,4,4,5,5,6,6,7,7,8,8,9,9,10,10,11,11,12,12,13,13,14,14],"right_children":[2,4,6,8,10,12,14,16,18,20,22,24,26,28,30,-1,-1,-1,-1,-1,-1,-1,-1,-1,-1,-1,-1,-1,-1,-1,-1],"split_conditions":[1E0,3.5E0,7E0,2.7E0,4.9E0,4.2E0,2.02E3,2E0,2.4E1,2.1E1,4E0,4.956829E0,2.2993056E2,1.2509E2,5.2E0,-3.619906E-2,-1.9203838E-2,-2.0871477E-2,-3.3365317E-2,8.683234E-3,-1.7710138E-2,3.804669E-2,5.5172667E-3,-1.8301772E-2,7.9257935E-3,2.3242632E-2,-2.3123018E-2,-8.0611715E-3,3.2210205E-2,2.9010085E-2,3.837818E-2],"split_indices":[6,0,27,0,0,10,12,18,1,1,57,26,8,3,54,0,0,0,0,0,0,0,0,0,0,0,0,0,0,0,0],"split_type":[0,0,0,0,0,0,0,0,0,0,0,0,0,0,0,0,0,0,0,0,0,0,0,0,0,0,0,0,0,0,0],"sum_hessian":[1.9079957E4,9.5130625E3,9.566895E3,8.0579507E3,1.4551115E3,2.7157832E3,6.8511113E3,5.4332183E3,2.6247324E3,1.2825441E3,1.725674E2,7.582038E2,1.9575795E3,1.5780525E3,5.273059E3,5.311297E3,1.2192119E2,1.6564125E3,9.6831995E2,7.252502E2,5.572939E2,1.5584358E2,1.6723818E1,3.4323514E2,4.1496863E2,1.880352E3,7.722738E1,5.8842535E2,9.896272E2,9.8249524E2,4.290564E3],"tree_param":{"num_deleted":"0","num_feature":"59","num_nodes":"31","size_leaf_vector":"1"}},{"base_weights":[3.1825604E-3,-8.868109E-1,8.882165E-1,-1.0923547E0,-7.33863E-2,7.0984817E-1,1.2869128E0,-1.1793389E0,-8.782878E-1,-3.7666953E-1,4.4930905E-1,7.942785E-1,-1.1539814E0,2.9996687E-1,1.288948E0,-3.5682347E-2,-2.16016E-2,-2.1215847E-2,-3.3060074E-2,2.250742E-3,-2.0931622E-2,-1.254843E-2,2.089134E-2,9.346019E-3,2.9419284E-2,-4.631359E-2,3.8148776E-2,-3.0753318E-2,3.315316E-2,3.3121485E-2,3.8877074E-2],"categories":[],"categories_nodes":[],"categories_segments":[],"categories_sizes":[],"default_left":[0,0,0,0,0,1,0,0,0,0,0,1,0,0,0,0,0,0,0,0,0,0,0,0,0,0,0,0,0,0,0],"id":27,"left_children":[1,3,5,7,9,11,13,15,17,19,21,23,25,27,29,-1,-1,-1,-1,-1,-1,-1,-1,-1,-1,-1,-1,-1,-1,-1,-1],"loss_changes":[1.4865498E4,1.5732119E3,6.7202344E2,1.3883496E2,3.0124347E2,1.0300815E3,5.48584E0,2.384082E1,8.244507E1,1.7442238E2,1.4987102E2,5.626328E2,2.703269E2,8.942189E0,2.3208008E0,0E0,0E0,0E0,0E0,0E0,0E0,0E0,0E0,0E0,0E0,0E0,0E0,0E0,0E0,0E0,0E0],"parents":[2147483647,0,0,1,1,2,2,3,3,4,4,5,5,6,6,7,7,8,8,9,9,10,10,11,11,12,12,13,13,14,14],"right_children":[2,4,6,8,10,12,14,16,18,20,22,24,26,28,30,-1,-1,-1,-1,-1,-1,-1,-1,-1,-1,-1,-1,-1,-1,-1,-1],"split_conditions":[1E0,3.3E0,6.8E0,2.7E0,4E0,9.91008E0,5.9494205E0,2E0,2.1E1,1.3E1,5.34E0,6.1503096E0,7.24E0,6.19E0,7E0,-3.5682347E-2,-2.16016E-2,-2.1215847E-2,-3.3060074E-2,2.250742E-3,-2.0931622E-2,-1.254843E-2,2.089134E-2,9.346019E-3,2.9419284E-2,-4.631359E-2,3.8148776E-2,-3.0753318E-2,3.315316E-2,3.3121485E-2,3.8877074E-2],"split_indices":[6,0,54,0,0,52,42,18,1,1,2,39,2,2,27,0,0,0,0,0,0,0,0,0,0,0,0,0,0,0,0],"split_type":[0,0,0,0,0,0,0,0,0,0,0,0,0,0,0,0,0,0,0,0,0,0,0,0,0,0,0,0,0,0,0],"sum_hessian":[1.8870643E4,9.408957E3,9.461685E3,7.510732E3,1.8982253E3,6.5390376E3,2.9226472E3,5.3374116E3,2.1733206E3,1.2014108E3,6.968146E2,6.256209E3,2.8282855E2,6.3198495E0,2.9163274E3,5.221313E3,1.16098434E2,1.2338534E3,9.394671E2,4.9946646E2,7.0194434E2,1.5429834E2,5.4251624E2,1.7432626E3,4.512947E3,2.4398303E2,3.8845512E1,2.2853937E0,4.0344563E0,1.11503685E2,2.8048237E3],"tree_param":{"num_deleted":"0","num_feature":"59","num_nodes":"31","size_leaf_vector":"1"}},{"base_weights":[-4.317647E-4,-8.774097E-1,8.738965E-1,-6.850348E-1,-1.0554632E0,6.980272E-1,1.2762535E0,-7.315781E-1,-8.3247386E-2,-1.0636855E0,-4.4390452E-1,7.809065E-1,-1.116762E0,2.1676435E-1,1.2783414E0,-2.5004178E-2,-1.8470801E-2,3.1006564E-3,-1.8314864E-2,-3.38784E-2,-3.0114647E-2,1.3453414E-2,-2.318008E-2,1.2474441E-2,3.110483E-2,-4.5598082E-2,3.7138127E-2,3.2151636E-2,-3.0218288E-2,4.453556E-3,3.8378194E-2],"categories":[],"categories_nodes":[],"categories_segments":[],"categories_sizes":[],"default_left":[0,0,0,1,0,1,0,1,0,1,0,0,0,0,0,0,0,0,0,0,0,0,0,0,0,0,0,0,0,0,0],"id":28,"left_children":[1,3,5,7,9,11,13,15,17,19,21,23,25,27,29,-1,-1,-1,-1,-1,-1,-1,-1,-1,-1,-1,-1,-1,-1,-1,-1],"loss_changes":[1.4230279E4,3.1664404E2,6.567344E2,1.24759766E2,2.3714355E1,9.7386865E2,5.973633E0,4.83291E1,3.1650158E1,1.7500488E1,1.9570448E1,5.776575E2,2.7049323E2,8.155351E0,2.7783203E0,0E0,0E0,0E0,0E0,0E0,0E0,0E0,0E0,0E0,0E0,0E0,0E0,0E0,0E0,0E0,0E0],"parents":[2147483647,0,0,1,1,2,2,3,3,4,4,5,5,6,6,7,7,8,8,9,9,10,10,11,11,12,12,13,13,14,14],"right_children":[2,4,6,8,10,12,14,16,18,20,22,24,26,28,30,-1,-1,-1,-1,-1,-1,-1,-1,-1,-1,-1,-1,-1,-1,-1,-1],"split_conditions":[1E0,2.1E1,6.8E0,4.871082E0,2.94E2,9.91008E0,5.9494205E0,1.8E0,1.234E1,5.489716E0,4.5529855E-6,5E0,7.24E0,1.3E1,1.19E2,-2.5004178E-2,-1.8470801E-2,3.1006564E-3,-1.8314864E-2,-3.38784E-2,-3.0114647E-2,1.3453414E-2,-2.318008E-2,1.2474441E-2,3.110483E-2,-4.5598082E-2,3.7138127E-2,3.2151636E-2,-3.0218288E-2,4.453556E-3,3.8378194E-2],"split_indices":[6,1,54,33,50,52,42,45,2,42,4,24,2,14,30,0,0,0,0,0,0,0,0,0,0,0,0,0,0,0,0],"split_type":[0,0,0,0,0,0,0,0,0,0,0,0,0,0,0,0,0,0,0,0,0,0,0,0,0,0,0,0,0,0,0],"sum_hessian":[1.8556816E4,9.264369E3,9.292448E3,4.455427E3,4.808942E3,6.4680244E3,2.8244238E3,4.135374E3,3.2005283E2,4.7444146E3,6.452712E1,6.186083E3,2.8194153E2,5.761412E0,2.8186624E3,2.1972212E3,1.938153E3,2.3698392E2,8.30689E1,2.2553264E3,2.4890884E3,1.7274822E1,4.7252304E1,2.550384E3,3.635699E3,2.4102713E2,4.09144E1,3.4653828E0,2.2960293E0,2.4545171E0,2.816208E3],"tree_param":{"num_deleted":"0","num_feature":"59","num_nodes":"31","size_leaf_vector":"1"}},{"base_weights":[6.7891986E-3,8.7272495E-1,-8.524491E-1,4.6346477E-1,1.0306839E0,-1.0458776E0,1.8942565E-2,2.1594816E-1,1.0032568E0,5.483215E-1,1.1851714E0,-1.144654E0,-8.2622993E-1,-7.074322E-1,2.3289934E-1,1.434368E-3,3.671555E-2,-4.340478E-3,3.4669288E-2,-2.0997569E-2,2.7196167E-2,2.9057479E-2,3.7775684E-2,-3.474202E-2,-1.0461789E-2,-1.9420518E-2,-3.2089215E-2,-2.9037882E-2,1.9630408E-2,-4.740228E-3,2.0746639E-2],"categories":[],"categories_nodes":[],"categories_segments":[],"categories_sizes":[],"default_left":[0,1,0,0,0,0,0,0,0,0,0,0,0,0,0,0,0,0,0,0,0,0,0,0,0,0,0,0,0,0,0],"id":29,"left_children":[1,3,5,7,9,11,13,15,17,19,21,23,25,27,29,-1,-1,-1,-1,-1,-1,-1,-1,-1,-1,-1,-1,-1,-1,-1,-1],"loss_changes":[1.3697305E4,5.9225684E2,1.5575E3,3.4117218E2,4.9227197E2,1.6311621E2,2.611847E2,2.9703644E2,1.4064056E2,7.1895154E2,7.9086914E1,5.525586E1,1.01599E2,1.3628441E2,2.3285312E2,0E0,0E0,0E0,0E0,0E0,0E0,0E0,0E0,0E0,0E0,0E0,0E0,0E0,0E0,0E0,0E0],"parents":[2147483647,0,0,1,1,2,2,3,3,4,4,5,5,6,6,7,7,8,8,9,9,10,10,11,11,12,12,13,13,14,14],"right_children":[2,4,6,8,10,12,14,16,18,20,22,24,26,28,30,-1,-1,-1,-1,-1,-1,-1,-1,-1,-1,-1,-1,-1,-1,-1,-1],"split_conditions":[3.2530613E-6,7.092982E0,3.4E0,2.4E1,7.48E0,2.7E0,5.77E0,9.563053E1,2.02E3,1.2503E2,8.48932E0,1.28E2,2.1E1,4.8E0,3.9E0,1.434368E-3,3.671555E-2,-4.340478E-3,3.4669288E-2,-2.0997569E-2,2.7196167E-2,2.9057479E-2,3.7775684E-2,-3.474202E-2,-1.0461789E-2,-1.9420518E-2,-3.2089215E-2,-2.9037882E-2,1.9630408E-2,-4.740228E-3,2.0746639E-2],"split_indices":[4,42,0,37,2,0,2,9,12,3,55,47,1,0,0,0,0,0,0,0,0,0,0,0,0,0,0,0,0,0,0],"split_type":[0,0,0,0,0,0,0,0,0,0,0,0,0,0,0,0,0,0,0,0,0,0,0,0,0,0,0,0,0,0,0],"sum_hessian":[1.8407238E4,9.167882E3,9.239357E3,2.5541628E3,6.6137188E3,7.5608306E3,1.6785267E3,1.7521368E3,8.0202594E2,1.6054648E3,5.008254E3,5.212525E3,2.3483057E3,3.81396E2,1.2971307E3,1.5025352E3,2.4960164E2,9.399596E1,7.0803E2,3.5778326E2,1.2476815E3,1.2791987E3,3.7290552E3,5.1256895E3,8.683536E1,1.3556877E3,9.9261786E2,3.2039606E2,6.099994E1,7.006391E2,5.964916E2],"tree_param":{"num_deleted":"0","num_feature":"59","num_nodes":"31","size_leaf_vector":"1"}},{"base_weights":[4.208293E-3,-8.437531E-1,8.448933E-1,-1.0530583E0,-5.277974E-2,6.667865E-1,1.2560138E0,-1.1486439E0,-8.829623E-1,-1.7623584E-1,1.1574394E0,7.48647E-1,-1.1122433E0,9.9254304E-1,1.2664459E0,-3.4826774E-2,-1.8606901E-2,-2.865695E-2,-1.4375365E-2,-2.3636911E-2,2.5159211E-3,1.7104488E-2,3.901632E-2,1.2056861E-2,3.006396E-2,3.462938E-2,-4.5173597E-2,1.296734E-2,3.8250793E-2,3.800467E-2,1.6305516E-2],"categories":[],"categories_nodes":[],"categories_segments":[],"categories_sizes":[],"default_left":[0,0,1,0,0,1,0,0,0,0,0,0,0,0,0,0,0,0,0,0,0,0,0,0,0,0,0,0,0,0,0],"id":30,"left_children":[1,3,5,7,9,11,13,15,17,19,21,23,25,27,29,-1,-1,-1,-1,-1,-1,-1,-1,-1,-1,-1,-1,-1,-1,-1,-1],"loss_changes":[1.2902453E4,1.491706E3,6.646655E2,1.1483252E2,2.8206534E2,9.246577E2,6.2910156E0,2.8783203E1,7.447339E1,2.7255206E2,1.3946274E1,5.326968E2,2.5100839E2,1.6734985E1,2.9296875E-2,0E0,0E0,0E0,0E0,0E0,0E0,0E0,0E0,0E0,0E0,0E0,0E0,0E0,0E0,0E0,0E0],"parents":[2147483647,0,0,1,1,2,2,3,3,4,4,5,5,6,6,7,7,8,8,9,9,10,10,11,11,12,12,13,13,14,14],"right_children":[2,4,6,8,10,12,14,16,18,20,22,24,26,28,30,-1,-1,-1,-1,-1,-1,-1,-1,-1,-1,-1,-1,-1,-1,-1,-1],"split_conditions":[1E0,3.3E0,6.8E0,2.6E0,4.9E0,9.91008E0,1.4E1,2E0,4E0,6.59E0,2E0,5E0,6E1,6.1E0,1.4303778E2,-3.4826774E-2,-1.8606901E-2,-2.865695E-2,-1.4375365E-2,-2.3636911E-2,2.5159211E-3,1.7104488E-2,3.901632E-2,1.2056861E-2,3.006396E-2,3.462938E-2,-4.5173597E-2,1.296734E-2,3.8250793E-2,3.800467E-2,1.6305516E-2],"split_indices":[6,0,54,0,0,52,37,18,34,2,40,24,37,41,9,0,0,0,0,0,0,0,0,0,0,0,0,0,0,0,0],"split_type":[0,0,0,0,0,0,0,0,0,0,0,0,0,0,0,0,0,0,0,0,0,0,0,0,0,0,0,0,0,0,0],"sum_hessian":[1.8097348E4,9.009682E3,9.087667E3,7.124172E3,1.8855095E3,6.3425503E3,2.7451165E3,4.557389E3,2.5667827E3,1.7117463E3,1.737632E2,6.0640957E3,2.7845477E2,1.0821565E2,2.6369006E3,4.4529727E3,1.04416595E2,2.175962E3,3.908206E2,5.1011365E2,1.2016327E3,3.502161E1,1.387416E2,2.5620115E3,3.5020842E3,4.090946E1,2.375453E2,3.711976E1,7.10959E1,2.6347766E3,2.1240888E0],"tree_param":{"num_deleted":"0","num_feature":"59","num_nodes":"31","size_leaf_vector":"1"}},{"base_weights":[-1.3750107E-3,-8.2982135E-1,8.261543E-1,-1.0387174E0,-4.6689544E-2,6.48279E-1,1.2449123E0,-1.1375061E0,-8.64863E-1,-3.6574385E-1,4.0110114E-1,7.2841364E-1,-1.1140487E0,9.870154E-1,1.2557147E0,-3.4528423E-2,-1.7792989E-2,-2.1554718E-2,-3.1618197E-2,-4.077327E-3,-2.8019182E-2,-1.6779544E-2,1.9880224E-2,1.0191953E-2,2.8815145E-2,-4.3818764E-2,3.6610074E-2,-1.49935465E-2,3.22736E-2,3.7682954E-2,1.6076956E-2],"categories":[],"categories_nodes":[],"categories_segments":[],"categories_sizes":[],"default_left":[0,0,0,0,0,1,0,0,0,0,0,0,0,0,0,0,0,0,0,0,0,0,0,0,0,0,0,0,0,0,0],"id":31,"left_children":[1,3,5,7,9,11,13,15,17,19,21,23,25,27,29,-1,-1,-1,-1,-1,-1,-1,-1,-1,-1,-1,-1,-1,-1,-1,-1],"loss_changes":[1.2243975E4,1.4600063E3,6.647173E2,1.20020996E2,2.687999E2,8.8672705E2,6.178711E0,3.216992E1,7.0010254E1,1.4334343E2,1.9703601E2,5.410134E2,2.2284128E2,1.5282967E1,3.173828E-2,0E0,0E0,0E0,0E0,0E0,0E0,0E0,0E0,0E0,0E0,0E0,0E0,0E0,0E0,0E0,0E0],"parents":[2147483647,0,0,1,1,2,2,3,3,4,4,5,5,6,6,7,7,8,8,9,9,10,10,11,11,12,12,13,13,14,14],"right_children":[2,4,6,8,10,12,14,16,18,20,22,24,26,28,30,-1,-1,-1,-1,-1,-1,-1,-1,-1,-1,-1,-1,-1,-1,-1,-1],"split_conditions":[1E0,3.3E0,6.8E0,2.6E0,3.9E0,9.91008E0,1.4E1,2E0,2.1E1,2.9E1,5.34E0,6E0,1.356E1,4.8E0,1.4303778E2,-3.4528423E-2,-1.7792989E-2,-2.1554718E-2,-3.1618197E-2,-4.077327E-3,-2.8019182E-2,-1.6779544E-2,1.9880224E-2,1.0191953E-2,2.8815145E-2,-4.3818764E-2,3.6610074E-2,-1.49935465E-2,3.22736E-2,3.7682954E-2,1.6076956E-2],"split_indices":[6,0,54,0,0,52,37,18,1,1,2,27,2,10,9,0,0,0,0,0,0,0,0,0,0,0,0,0,0,0,0],"split_type":[0,0,0,0,0,0,0,0,0,0,0,0,0,0,0,0,0,0,0,0,0,0,0,0,0,0,0,0,0,0,0],"sum_hessian":[1.785772E4,8.923915E3,8.933807E3,7.044506E3,1.879409E3,6.2721436E3,2.6616628E3,4.488486E3,2.5560203E3,1.0975673E3,7.8184186E2,5.999909E3,2.7223474E2,1.1071937E2,2.5509434E3,4.3792485E3,1.0923705E2,1.4434138E3,1.1126063E3,7.8236237E2,3.1520486E2,1.6711316E2,6.147287E2,2.2441338E3,3.7557754E3,2.3736797E2,3.4866783E1,5.9773173E0,1.0474205E2,2.5488394E3,2.1041772E0],"tree_param":{"num_deleted":"0","num_feature":"59","num_nodes":"31","size_leaf_vector":"1"}},{"base_weights":[2.228293E-3,8.218719E-1,-8.226064E-1,3.0637354E-1,9.628606E-1,-1.0338541E0,-4.4314023E-2,-5.3465945E-1,4.947513E-1,5.535697E-1,1.0967989E0,-1.1324497E0,-8.596008E-1,-3.5379785E-1,3.7451723E-1,-2.4882486E-2,1.1876384E-2,6.585252E-3,2.639902E-2,-2.1896255E-3,2.8679006E-2,2.283497E-2,3.5730746E-2,-3.429368E-2,-2.0295398E-2,-2.7204767E-2,-8.7158885E-3,-1.5444288E-3,-2.2520604E-2,-8.863297E-3,2.0898828E-2],"categories":[],"categories_nodes":[],"categories_segments":[],"categories_sizes":[],"default_left":[0,1,0,0,0,0,0,1,0,0,0,0,0,0,0,0,0,0,0,0,0,0,0,0,0,0,0,0,0,0,0],"id":32,"left_children":[1,3,5,7,9,11,13,15,17,19,21,23,25,27,29,-1,-1,-1,-1,-1,-1,-1,-1,-1,-1,-1,-1,-1,-1,-1,-1],"loss_changes":[1.1890808E4,6.4086914E2,1.4412441E3,3.0066104E2,3.7911572E2,1.1748389E2,2.4284633E2,9.5628296E1,1.641087E2,4.3117212E2,1.6411133E2,2.0638672E1,6.680493E1,1.2922488E2,1.720185E2,0E0,0E0,0E0,0E0,0E0,0E0,0E0,0E0,0E0,0E0,0E0,0E0,0E0,0E0,0E0,0E0],"parents":[2147483647,0,0,1,1,2,2,3,3,4,4,5,5,6,6,7,7,8,8,9,9,10,10,11,11,12,12,13,13,14,14],"right_children":[2,4,6,8,10,12,14,16,18,20,22,24,26,28,30,-1,-1,-1,-1,-1,-1,-1,-1,-1,-1,-1,-1,-1,-1,-1,-1],"split_conditions":[3.4400853E-6,6.633448E0,3.3E0,3.3E0,2.02E3,2.6E0,3.9E0,5.4E0,1.1620264E1,1.2509E2,9E0,2E0,6E0,1.9E1,4E0,-2.4882486E-2,1.1876384E-2,6.585252E-3,2.639902E-2,-2.1896255E-3,2.8679006E-2,2.283497E-2,3.5730746E-2,-3.429368E-2,-2.0295398E-2,-2.7204767E-2,-8.7158885E-3,-1.5444288E-3,-2.2520604E-2,-8.863297E-3,2.0898828E-2],"split_indices":[4,42,0,10,12,0,0,46,9,3,27,18,44,1,40,0,0,0,0,0,0,0,0,0,0,0,0,0,0,0,0],"split_type":[0,0,0,0,0,0,0,0,0,0,0,0,0,0,0,0,0,0,0,0,0,0,0,0,0,0,0,0,0,0,0],"sum_hessian":[1.758612E4,8.820817E3,8.765301E3,1.8950605E3,6.9257573E3,6.8938193E3,1.8714813E3,3.464516E2,1.5486089E3,1.7088763E3,5.216881E3,4.3991846E3,2.494635E3,1.0763197E3,7.951616E2,2.6319183E2,8.325977E1,9.0414966E2,6.444593E2,6.6861707E2,1.0402593E3,1.1455416E3,4.071339E3,4.297087E3,1.020977E2,2.302931E3,1.9170409E2,6.1159064E2,4.6472903E2,2.582038E2,5.369578E2],"tree_param":{"num_deleted":"0","num_feature":"59","num_nodes":"31","size_leaf_vector":"1"}},{"base_weights":[-1.8126441E-3,-8.0818367E-1,8.050221E-1,-8.4059906E-1,-2.7009788E-1,6.2672263E-1,1.2265483E0,-7.60258E-1,-9.0512586E-1,-3.6031556E-1,5.372488E-1,7.0548767E-1,-1.111284E0,-9.602249E-3,1.2288805E0,-1.5045603E-2,-2.4908148E-2,-2.7214725E-2,6.415662E-3,-1.9226983E-2,-5.621234E-3,-2.1593187E-2,2.6074449E-2,7.0551303E-3,2.6870182E-2,-4.346255E-2,3.6072597E-2,-3.55338E-2,2.9402126E-2,3.0102972E-2,3.7144106E-2],"categories":[],"categories_nodes":[],"categories_segments":[],"categories_sizes":[],"default_left":[0,1,1,0,0,1,0,0,1,0,0,0,0,0,0,0,0,0,0,0,0,0,0,0,0,0,0,0,0,0,0],"id":33,"left_children":[1,3,5,7,9,11,13,15,17,19,21,23,25,27,29,-1,-1,-1,-1,-1,-1,-1,-1,-1,-1,-1,-1,-1,-1,-1,-1],"loss_changes":[1.1300254E4,1.512915E2,6.5174316E2,4.1784668E1,3.625182E1,8.3627856E2,7.4489746E0,6.580322E1,1.051123E1,2.1516628E1,2.1553116E1,5.2209204E2,2.08646E2,7.963019E0,4.130615E0,0E0,0E0,0E0,0E0,0E0,0E0,0E0,0E0,0E0,0E0,0E0,0E0,0E0,0E0,0E0,0E0],"parents":[2147483647,0,0,1,1,2,2,3,3,4,4,5,5,6,6,7,7,8,8,9,9,10,10,11,11,12,12,13,13,14,14],"right_children":[2,4,6,8,10,12,14,16,18,20,22,24,26,28,30,-1,-1,-1,-1,-1,-1,-1,-1,-1,-1,-1,-1,-1,-1,-1,-1],"split_conditions":[1E0,4.871082E0,6.8E0,1.8E1,1.6E1,9.91008E0,5.9494205E0,1.2998182E1,4.3E0,8E0,3.2E0,3E0,1.356E1,3.4E1,1.4E1,-1.5045603E-2,-2.4908148E-2,-2.7214725E-2,6.415662E-3,-1.9226983E-2,-5.621234E-3,-2.1593187E-2,2.6074449E-2,7.0551303E-3,2.6870182E-2,-4.346255E-2,3.6072597E-2,-3.55338E-2,2.9402126E-2,3.0102972E-2,3.7144106E-2],"split_indices":[6,33,54,11,27,52,42,9,22,15,22,24,2,17,37,0,0,0,0,0,0,0,0,0,0,0,0,0,0,0,0],"split_type":[0,0,0,0,0,0,0,0,0,0,0,0,0,0,0,0,0,0,0,0,0,0,0,0,0,0,0,0,0,0,0],"sum_hessian":[1.7366756E4,8.685873E3,8.680883E3,8.191819E3,4.940542E2,6.1022197E3,2.578663E3,3.6544812E3,4.537338E3,4.448929E2,4.916126E1,5.83823E3,2.639896E2,4.850191E0,2.5738127E3,7.800262E2,2.874455E3,4.5293037E3,8.034161E0,1.6861763E2,2.762753E2,1.0024868E1,3.913639E1,1.6817057E3,4.1565244E3,2.3071259E2,3.327699E1,2.1276283E0,2.722563E0,1.0582053E2,2.4679924E3],"tree_param":{"num_deleted":"0","num_feature":"59","num_nodes":"31","size_leaf_vector":"1"}},{"base_weights":[-1.280772E-3,-7.910461E-1,7.905906E-1,-9.859992E-1,3.4572862E-2,6.127928E-1,1.2201642E0,-1.0926621E0,-7.564555E-1,-3.1358194E-1,4.10778E-1,6.893833E-1,-1.118222E0,8.1628937E-1,1.2257943E0,-3.3143725E-2,-1.4270139E-2,-3.2180455E-2,-1.8641952E-2,-2.5170913E-2,-2.7474996E-3,-4.696889E-3,2.2887232E-2,6.3576247E-3,2.6503494E-2,-4.3024696E-2,3.4713697E-2,-4.583009E-3,2.7800051E-2,8.629617E-3,3.679362E-2],"categories":[],"categories_nodes":[],"categories_segments":[],"categories_sizes":[],"default_left":[0,0,0,0,0,1,0,0,0,0,0,0,0,0,0,0,0,0,0,0,0,0,0,0,0,0,0,0,0,0,0],"id":34,"left_children":[1,3,5,7,9,11,13,15,17,19,21,23,25,27,29,-1,-1,-1,-1,-1,-1,-1,-1,-1,-1,-1,-1,-1,-1,-1,-1],"loss_changes":[1.0706091E4,1.3795796E3,6.521333E2,1.6893604E2,2.1469737E2,8.025835E2,4.6865234E0,3.48833E1,9.3420044E1,9.9236824E1,1.5750777E2,5.365117E2,1.8614355E2,4.1401787E0,1.1728516E0,0E0,0E0,0E0,0E0,0E0,0E0,0E0,0E0,0E0,0E0,0E0,0E0,0E0,0E0,0E0,0E0],"parents":[2147483647,0,0,1,1,2,2,3,3,4,4,5,5,6,6,7,7,8,8,9,9,10,10,11,11,12,12,13,13,14,14],"right_children":[2,4,6,8,10,12,14,16,18,20,22,24,26,28,30,-1,-1,-1,-1,-1,-1,-1,-1,-1,-1,-1,-1,-1,-1,-1,-1],"split_conditions":[1E0,3.4E0,6.8E0,2.7E0,3.9E0,9.91008E0,3E0,5E0,7.6E0,6.75E0,5E0,3E0,7.24E0,5.290026E0,5.921082E0,-3.3143725E-2,-1.4270139E-2,-3.2180455E-2,-1.8641952E-2,-2.5170913E-2,-2.7474996E-3,-4.696889E-3,2.2887232E-2,6.3576247E-3,2.6503494E-2,-4.3024696E-2,3.4713697E-2,-4.583009E-3,2.7800051E-2,8.629617E-3,3.679362E-2],"split_indices":[6,0,54,0,0,52,27,21,2,2,40,24,2,39,42,0,0,0,0,0,0,0,0,0,0,0,0,0,0,0,0],"split_type":[0,0,0,0,0,0,0,0,0,0,0,0,0,0,0,0,0,0,0,0,0,0,0,0,0,0,0,0,0,0,0],"sum_hessian":[1.7116994E4,8.569895E3,8.547101E3,6.9326865E3,1.6372076E3,6.046796E3,2.5003044E3,4.730698E3,2.2019885E3,8.5039014E2,7.868175E2,5.791162E3,2.5563416E2,3.638296E1,2.4639216E3,4.63872E3,9.197816E1,6.569184E2,1.5450701E3,2.5174812E2,5.98642E2,3.0154025E2,4.8527728E2,1.6742037E3,4.116958E3,2.247913E2,3.0842854E1,3.6811173E0,3.2701843E1,2.0385485E0,2.461883E3],"tree_param":{"num_deleted":"0","num_feature":"59","num_nodes":"31","size_leaf_vector":"1"}},{"base_weights":[4.676153E-3,7.861274E-1,-7.680196E-1,6.1162007E-1,1.2094429E0,-9.7734964E-1,-2.294317E-2,6.872896E-1,-1.0489407E0,9.2834437E-1,3.661303E-2,-1.0902958E0,-7.819431E-1,-3.0142528E-1,4.4157562E-1,6.444895E-3,2.6207319E-2,-4.2140175E-2,3.5676155E-2,-3.3390272E-2,2.9998578E-2,-4.77409E-3,-3.305557E-2,-3.383084E-2,-2.0764634E-2,4.1466616E-3,-1.8689273E-2,-1.0131705E-2,1.9806735E-2],"categories":[],"categories_nodes":[],"categories_segments":[],"categories_sizes":[],"default_left":[0,1,0,1,0,0,0,1,0,0,0,0,0,0,0,0,0,0,0,0,0,0,0,0,0,0,0,0,0],"id":35,"left_children":[1,3,5,7,9,11,13,15,17,19,-1,21,23,25,27,-1,-1,-1,-1,-1,-1,-1,-1,-1,-1,-1,-1,-1,-1],"loss_changes":[1.022804E4,6.213833E2,1.3283638E3,7.502925E2,6.4594727E0,1.4589404E2,2.4191776E2,5.0201562E2,2.0898163E2,1.52407E1,0E0,4.513965E1,7.493689E1,1.6536465E2,1.1965999E2,0E0,0E0,0E0,0E0,0E0,0E0,0E0,0E0,0E0,0E0,0E0,0E0,0E0,0E0],"parents":[2147483647,0,0,1,1,2,2,3,3,4,4,5,5,6,6,7,7,8,8,9,9,11,11,12,12,13,13,14,14],"right_children":[2,4,6,8,10,12,14,16,18,20,-1,22,24,26,28,-1,-1,-1,-1,-1,-1,-1,-1,-1,-1,-1,-1,-1,-1],"split_conditions":[3.2530613E-6,6.8E0,3.3E0,9.91008E0,1.4E1,2.6E0,4E0,6.1143026E0,1.356E1,4.4E0,3.661303E-2,3.4400853E-6,6.59E0,1.3E1,5.34E0,6.444895E-3,2.6207319E-2,-4.2140175E-2,3.5676155E-2,-3.3390272E-2,2.9998578E-2,-4.77409E-3,-3.305557E-2,-3.383084E-2,-2.0764634E-2,4.1466616E-3,-1.8689273E-2,-1.0131705E-2,1.9806735E-2],"split_indices":[4,54,0,52,37,0,0,39,2,10,0,4,2,1,2,0,0,0,0,0,0,0,0,0,0,0,0,0,0],"split_type":[0,0,0,0,0,0,0,0,0,0,0,0,0,0,0,0,0,0,0,0,0,0,0,0,0,0,0,0,0],"sum_hessian":[1.6936773E4,8.420671E3,8.516104E3,5.9643677E3,2.4563032E3,6.6480225E3,1.8680809E3,5.704985E3,2.5938242E2,9.564766E1,2.3606555E3,4.210025E3,2.4379976E3,1.1681302E3,6.9995074E2,1.613926E3,4.091059E3,2.2413129E2,3.5251125E1,2.7486355E0,9.2899025E1,5.1791283E1,4.158234E3,5.002212E2,1.9377765E3,4.9369055E2,6.744397E2,1.5323882E2,5.467119E2],"tree_param":{"num_deleted":"0","num_feature":"59","num_nodes":"29","size_leaf_vector":"1"}},{"base_weights":[2.7947894E-3,-7.6073635E-1,7.675745E-1,-9.689569E-1,-2.9964356E-2,5.9386104E-1,1.2001638E0,-1.0805455E0,-7.7728343E-1,-3.0416158E-1,4.2517287E-1,6.6706496E-1,-8.63118E-1,8.989237E-1,3.6374744E-2,-2.5107525E-2,-3.311347E-2,-2.521968E-2,-8.295518E-3,-2.4913449E-2,-2.1399038E-3,-1.3904717E-2,1.8334465E-2,9.829225E-3,2.789571E-2,-4.2174235E-2,3.2747842E-2,1.22756455E-2,3.611922E-2],"categories":[],"categories_nodes":[],"categories_segments":[],"categories_sizes":[],"default_left":[0,0,1,0,0,1,0,0,0,0,0,0,0,0,0,0,0,0,0,0,0,0,0,0,0,0,0,0,0],"id":36,"left_children":[1,3,5,7,9,11,13,15,17,19,21,23,25,27,-1,-1,-1,-1,-1,-1,-1,-1,-1,-1,-1,-1,-1,-1,-1],"loss_changes":[9.73796E3,1.2697705E3,6.253662E2,1.3806885E2,2.311967E2,6.3479346E2,7.77124E0,2.2299316E1,7.5718506E1,1.415958E2,1.1539608E2,5.0477393E2,3.037672E2,1.4099236E1,0E0,0E0,0E0,0E0,0E0,0E0,0E0,0E0,0E0,0E0,0E0,0E0,0E0,0E0,0E0],"parents":[2147483647,0,0,1,1,2,2,3,3,4,4,5,5,6,6,7,7,8,8,9,9,10,10,11,11,12,12,13,13],"right_children":[2,4,6,8,10,12,14,16,18,20,22,24,26,28,-1,-1,-1,-1,-1,-1,-1,-1,-1,-1,-1,-1,-1,-1,-1],"split_conditions":[1E0,3.3E0,6.8E0,2.6E0,4E0,9.910198E0,1.4E1,3.7E0,5E0,7.04E0,4.88E0,5E0,7.33E0,6.1E0,3.6374744E-2,-2.5107525E-2,-3.311347E-2,-2.521968E-2,-8.295518E-3,-2.4913449E-2,-2.1399038E-3,-1.3904717E-2,1.8334465E-2,9.829225E-3,2.789571E-2,-4.2174235E-2,3.2747842E-2,1.22756455E-2,3.611922E-2],"split_indices":[6,0,54,0,0,55,37,19,34,2,2,24,2,41,0,0,0,0,0,0,0,0,0,0,0,0,0,0,0],"split_type":[0,0,0,0,0,0,0,0,0,0,0,0,0,0,0,0,0,0,0,0,0,0,0,0,0,0,0,0,0],"sum_hessian":[1.6674498E4,8.344063E3,8.330436E3,6.4935225E3,1.8505406E3,5.9453525E3,2.3850828E3,4.101228E3,2.3922947E3,1.1550269E3,6.9551373E2,5.6614434E3,2.8390933E2,9.667386E1,2.288409E3,3.6032968E2,3.7408982E3,2.1229534E3,2.693412E2,3.5347455E2,8.0155237E2,1.2010662E2,5.754071E2,2.4714924E3,3.1899507E3,2.2243513E2,6.1474194E1,3.8003483E1,5.8670376E1],"tree_param":{"num_deleted":"0","num_feature":"59","num_nodes":"29","size_leaf_vector":"1"}},{"base_weights":[3.2628803E-3,-7.523112E-1,7.591452E-1,-9.664963E-1,-1.5715495E-2,5.857076E-1,1.1934284E0,-1.0369287E0,-6.486739E-1,-1.9915077E-1,6.576569E-1,6.577425E-1,-1.0573409E0,8.586493E-1,3.6073398E-2,-3.2895096E-2,-2.75698E-2,-9.634568E-3,-2.4858953E-2,-1.0019359E-2,3.0632254E-2,8.028112E-3,3.2260485E-2,8.469107E-3,2.6554257E-2,-4.1489862E-2,3.4933403E-2,-2.8469462E-2,2.793902E-2],"categories":[],"categories_nodes":[],"categories_segments":[],"categories_sizes":[],"default_left":[0,0,0,0,0,1,0,0,0,0,0,1,0,0,0,0,0,0,0,0,0,0,0,0,0,0,0,0,0],"id":37,"left_children":[1,3,5,7,9,11,13,15,17,19,21,23,25,27,-1,-1,-1,-1,-1,-1,-1,-1,-1,-1,-1,-1,-1,-1,-1],"loss_changes":[9.373552E3,1.2949268E3,6.172749E2,1.4166943E2,2.2864735E2,6.9485925E2,6.0336914E0,3.5552734E1,6.788144E1,2.3967274E2,6.4279755E1,4.7949463E2,1.8012E2,9.405815E0,0E0,0E0,0E0,0E0,0E0,0E0,0E0,0E0,0E0,0E0,0E0,0E0,0E0,0E0,0E0],"parents":[2147483647,0,0,1,1,2,2,3,3,4,4,5,5,6,6,7,7,8,8,9,9,10,10,11,11,12,12,13,13],"right_children":[2,4,6,8,10,12,14,16,18,20,22,24,26,28,-1,-1,-1,-1,-1,-1,-1,-1,-1,-1,-1,-1,-1,-1,-1],"split_conditions":[1E0,3.3E0,6.8E0,2.9E0,7E0,9.91008E0,5E0,2E0,6.922847E0,4.9E0,3.8E0,6.62232E0,1.356E1,5.9347854E0,3.6073398E-2,-3.2895096E-2,-2.75698E-2,-9.634568E-3,-2.4858953E-2,-1.0019359E-2,3.0632254E-2,8.028112E-3,3.2260485E-2,8.469107E-3,2.6554257E-2,-4.1489862E-2,3.4933403E-2,-2.8469462E-2,2.793902E-2],"split_indices":[6,0,54,0,37,52,27,44,56,0,0,39,2,42,0,0,0,0,0,0,0,0,0,0,0,0,0,0,0],"split_type":[0,0,0,0,0,0,0,0,0,0,0,0,0,0,0,0,0,0,0,0,0,0,0,0,0,0,0,0,0],"sum_hessian":[1.6410432E4,8.206892E3,8.20354E3,6.35786E3,1.8490315E3,5.864009E3,2.3395317E3,5.202643E3,1.1552168E3,1.453723E3,3.9530853E2,5.61829E3,2.4571858E2,6.389168E1,2.2756401E3,3.4510586E3,1.7515846E3,4.106403E2,7.4457654E2,1.3097316E3,1.4399144E2,2.0526604E2,1.900425E2,2.1201465E3,3.4981436E3,2.146362E2,3.1082382E1,2.002619E0,6.1889065E1],"tree_param":{"num_deleted":"0","num_feature":"59","num_nodes":"29","size_leaf_vector":"1"}},{"base_weights":[-5.748376E-3,7.46117E-1,-7.478185E-1,3.3408713E-1,9.301405E-1,-9.5110303E-1,-4.6122145E-2,-2.8952965E-1,5.4710776E-1,3.9267653E-1,1.0866921E0,-1.0299642E0,-6.979798E-1,-2.574357E-1,5.163255E-1,-1.6675306E-2,1.0136919E-2,-7.722718E-3,1.9859027E-2,-2.7867584E-2,2.5479933E-2,2.3814421E-2,3.5360597E-2,-3.135594E-2,-1.3277282E-2,-2.999414E-2,-1.6483076E-2,2.2004938E-3,-2.0840837E-2,2.1812452E-2,-1.0250701E-2],"categories":[],"categories_nodes":[],"categories_segments":[],"categories_sizes":[],"default_left":[0,0,0,0,0,0,0,0,0,0,0,0,0,0,0,0,0,0,0,0,0,0,0,0,0,0,0,0,0,0,0],"id":38,"left_children":[1,3,5,7,9,11,13,15,17,19,21,23,25,27,29,-1,-1,-1,-1,-1,-1,-1,-1,-1,-1,-1,-1,-1,-1,-1,-1],"loss_changes":[9.028269E3,6.091338E2,1.1616206E3,3.3002127E2,4.6702832E2,1.2532764E2,2.1767899E2,1.0593881E2,1.7123761E2,7.58057E2,1.1496973E2,4.259912E1,6.6839294E1,1.925904E2,9.070224E1,0E0,0E0,0E0,0E0,0E0,0E0,0E0,0E0,0E0,0E0,0E0,0E0,0E0,0E0,0E0,0E0],"parents":[2147483647,0,0,1,1,2,2,3,3,4,4,5,5,6,6,7,7,8,8,9,9,10,10,11,11,12,12,13,13,14,14],"right_children":[2,4,6,8,10,12,14,16,18,20,22,24,26,28,30,-1,-1,-1,-1,-1,-1,-1,-1,-1,-1,-1,-1,-1,-1,-1,-1],"split_conditions":[3.2530613E-6,7E0,3.3E0,4E0,7.24E0,2.8E0,4.2E0,3.1E0,3.098909E0,1.2503E2,5.2E0,2E0,8.18E0,1.9E1,8.4E1,-1.6675306E-2,1.0136919E-2,-7.722718E-3,1.9859027E-2,-2.7867584E-2,2.5479933E-2,2.3814421E-2,3.5360597E-2,-3.135594E-2,-1.3277282E-2,-2.999414E-2,-1.6483076E-2,2.2004938E-3,-2.0840837E-2,2.1812452E-2,-1.0250701E-2],"split_indices":[4,27,0,10,2,0,0,0,9,3,51,18,2,1,1,0,0,0,0,0,0,0,0,0,0,0,0,0,0,0,0],"split_type":[0,0,0,0,0,0,0,0,0,0,0,0,0,0,0,0,0,0,0,0,0,0,0,0,0,0,0,0,0,0,0],"sum_hessian":[1.6179523E4,8.036718E3,8.142806E3,2.4820984E3,5.554619E3,6.3134243E3,1.829382E3,6.3188873E2,1.8502098E3,1.253767E3,4.300852E3,4.811363E3,1.5020614E3,1.3301733E3,4.992086E2,4.4368073E2,1.88208E2,2.3099211E2,1.6192177E3,3.217017E2,9.320653E2,1.0303162E3,3.270536E3,4.688976E3,1.2238697E2,4.9353088E2,1.0085305E3,7.577609E2,5.724125E2,4.0088974E2,9.8318855E1],"tree_param":{"num_deleted":"0","num_feature":"59","num_nodes":"31","size_leaf_vector":"1"}},{"base_weights":[1.1036965E-3,-7.2982794E-1,7.3235846E-1,-5.411837E-1,-9.108463E-1,5.5934775E-1,1.1789507E0,-2.4502924E-1,-6.363979E-1,-9.20244E-1,-1.0404292E-2,6.2938166E-1,-1.025752E0,8.7602717E-1,3.574619E-2,-4.1169766E-3,-1.9861635E-2,-2.0492785E-2,-1.0152356E-2,-2.797834E-2,-1.6975801E-2,-6.624274E-3,4.1100048E-2,7.568232E-3,2.5925322E-2,-4.0488675E-2,3.548984E-2,-4.275053E-3,2.9208248E-2],"categories":[],"categories_nodes":[],"categories_segments":[],"categories_sizes":[],"default_left":[0,0,1,0,0,1,0,0,0,1,1,1,0,0,0,0,0,0,0,0,0,0,0,0,0,0,0,0,0],"id":39,"left_children":[1,3,5,7,9,11,13,15,17,19,21,23,25,27,-1,-1,-1,-1,-1,-1,-1,-1,-1,-1,-1,-1,-1,-1,-1],"loss_changes":[8.523336E3,2.718379E2,6.152573E2,1.1003381E2,3.4416504E1,6.386804E2,7.441162E0,4.2719315E1,4.0905396E1,1.7118652E1,1.2801078E1,4.872063E2,1.7583768E2,9.337509E0,0E0,0E0,0E0,0E0,0E0,0E0,0E0,0E0,0E0,0E0,0E0,0E0,0E0,0E0,0E0],"parents":[2147483647,0,0,1,1,2,2,3,3,4,4,5,5,6,6,7,7,8,8,9,9,10,10,11,11,12,12,13,13],"right_children":[2,4,6,8,10,12,14,16,18,20,22,24,26,28,-1,-1,-1,-1,-1,-1,-1,-1,-1,-1,-1,-1,-1,-1,-1],"split_conditions":[1E0,2.1E1,6.8E0,1.2998182E1,1.1E1,9.91008E0,3E0,2.1E1,4E0,3.3E0,7.958343E0,6.62232E0,1.356E1,6E0,3.574619E-2,-4.1169766E-3,-1.9861635E-2,-2.0492785E-2,-1.0152356E-2,-2.797834E-2,-1.6975801E-2,-6.624274E-3,4.1100048E-2,7.568232E-3,2.5925322E-2,-4.0488675E-2,3.548984E-2,-4.275053E-3,2.9208248E-2],"split_indices":[6,1,54,9,24,52,24,11,34,32,49,39,2,10,0,0,0,0,0,0,0,0,0,0,0,0,0,0,0],"split_type":[0,0,0,0,0,0,0,0,0,0,0,0,0,0,0,0,0,0,0,0,0,0,0,0,0,0,0,0,0],"sum_hessian":[1.5944457E4,7.973991E3,7.9704653E3,3.9067007E3,4.0672903E3,5.7465093E3,2.223956E3,9.5131177E2,2.955389E3,4.0252578E3,4.203262E1,5.503934E3,2.4257527E2,9.155291E1,2.132403E3,7.569716E2,1.9434018E2,2.5538965E3,4.014925E2,3.8879438E3,1.3731403E2,3.720221E1,4.830411E0,2.112733E3,3.3912014E3,2.1189403E2,3.0681252E1,7.964196E0,8.3588715E1],"tree_param":{"num_deleted":"0","num_feature":"59","num_nodes":"29","size_leaf_vector":"1"}},{"base_weights":[-1.9501497E-3,7.2648525E-1,-7.214113E-1,5.5563974E-1,1.1714901E0,-5.2629805E-1,-8.808717E-1,6.2558496E-1,-1.0041275E0,8.390895E-1,3.5563305E-2,-6.234059E-1,-2.5904605E-1,-5.141772E-1,-9.054253E-1,5.987681E-3,2.4728253E-2,3.1886704E-2,-4.062342E-2,6.0461103E-3,3.527537E-2,-2.6238956E-2,-1.737143E-2,-1.0530459E-2,3.18566E-3,-1.9569913E-2,1.08233215E-2,-2.8269557E-2,-2.4103545E-2],"categories":[],"categories_nodes":[],"categories_segments":[],"categories_sizes":[],"default_left":[0,1,0,1,0,1,0,1,0,0,0,0,1,0,1,0,0,0,0,0,0,0,0,0,0,0,0,0,0],"id":40,"left_children":[1,3,5,7,9,11,13,15,17,19,-1,21,23,25,27,-1,-1,-1,-1,-1,-1,-1,-1,-1,-1,-1,-1,-1,-1],"loss_changes":[8.272931E3,5.956953E2,2.4662598E2,6.191913E2,9.093994E0,9.259357E1,3.8868164E1,4.5918774E2,1.7775581E2,1.9311539E1,0E0,2.8699707E1,3.209115E1,3.365541E1,1.464209E1,0E0,0E0,0E0,0E0,0E0,0E0,0E0,0E0,0E0,0E0,0E0,0E0,0E0,0E0],"parents":[2147483647,0,0,1,1,2,2,3,3,4,4,5,5,6,6,7,7,8,8,9,9,11,11,12,12,13,13,14,14],"right_children":[2,4,6,8,10,12,14,16,18,20,-1,22,24,26,28,-1,-1,-1,-1,-1,-1,-1,-1,-1,-1,-1,-1,-1,-1],"split_conditions":[3.2530613E-6,6.8E0,1.9E1,9.91008E0,1.4E1,2.9E0,5.5579258E-6,6.633448E0,6E1,6.1E0,3.5563305E-2,7.6E0,5.256845E0,2E1,4.05103E0,5.987681E-3,2.4728253E-2,3.1886704E-2,-4.062342E-2,6.0461103E-3,3.527537E-2,-2.6238956E-2,-1.737143E-2,-1.0530459E-2,3.18566E-3,-1.9569913E-2,1.08233215E-2,-2.8269557E-2,-2.4103545E-2],"split_indices":[4,54,1,52,37,45,4,42,37,41,0,2,33,34,46,0,0,0,0,0,0,0,0,0,0,0,0,0,0],"split_type":[0,0,0,0,0,0,0,0,0,0,0,0,0,0,0,0,0,0,0,0,0,0,0,0,0,0,0,0,0],"sum_hessian":[1.5783596E4,7.8428784E3,7.9407173E3,5.6687793E3,2.1740994E3,3.5730686E3,4.3676484E3,5.4260557E3,2.4272366E2,9.005045E1,2.0840488E3,2.6198103E3,9.532583E2,2.7547812E2,4.0921704E3,1.7264713E3,3.699584E3,3.4851856E1,2.0787181E2,3.1677174E1,5.837328E1,3.903448E2,2.2294656E3,7.6153595E2,1.9172238E2,2.3813208E2,3.734605E1,2.998938E3,1.0932323E3],"tree_param":{"num_deleted":"0","num_feature":"59","num_nodes":"29","size_leaf_vector":"1"}},{"base_weights":[-2.9800772E-3,-7.1284324E-1,7.0915353E-1,-9.1228807E-1,6.0048867E-2,5.383226E-1,1.1631898E0,-1.0091525E0,-6.4508146E-1,-5.8911134E-2,1.0762368E0,-9.987491E-2,7.074173E-1,8.3309895E-1,3.533065E-2,-3.0767709E-2,-1.0970458E-2,-1.2235148E-2,-2.5817579E-2,-2.0482432E-2,5.603382E-3,3.5595942E-2,4.9980235E-4,1.919714E-2,-4.4244405E-2,9.932651E-3,3.1055348E-2,-4.2405145E-4,2.816828E-2],"categories":[],"categories_nodes":[],"categories_segments":[],"categories_sizes":[],"default_left":[0,0,0,0,0,0,0,0,0,0,1,0,0,0,0,0,0,0,0,0,0,0,0,0,0,0,0,0,0],"id":41,"left_children":[1,3,5,7,9,11,13,15,17,19,21,23,25,27,-1,-1,-1,-1,-1,-1,-1,-1,-1,-1,-1,-1,-1,-1,-1],"loss_changes":[7.8884385E3,1.2047007E3,6.035842E2,1.6013086E2,1.9395226E2,6.110995E2,9.206787E0,4.782959E1,8.428992E1,2.2034174E2,1.9629532E1,1.2081526E3,5.517832E2,8.351753E0,0E0,0E0,0E0,0E0,0E0,0E0,0E0,0E0,0E0,0E0,0E0,0E0,0E0,0E0,0E0],"parents":[2147483647,0,0,1,1,2,2,3,3,4,4,5,5,6,6,7,7,8,8,9,9,10,10,11,11,12,12,13,13],"right_children":[2,4,6,8,10,12,14,16,18,20,22,24,26,28,-1,-1,-1,-1,-1,-1,-1,-1,-1,-1,-1,-1,-1,-1,-1],"split_conditions":[1E0,3.4E0,6.8E0,2.8E0,4.9E0,7.16E0,7E0,2E0,2E1,6.59E0,4E0,2.89E2,6E0,3.5E0,3.533065E-2,-3.0767709E-2,-1.0970458E-2,-1.2235148E-2,-2.5817579E-2,-2.0482432E-2,5.603382E-3,3.5595942E-2,4.9980235E-4,1.919714E-2,-4.4244405E-2,9.932651E-3,3.1055348E-2,-4.2405145E-4,2.816828E-2],"split_indices":[6,0,54,0,0,2,27,18,11,2,57,14,24,38,0,0,0,0,0,0,0,0,0,0,0,0,0,0,0],"split_type":[0,0,0,0,0,0,0,0,0,0,0,0,0,0,0,0,0,0,0,0,0,0,0,0,0,0,0,0,0],"sum_hessian":[1.5602683E4,7.813797E3,7.7888857E3,6.210895E3,1.602902E3,5.6610894E3,2.1277964E3,4.556391E3,1.6545037E3,1.4357661E3,1.6713586E2,1.1858525E3,4.475237E3,9.1986176E1,2.0358103E3,4.442316E3,1.1407527E2,7.8890826E2,8.6559546E2,4.051824E2,1.0305837E3,1.5126991E2,1.5865951E1,7.7136017E2,4.144923E2,2.0842036E3,2.391033E3,1.0311721E1,8.167446E1],"tree_param":{"num_deleted":"0","num_feature":"59","num_nodes":"29","size_leaf_vector":"1"}},{"base_weights":[2.6775282E-4,-7.031199E-1,7.0445615E-1,-4.934452E-1,-8.767485E-1,5.356872E-1,1.1592292E0,-6.213457E-1,-3.018834E-1,-8.97092E-1,-4.1385257E-1,5.9970295E-1,-9.9374676E-1,8.372747E-1,3.5119608E-2,-2.5718652E-2,-1.729316E-2,-5.0252345E-3,-1.6850768E-2,-2.702161E-2,2.8825052E-2,-1.9830177E-2,-2.3618175E-3,5.4155607E-3,2.3514936E-2,-3.9222974E-2,3.3815913E-2,-1.1158199E-2,2.8019685E-2],"categories":[],"categories_nodes":[],"categories_segments":[],"categories_sizes":[],"default_left":[0,0,1,1,1,1,0,0,0,0,1,0,0,0,0,0,0,0,0,0,0,0,0,0,0,0,0,0,0],"id":42,"left_children":[1,3,5,7,9,11,13,15,17,19,21,23,25,27,-1,-1,-1,-1,-1,-1,-1,-1,-1,-1,-1,-1,-1,-1,-1],"loss_changes":[7.608462E3,2.7933496E2,5.8852515E2,8.515692E1,3.920288E1,5.48907E2,6.6586914E0,2.1626953E1,4.8661743E1,2.7996338E1,1.4755079E1,4.1479126E2,1.5141032E2,9.081001E0,0E0,0E0,0E0,0E0,0E0,0E0,0E0,0E0,0E0,0E0,0E0,0E0,0E0,0E0,0E0],"parents":[2147483647,0,0,1,1,2,2,3,3,4,4,5,5,6,6,7,7,8,8,9,9,10,10,11,11,12,12,13,13],"right_children":[2,4,6,8,10,12,14,16,18,20,22,24,26,28,-1,-1,-1,-1,-1,-1,-1,-1,-1,-1,-1,-1,-1,-1,-1],"split_conditions":[1E0,1.9E1,6.8E0,3.6370778E0,4.871082E0,9.91008E0,6E0,7.6E0,1.9E1,3.78E2,2.9E0,3E0,1.356E1,3E0,3.5119608E-2,-2.5718652E-2,-1.729316E-2,-5.0252345E-3,-1.6850768E-2,-2.702161E-2,2.8825052E-2,-1.9830177E-2,-2.3618175E-3,5.4155607E-3,2.3514936E-2,-3.9222974E-2,3.3815913E-2,-1.1158199E-2,2.8019685E-2],"split_indices":[6,1,54,46,33,52,27,2,11,40,25,24,2,1,0,0,0,0,0,0,0,0,0,0,0,0,0,0,0],"split_type":[0,0,0,0,0,0,0,0,0,0,0,0,0,0,0,0,0,0,0,0,0,0,0,0,0,0,0,0,0],"sum_hessian":[1.5358779E4,7.6837593E3,7.67502E3,3.4823271E3,4.201432E3,5.599274E3,2.075746E3,2.086791E3,1.3955363E3,4.0236611E3,1.7777095E2,5.37491E3,2.2436354E2,7.367875E1,2.0020673E3,3.307788E2,1.7560121E3,9.2088885E2,4.746474E2,4.0163328E3,7.328316E0,1.0175484E2,7.601612E1,1.6410028E3,3.7339075E3,1.9578995E2,2.85736E1,5.245769E0,6.8432976E1],"tree_param":{"num_deleted":"0","num_feature":"59","num_nodes":"29","size_leaf_vector":"1"}},{"base_weights":[4.1337875E-3,6.8675315E-1,-6.7921776E-1,2.7530107E-1,8.8020784E-1,-9.077311E-1,4.990562E-2,4.4628236E-2,8.3943677E-1,3.762234E-1,1.0485226E0,-1.0268626E0,-7.11054E-1,-1.3044527E-1,7.095634E-1,-3.7310165E-3,3.383825E-2,-9.5690135E-3,3.0333105E-2,-2.539348E-2,2.256099E-2,2.3291256E-2,3.4440313E-2,-3.246452E-2,-2.7693592E-2,-3.2014247E-2,-1.8493103E-2,-7.296895E-3,3.4725085E-2,1.1904699E-2,3.505504E-2],"categories":[],"categories_nodes":[],"categories_segments":[],"categories_sizes":[],"default_left":[0,1,0,0,0,0,0,0,0,0,0,0,0,0,0,0,0,0,0,0,0,0,0,0,0,0,0,0,0,0,0],"id":43,"left_children":[1,3,5,7,9,11,13,15,17,19,21,23,25,27,29,-1,-1,-1,-1,-1,-1,-1,-1,-1,-1,-1,-1,-1,-1,-1,-1],"loss_changes":[7.087626E3,6.047908E2,1.2651543E3,3.1648984E2,4.3814893E2,