{"learner":{"attributes":{"best_iteration":"491","best_score":"0.11118179707928638","scikit_learn":"{\"_estimator_type\": \"classifier\"}"},"feature_names":["magnitude","depth_km","latitude","longitude","eta","log10_eta","is_strong_link","has_parent","parent_time_gap_days","parent_distance_km","parent_magnitude","parent_depth_km","event_year","event_month","event_dayofyear","event_hour","event_weekday","events_past_1d","local_events_10km_past_1d","local_max_mag_10km_past_1d","local_log10_energy_10km_past_1d","local_events_25km_past_1d","local_max_mag_25km_past_1d","local_log10_energy_25km_past_1d","local_events_50km_past_1d","local_max_mag_50km_past_1d","local_log10_energy_50km_past_1d","local_events_100km_past_1d","local_max_mag_100km_past_1d","local_log10_energy_100km_past_1d","events_past_7d","local_events_10km_past_7d","local_max_mag_10km_past_7d","local_log10_energy_10km_past_7d","local_events_25km_past_7d","local_max_mag_25km_past_7d","local_log10_energy_25km_past_7d","local_events_50km_past_7d","local_max_mag_50km_past_7d","local_log10_energy_50km_past_7d","local_events_100km_past_7d","local_max_mag_100km_past_7d","local_log10_energy_100km_past_7d","events_past_30d","local_events_10km_past_30d","local_max_mag_10km_past_30d","local_log10_energy_10km_past_30d","local_events_25km_past_30d","local_max_mag_25km_past_30d","local_log10_energy_25km_past_30d","local_events_50km_past_30d","local_max_mag_50km_past_30d","local_log10_energy_50km_past_30d","local_events_100km_past_30d","local_max_mag_100km_past_30d","local_log10_energy_100km_past_30d","nearest_recent_event_distance_km_past_30d","nearest_recent_event_magnitude_past_30d","nearest_recent_event_age_days_past_30d"],"feature_types":["float","float","float","float","float","float","int","int","float","float","float","float","int","int","int","int","int","int","int","float","float","int","float","float","int","float","float","int","float","float","int","int","float","float","int","float","float","int","float","float","int","float","float","int","int","float","float","int","float","float","int","float","float","int","float","float","float","float","float"],"gradient_booster":{"model":{"cats":{"enc":[],"feature_segments":[],"sorted_idx":[]},"gbtree_model_param":{"num_parallel_tree":"1","num_trees":"592"},"iteration_indptr":[0,1,2,3,4,5,6,7,8,9,10,11,12,13,14,15,16,17,18,19,20,21,22,23,24,25,26,27,28,29,30,31,32,33,34,35,36,37,38,39,40,41,42,43,44,45,46,47,48,49,50,51,52,53,54,55,56,57,58,59,60,61,62,63,64,65,66,67,68,69,70,71,72,73,74,75,76,77,78,79,80,81,82,83,84,85,86,87,88,89,90,91,92,93,94,95,96,97,98,99,100,101,102,103,104,105,106,107,108,109,110,111,112,113,114,115,116,117,118,119,120,121,122,123,124,125,126,127,128,129,130,131,132,133,134,135,136,137,138,139,140,141,142,143,144,145,146,147,148,149,150,151,152,153,154,155,156,157,158,159,160,161,162,163,164,165,166,167,168,169,170,171,172,173,174,175,176,177,178,179,180,181,182,183,184,185,186,187,188,189,190,191,192,193,194,195,196,197,198,199,200,201,202,203,204,205,206,207,208,209,210,211,212,213,214,215,216,217,218,219,220,221,222,223,224,225,226,227,228,229,230,231,232,233,234,235,236,237,238,239,240,241,242,243,244,245,246,247,248,249,250,251,252,253,254,255,256,257,258,259,260,261,262,263,264,265,266,267,268,269,270,271,272,273,274,275,276,277,278,279,280,281,282,283,284,285,286,287,288,289,290,291,292,293,294,295,296,297,298,299,300,301,302,303,304,305,306,307,308,309,310,311,312,313,314,315,316,317,318,319,320,321,322,323,324,325,326,327,328,329,330,331,332,333,334,335,336,337,338,339,340,341,342,343,344,345,346,347,348,349,350,351,352,353,354,355,356,357,358,359,360,361,362,363,364,365,366,367,368,369,370,371,372,373,374,375,376,377,378,379,380,381,382,383,384,385,386,387,388,389,390,391,392,393,394,395,396,397,398,399,400,401,402,403,404,405,406,407,408,409,410,411,412,413,414,415,416,417,418,419,420,421,422,423,424,425,426,427,428,429,430,431,432,433,434,435,436,437,438,439,440,441,442,443,444,445,446,447,448,449,450,451,452,453,454,455,456,457,458,459,460,461,462,463,464,465,466,467,468,469,470,471,472,473,474,475,476,477,478,479,480,481,482,483,484,485,486,487,488,489,490,491,492,493,494,495,496,497,498,499,500,501,502,503,504,505,506,507,508,509,510,511,512,513,514,515,516,517,518,519,520,521,522,523,524,525,526,527,528,529,530,531,532,533,534,535,536,537,538,539,540,541,542,543,544,545,546,547,548,549,550,551,552,553,554,555,556,557,558,559,560,561,562,563,564,565,566,567,568,569,570,571,572,573,574,575,576,577,578,579,580,581,582,583,584,585,586,587,588,589,590,591,592],"tree_info":[0,0,0,0,0,0,0,0,0,0,0,0,0,0,0,0,0,0,0,0,0,0,0,0,0,0,0,0,0,0,0,0,0,0,0,0,0,0,0,0,0,0,0,0,0,0,0,0,0,0,0,0,0,0,0,0,0,0,0,0,0,0,0,0,0,0,0,0,0,0,0,0,0,0,0,0,0,0,0,0,0,0,0,0,0,0,0,0,0,0,0,0,0,0,0,0,0,0,0,0,0,0,0,0,0,0,0,0,0,0,0,0,0,0,0,0,0,0,0,0,0,0,0,0,0,0,0,0,0,0,0,0,0,0,0,0,0,0,0,0,0,0,0,0,0,0,0,0,0,0,0,0,0,0,0,0,0,0,0,0,0,0,0,0,0,0,0,0,0,0,0,0,0,0,0,0,0,0,0,0,0,0,0,0,0,0,0,0,0,0,0,0,0,0,0,0,0,0,0,0,0,0,0,0,0,0,0,0,0,0,0,0,0,0,0,0,0,0,0,0,0,0,0,0,0,0,0,0,0,0,0,0,0,0,0,0,0,0,0,0,0,0,0,0,0,0,0,0,0,0,0,0,0,0,0,0,0,0,0,0,0,0,0,0,0,0,0,0,0,0,0,0,0,0,0,0,0,0,0,0,0,0,0,0,0,0,0,0,0,0,0,0,0,0,0,0,0,0,0,0,0,0,0,0,0,0,0,0,0,0,0,0,0,0,0,0,0,0,0,0,0,0,0,0,0,0,0,0,0,0,0,0,0,0,0,0,0,0,0,0,0,0,0,0,0,0,0,0,0,0,0,0,0,0,0,0,0,0,0,0,0,0,0,0,0,0,0,0,0,0,0,0,0,0,0,0,0,0,0,0,0,0,0,0,0,0,0,0,0,0,0,0,0,0,0,0,0,0,0,0,0,0,0,0,0,0,0,0,0,0,0,0,0,0,0,0,0,0,0,0,0,0,0,0,0,0,0,0,0,0,0,0,0,0,0,0,0,0,0,0,0,0,0,0,0,0,0,0,0,0,0,0,0,0,0,0,0,0,0,0,0,0,0,0,0,0,0,0,0,0,0,0,0,0,0,0,0,0,0,0,0,0,0,0,0,0,0,0,0,0,0,0,0,0,0,0,0,0,0,0,0,0,0,0,0,0,0,0,0,0,0,0,0,0,0,0,0,0,0,0,0,0,0,0,0,0,0,0,0,0,0,0,0,0,0,0,0,0,0,0,0,0,0,0,0,0,0,0,0,0,0,0,0,0,0,0,0,0,0,0,0,0,0,0,0,0,0,0,0,0,0,0,0,0,0,0,0,0,0,0,0,0,0,0,0,0,0,0,0,0,0,0],"trees":[{"base_weights":[3.737233E-3,-1.9199307E0,1.215877E0,-1.9682415E0,1.0161058E0,2.5160185E-1,1.8626066E0,-1.9904292E0,-1.4123757E0,4.3605208E-1,1.8188405E0,-8.66988E-1,9.303997E-1,2.2686283E-1,1.8976278E0,-5.9740677E-2,-3.6606565E-2,-5.5691846E-2,-2.7846811E-2,-3.866743E-2,2.2448355E-2,2.5401426E-2,5.702027E-2,-4.8786722E-2,4.6741817E-2,3.2033645E-2,-5.8241256E-2,-2.9284224E-2,4.0473193E-2,4.8845705E-2,5.9386354E-2],"categories":[],"categories_nodes":[],"categories_segments":[],"categories_sizes":[],"default_left":[0,0,1,0,0,0,0,1,0,0,1,0,0,0,0,0,0,0,0,0,0,0,0,0,0,0,0,0,0,0,0],"id":0,"left_children":[1,3,5,7,9,11,13,15,17,19,21,23,25,27,29,-1,-1,-1,-1,-1,-1,-1,-1,-1,-1,-1,-1,-1,-1,-1,-1],"loss_changes":[6.868425E4,1.6170391E3,1.1268361E4,1.3535156E2,8.533865E1,5.509663E3,6.1915234E2,5.2539062E0,9.1450195E1,5.9507748E1,4.5385895E0,5.048313E3,1.7837378E3,3.089217E2,2.3048828E2,0E0,0E0,0E0,0E0,0E0,0E0,0E0,0E0,0E0,0E0,0E0,0E0,0E0,0E0,0E0,0E0],"parents":[2147483647,0,0,1,1,2,2,3,3,4,4,5,5,6,6,7,7,8,8,9,9,10,10,11,11,12,12,13,13,14,14],"right_children":[2,4,6,8,10,12,14,16,18,20,22,24,26,28,30,-1,-1,-1,-1,-1,-1,-1,-1,-1,-1,-1,-1,-1,-1,-1,-1],"split_conditions":[1E0,5E0,6.8E0,4E0,5.9E0,7.008458E0,4.8E0,6.1E0,7E0,3.6E0,3E0,5.0033447E1,3.83E2,2.159E3,1.255E2,-5.9740677E-2,-3.6606565E-2,-5.5691846E-2,-2.7846811E-2,-3.866743E-2,2.2448355E-2,2.5401426E-2,5.702027E-2,-4.8786722E-2,4.6741817E-2,3.2033645E-2,-5.8241256E-2,-2.9284224E-2,4.0473193E-2,4.8845705E-2,5.9386354E-2],"split_indices":[6,0,54,0,0,26,41,48,40,45,41,9,50,43,3,0,0,0,0,0,0,0,0,0,0,0,0,0,0,0,0],"split_type":[0,0,0,0,0,0,0,0,0,0,0,0,0,0,0,0,0,0,0,0,0,0,0,0,0,0,0,0,0,0,0],"sum_hessian":[2.9454041E4,1.1385171E4,1.806887E4,1.1201191E4,1.8397923E2,7.2542124E3,1.0814657E4,1.0768769E4,4.3242236E2,1.0769927E2,7.627995E1,2.7395068E3,4.5147056E3,2.2684476E2,1.05878125E4,1.0754242E4,1.45268955E1,2.2408069E2,2.0834169E2,1.6026896E1,9.167238E1,6.80379E0,6.9476166E1,2.0865708E3,6.5293585E2,4.3091787E3,2.055269E2,1.09545845E2,1.17298904E2,2.4733828E3,8.1144297E3],"tree_param":{"num_deleted":"0","num_feature":"59","num_nodes":"31","size_leaf_vector":"1"}},{"base_weights":[-2.5645504E-3,-1.8685477E0,1.1781913E0,-1.6536937E0,-1.8843255E0,2.3800041E-1,1.8086598E0,4.9857248E-2,-1.6771913E0,-1.8861196E0,-2.1733488E-1,-8.222156E-1,9.21808E-1,-2.626993E-1,1.8505813E0,3.5844084E-2,-5.0668076E-2,-5.66611E-2,-3.2113694E-2,4.9113173E-2,-5.0569866E-2,-3.2678347E-2,5.273995E-2,3.129468E-2,-5.502825E-2,4.3724008E-2,-3.277678E-2,3.9526716E-2,5.6875914E-2],"categories":[],"categories_nodes":[],"categories_segments":[],"categories_sizes":[],"default_left":[0,0,1,0,1,0,0,0,0,0,0,0,0,0,0,0,0,0,0,0,0,0,0,0,0,0,0,0,0],"id":1,"left_children":[1,3,5,7,9,11,13,-1,15,17,19,21,23,25,27,-1,-1,-1,-1,-1,-1,-1,-1,-1,-1,-1,-1,-1,-1],"loss_changes":[6.4845664E4,3.555078E1,1.0684336E4,6.421655E1,3.1351562E1,5.2471943E3,9.3741406E2,0E0,2.844336E1,2.0332031E1,3.692174E1,1.9574578E3,1.4733772E3,3.083833E2,2.5276953E2,0E0,0E0,0E0,0E0,0E0,0E0,0E0,0E0,0E0,0E0,0E0,0E0,0E0,0E0],"parents":[2147483647,0,0,1,1,2,2,3,3,4,4,5,5,6,6,8,8,9,9,10,10,11,11,12,12,13,13,14,14],"right_children":[2,4,6,8,10,12,14,-1,16,18,20,22,24,26,28,-1,-1,-1,-1,-1,-1,-1,-1,-1,-1,-1,-1,-1,-1],"split_conditions":[1E0,5.62E0,6.8E0,1.8E0,5.4E0,7.009061E0,7.50683E0,4.9857248E-2,2.1E0,1.96E2,1E0,7.1E0,5.65E2,6.3E0,2.02E3,3.5844084E-2,-5.0668076E-2,-5.66611E-2,-3.2113694E-2,4.9113173E-2,-5.0569866E-2,-3.2678347E-2,5.273995E-2,3.129468E-2,-5.502825E-2,4.3724008E-2,-3.277678E-2,3.9526716E-2,5.6875914E-2],"split_indices":[6,2,54,35,45,29,42,0,51,1,34,10,53,49,12,0,0,0,0,0,0,0,0,0,0,0,0,0,0],"split_type":[0,0,0,0,0,0,0,0,0,0,0,0,0,0,0,0,0,0,0,0,0,0,0,0,0,0,0,0,0],"sum_hessian":[2.942955E4,1.1405121E4,1.802443E4,7.874794E2,1.0617642E4,7.235626E3,1.0788805E4,5.050891E0,7.8242847E2,1.0606096E4,1.1546111E1,2.83691E3,4.3987163E3,2.1391528E2,1.0574889E4,2.7763538E0,7.796521E2,1.0571293E4,3.4802708E1,5.0514193E0,6.4946923E0,2.5713433E3,2.6556653E2,4.2138076E3,1.8490884E2,6.9368744E1,1.4454652E2,8.3039056E2,9.744498E3],"tree_param":{"num_deleted":"0","num_feature":"59","num_nodes":"29","size_leaf_vector":"1"}},{"base_weights":[-3.22905E-3,-1.8115501E0,1.1390835E0,-1.8629134E0,1.1186968E0,2.2256574E-1,1.7565572E0,-1.883719E0,-1.3443817E0,5.6538165E-1,1.842467E0,-8.1063634E-1,8.648021E-1,-1.3858318E-1,1.798631E0,-5.659337E-2,-5.1642697E-2,-5.6782335E-2,-3.0796483E-2,2.738784E-2,-2.780855E-2,5.687503E-2,1.6608963E-2,-4.556376E-2,4.55405E-2,2.9381508E-2,-5.3493652E-2,1.9888006E-2,-4.4849195E-2,3.8565505E-2,5.530238E-2],"categories":[],"categories_nodes":[],"categories_segments":[],"categories_sizes":[],"default_left":[0,0,1,0,0,0,0,0,0,0,0,0,0,0,0,0,0,0,0,0,0,0,0,0,0,0,0,0,0,0,0],"id":2,"left_children":[1,3,5,7,9,11,13,15,17,19,21,23,25,27,29,-1,-1,-1,-1,-1,-1,-1,-1,-1,-1,-1,-1,-1,-1,-1,-1],"loss_changes":[6.0602508E4,1.7115391E3,1.0174973E4,1.17890625E2,7.756503E1,4.8039478E3,8.568008E2,1.5039062E0,7.371619E1,5.9290558E1,4.769409E0,4.578827E3,1.3562446E3,2.556496E2,2.3911328E2,0E0,0E0,0E0,0E0,0E0,0E0,0E0,0E0,0E0,0E0,0E0,0E0,0E0,0E0,0E0,0E0],"parents":[2147483647,0,0,1,1,2,2,3,3,4,4,5,5,6,6,7,7,8,8,9,9,10,10,11,11,12,12,13,13,14,14],"right_children":[2,4,6,8,10,12,14,16,18,20,22,24,26,28,30,-1,-1,-1,-1,-1,-1,-1,-1,-1,-1,-1,-1,-1,-1,-1,-1],"split_conditions":[1E0,5E0,6.8E0,4E0,5.9E0,7.008458E0,7.5228176E0,3.8E0,6.25E0,1.167E1,5.6616684E1,5.0033447E1,5.65E2,6.5589695E0,2.02E3,-5.659337E-2,-5.1642697E-2,-5.6782335E-2,-3.0796483E-2,2.738784E-2,-2.780855E-2,5.687503E-2,1.6608963E-2,-4.556376E-2,4.55405E-2,2.9381508E-2,-5.3493652E-2,1.9888006E-2,-4.4849195E-2,3.8565505E-2,5.530238E-2],"split_indices":[6,0,54,0,0,26,42,0,2,2,56,9,53,39,12,0,0,0,0,0,0,0,0,0,0,0,0,0,0,0,0],"split_type":[0,0,0,0,0,0,0,0,0,0,0,0,0,0,0,0,0,0,0,0,0,0,0,0,0,0,0,0,0,0,0],"sum_hessian":[2.9335977E4,1.1356945E4,1.7979031E4,1.116166E4,1.9528476E2,7.237602E3,1.0741429E4,1.0728555E4,4.3310583E2,1.1168435E2,8.360041E1,2.7742488E3,4.4633535E3,2.3324E2,1.0508188E4,1.0540837E4,1.8771777E2,1.5710095E2,2.7600488E2,9.0902504E1,2.0781843E1,7.982412E1,3.7762873E0,2.1275862E3,6.466624E2,4.278829E3,1.8452422E2,1.4692844E2,8.631157E1,8.458667E2,9.662322E3],"tree_param":{"num_deleted":"0","num_feature":"59","num_nodes":"31","size_leaf_vector":"1"}},{"base_weights":[-6.0010143E-3,-1.763264E0,1.1071538E0,-1.8143336E0,1.0913901E0,2.3182887E-1,1.7082008E0,-1.8272483E0,-1.0350307E0,1.4727333E-1,1.468955E0,-7.993542E-1,8.6017025E-1,-1.771158E-1,1.7496338E0,-5.512324E-2,-4.716768E-2,-5.4841552E-2,-1.692428E-2,-5.361979E-2,1.911726E-2,-4.185665E-2,4.590384E-2,-4.5036007E-2,4.4061214E-2,2.958137E-2,-5.447591E-2,-2.4282439E-2,4.433832E-2,3.72358E-2,5.3864293E-2],"categories":[],"categories_nodes":[],"categories_segments":[],"categories_sizes":[],"default_left":[0,0,1,0,0,0,0,0,0,1,0,0,0,0,0,0,0,0,0,0,0,0,0,0,0,0,0,0,0,0,0],"id":3,"left_children":[1,3,5,7,9,11,13,15,17,19,21,23,25,27,29,-1,-1,-1,-1,-1,-1,-1,-1,-1,-1,-1,-1,-1,-1,-1,-1],"loss_changes":[5.6996254E4,1.6493125E3,9.384369E3,1.0983594E2,7.0799194E1,4.7067646E3,8.2643164E2,2.5492188E1,6.741104E1,5.613857E1,2.7049438E1,4.380633E3,1.5221934E3,2.401428E2,2.3897656E2,0E0,0E0,0E0,0E0,0E0,0E0,0E0,0E0,0E0,0E0,0E0,0E0,0E0,0E0,0E0,0E0],"parents":[2147483647,0,0,1,1,2,2,3,3,4,4,5,5,6,6,7,7,8,8,9,9,10,10,11,11,12,12,13,13,14,14],"right_children":[2,4,6,8,10,12,14,16,18,20,22,24,26,28,30,-1,-1,-1,-1,-1,-1,-1,-1,-1,-1,-1,-1,-1,-1,-1,-1],"split_conditions":[1E0,5E0,6.8E0,4.4E0,5.3E0,7.008458E0,7.5440545E0,3.8E0,6.31E0,5.031551E0,4.6062584E0,5.0033447E1,3.83E2,5.111829E1,2.02E3,-5.512324E-2,-4.716768E-2,-5.4841552E-2,-1.692428E-2,-5.361979E-2,1.911726E-2,-4.185665E-2,4.590384E-2,-4.5036007E-2,4.4061214E-2,2.958137E-2,-5.447591E-2,-2.4282439E-2,4.433832E-2,3.72358E-2,5.3864293E-2],"split_indices":[6,0,54,0,0,26,42,0,2,42,9,9,50,9,12,0,0,0,0,0,0,0,0,0,0,0,0,0,0,0,0],"split_type":[0,0,0,0,0,0,0,0,0,0,0,0,0,0,0,0,0,0,0,0,0,0,0,0,0,0,0,0,0,0,0],"sum_hessian":[2.913562E4,1.1298636E4,1.7836984E4,1.1100414E4,1.9822131E2,7.262194E3,1.057479E4,1.0918131E4,1.8228307E2,5.7023E1,1.411983E2,2.7495623E3,4.5126313E3,2.273309E2,1.0347459E4,1.0492501E4,4.2563055E2,6.683847E1,1.1544459E2,1.09883995E1,4.60346E1,2.496612E0,1.3870169E2,2.1000461E3,6.4951605E2,4.3105054E3,2.0212628E2,1.648591E2,6.24718E1,8.581214E2,9.489338E3],"tree_param":{"num_deleted":"0","num_feature":"59","num_nodes":"31","size_leaf_vector":"1"}},{"base_weights":[-9.8437E-3,-1.7166425E0,1.0761886E0,-1.767092E0,1.0392965E0,2.039863E-1,1.6661963E0,-1.789633E0,-1.3025035E0,-5.9544027E-1,1.2433997E0,-7.646457E-1,8.2771313E-1,-1.7493029E-1,1.7066336E0,-5.3715937E-2,-3.271663E-2,-5.120663E-2,-2.4592506E-2,-5.3734083E-2,2.658639E-2,1.4021074E-2,4.5811065E-2,-4.278376E-2,4.2663198E-2,2.8764125E-2,-4.9789865E-2,-2.3527965E-2,4.255097E-2,3.558407E-2,5.25455E-2],"categories":[],"categories_nodes":[],"categories_segments":[],"categories_sizes":[],"default_left":[0,0,1,0,1,0,0,1,0,0,0,0,0,0,0,0,0,0,0,0,0,0,0,0,0,0,0,0,0,0,0],"id":4,"left_children":[1,3,5,7,9,11,13,15,17,19,21,23,25,27,29,-1,-1,-1,-1,-1,-1,-1,-1,-1,-1,-1,-1,-1,-1,-1,-1],"loss_changes":[5.3877715E4,1.5733125E3,9.140727E3,1.1391406E2,6.874399E1,4.331673E3,7.891406E2,4.6953125E0,9.9587585E1,4.2863415E1,3.9239716E1,4.0644868E3,1.4236553E3,2.2306737E2,2.4013477E2,0E0,0E0,0E0,0E0,0E0,0E0,0E0,0E0,0E0,0E0,0E0,0E0,0E0,0E0,0E0,0E0],"parents":[2147483647,0,0,1,1,2,2,3,3,4,4,5,5,6,6,7,7,8,8,9,9,10,10,11,11,12,12,13,13,14,14],"right_children":[2,4,6,8,10,12,14,16,18,20,22,24,26,28,30,-1,-1,-1,-1,-1,-1,-1,-1,-1,-1,-1,-1,-1,-1,-1,-1],"split_conditions":[1E0,5E0,6.8E0,3.9E0,2.9E0,7.0739293E0,7.5440545E0,9.0640335E0,8E0,5.6E0,5.3E0,5.0033447E1,3.64E2,5.111829E1,2.02E3,-5.3715937E-2,-3.271663E-2,-5.120663E-2,-2.4592506E-2,-5.3734083E-2,2.658639E-2,1.4021074E-2,4.5811065E-2,-4.278376E-2,4.2663198E-2,2.8764125E-2,-4.9789865E-2,-2.3527965E-2,4.255097E-2,3.558407E-2,5.25455E-2],"split_indices":[6,0,54,0,41,26,42,49,40,0,0,9,50,9,12,0,0,0,0,0,0,0,0,0,0,0,0,0,0,0,0],"split_type":[0,0,0,0,0,0,0,0,0,0,0,0,0,0,0,0,0,0,0,0,0,0,0,0,0,0,0,0,0,0,0],"sum_hessian":[2.9063928E4,1.1301697E4,1.776223E4,1.1098884E4,2.0281422E2,7.1676763E3,1.0594554E4,1.0582581E4,5.163027E2,2.2298674E1,1.8051555E2,2.8074897E3,4.3601865E3,2.2761894E2,1.0366935E4,1.0567442E4,1.5138393E1,2.795763E2,2.3672636E2,1.2224562E1,1.0074112E1,4.902644E1,1.314891E2,2.1557393E3,6.5175055E2,4.1424814E3,2.1770493E2,1.650178E2,6.260113E1,8.251629E2,9.541771E3],"tree_param":{"num_deleted":"0","num_feature":"59","num_nodes":"31","size_leaf_vector":"1"}},{"base_weights":[3.9847763E-3,-1.6795948E0,1.060859E0,-1.7292299E0,1.0165918E0,2.2391444E-1,1.628082E0,-1.7479584E0,-1.3319659E0,3.9463988E-1,1.5776434E0,-6.8821007E-1,8.440448E-1,-1.13680296E-1,1.6676129E0,-5.2465245E-2,-3.1901143E-2,-4.719334E-2,-1.754236E-2,-3.6231805E-2,2.1848094E-2,5.0582778E-2,2.7660633E-2,-4.2267635E-2,4.577813E-2,2.873842E-2,-5.0103005E-2,-2.4436632E-2,4.419992E-2,3.5600413E-2,5.1303513E-2],"categories":[],"categories_nodes":[],"categories_segments":[],"categories_sizes":[],"default_left":[0,0,1,0,0,0,0,1,0,1,1,0,0,0,0,0,0,0,0,0,0,0,0,0,0,0,0,0,0,0,0],"id":5,"left_children":[1,3,5,7,9,11,13,15,17,19,21,23,25,27,29,-1,-1,-1,-1,-1,-1,-1,-1,-1,-1,-1,-1,-1,-1,-1,-1],"loss_changes":[5.171342E4,1.5017441E3,8.475967E3,7.955859E1,7.029788E1,4.0809482E3,7.3293945E2,4.4941406E0,8.912317E1,5.312196E1,6.0190125E0,4.6619136E3,1.2314565E3,2.6493503E2,2.1068555E2,0E0,0E0,0E0,0E0,0E0,0E0,0E0,0E0,0E0,0E0,0E0,0E0,0E0,0E0,0E0,0E0],"parents":[2147483647,0,0,1,1,2,2,3,3,4,4,5,5,6,6,7,7,8,8,9,9,10,10,11,11,12,12,13,13,14,14],"right_children":[2,4,6,8,10,12,14,16,18,20,22,24,26,28,30,-1,-1,-1,-1,-1,-1,-1,-1,-1,-1,-1,-1,-1,-1,-1,-1],"split_conditions":[1E0,5E0,6.8E0,3.9E0,5.6E0,7.077908E0,7.5440545E0,9.0640335E0,1.6E1,4.6015434E0,2.0358334E1,5.3547832E1,5.65E2,5.111829E1,2.02E3,-5.2465245E-2,-3.1901143E-2,-4.719334E-2,-1.754236E-2,-3.6231805E-2,2.1848094E-2,5.0582778E-2,2.7660633E-2,-4.2267635E-2,4.577813E-2,2.873842E-2,-5.0103005E-2,-2.4436632E-2,4.419992E-2,3.5600413E-2,5.1303513E-2],"split_indices":[6,0,54,0,0,29,42,49,40,42,58,9,53,9,12,0,0,0,0,0,0,0,0,0,0,0,0,0,0,0,0],"split_type":[0,0,0,0,0,0,0,0,0,0,0,0,0,0,0,0,0,0,0,0,0,0,0,0,0,0,0,0,0,0,0],"sum_hessian":[2.9061393E4,1.1207492E4,1.78539E4,1.100525E4,2.0224132E2,7.212767E3,1.0641133E4,1.0506536E4,4.9871478E2,9.672288E1,1.0551843E2,2.9190889E3,4.2936787E3,2.361088E2,1.0405023E4,1.0491447E4,1.5088705E1,3.7620078E2,1.2251401E2,1.621674E1,8.050614E1,8.919291E1,1.6325523E1,2.2025247E3,7.1656415E2,4.1081777E3,1.8550073E2,1.6411652E2,7.1992294E1,8.47259E2,9.557765E3],"tree_param":{"num_deleted":"0","num_feature":"59","num_nodes":"31","size_leaf_vector":"1"}},{"base_weights":[-4.129548E-3,-1.6418434E0,1.0279009E0,-1.6888982E0,9.782648E-1,2.0921697E-1,1.5871984E0,-1.7067217E0,-1.2377448E0,3.789738E-1,1.5036572E0,-6.748143E-1,7.710935E-1,-1.7291503E-1,1.626304E0,-5.1227678E-2,-2.9326918E-2,-5.195484E-2,-2.861417E-2,-1.3435759E-2,3.566897E-2,4.8296742E-2,1.6610088E-2,-4.029407E-2,2.006258E-2,2.6334232E-2,-5.0879356E-2,-2.4977004E-2,4.2133145E-2,3.369613E-2,5.010332E-2],"categories":[],"categories_nodes":[],"categories_segments":[],"categories_sizes":[],"default_left":[0,0,1,0,0,0,0,1,0,0,1,0,0,0,0,0,0,0,0,0,0,0,0,0,0,0,0,0,0,0,0],"id":6,"left_children":[1,3,5,7,9,11,13,15,17,19,21,23,25,27,29,-1,-1,-1,-1,-1,-1,-1,-1,-1,-1,-1,-1,-1,-1,-1,-1],"loss_changes":[4.854306E4,1.3704609E3,8.0668945E3,8.55918E1,6.1302536E1,3.5530938E3,7.207422E2,4.966797E0,5.7011047E1,6.290691E1,9.641983E0,2.497003E3,1.1528508E3,2.388277E2,2.2380273E2,0E0,0E0,0E0,0E0,0E0,0E0,0E0,0E0,0E0,0E0,0E0,0E0,0E0,0E0,0E0,0E0],"parents":[2147483647,0,0,1,1,2,2,3,3,4,4,5,5,6,6,7,7,8,8,9,9,10,10,11,11,12,12,13,13,14,14],"right_children":[2,4,6,8,10,12,14,16,18,20,22,24,26,28,30,-1,-1,-1,-1,-1,-1,-1,-1,-1,-1,-1,-1,-1,-1,-1,-1],"split_conditions":[1E0,5E0,6.8E0,4E0,5.6E0,6.923159E0,7.5228176E0,6.1E0,6.25E0,1.2649E2,2.3768055E1,2.490817E1,3.83E2,5.111829E1,2.02E3,-5.1227678E-2,-2.9326918E-2,-5.195484E-2,-2.861417E-2,-1.3435759E-2,3.566897E-2,4.8296742E-2,1.6610088E-2,-4.029407E-2,2.006258E-2,2.6334232E-2,-5.0879356E-2,-2.4977004E-2,4.2133145E-2,3.369613E-2,5.010332E-2],"split_indices":[6,0,54,0,0,23,42,48,2,3,58,9,50,9,12,0,0,0,0,0,0,0,0,0,0,0,0,0,0,0,0],"split_type":[0,0,0,0,0,0,0,0,0,0,0,0,0,0,0,0,0,0,0,0,0,0,0,0,0,0,0,0,0,0,0],"sum_hessian":[2.8718807E4,1.1101465E4,1.7617342E4,1.0905959E4,1.9550578E2,7.151115E3,1.0466227E4,1.0488803E4,4.1715576E2,9.213404E1,1.0337175E2,2.7788293E3,4.3722856E3,2.2740706E2,1.023882E4,1.0474997E4,1.3806407E1,1.503799E2,2.6677588E2,4.5814297E1,4.6319744E1,9.234989E1,1.1021859E1,1.855741E3,9.2308826E2,4.1916196E3,1.8066606E2,1.6068184E2,6.6725235E1,8.222526E2,9.416567E3],"tree_param":{"num_deleted":"0","num_feature":"59","num_nodes":"31","size_leaf_vector":"1"}},{"base_weights":[3.0524863E-3,-1.6067519E0,1.0076736E0,-1.6514692E0,9.4368845E-1,2.1248564E-1,1.5573983E0,-1.6664774E0,-9.4798446E-1,3.7766698E-1,1.469276E0,-7.0389533E-1,7.7017653E-1,-8.8155106E-2,1.5949204E0,-5.026007E-2,-4.2756222E-2,-4.571205E-2,-1.1616506E-2,-9.5121125E-3,3.45458E-2,4.5859043E-2,3.4922848E-3,-4.1074105E-2,4.0866856E-2,2.652005E-2,-5.0152447E-2,4.022106E-2,-2.3653999E-2,3.4016773E-2,4.9082056E-2],"categories":[],"categories_nodes":[],"categories_segments":[],"categories_sizes":[],"default_left":[0,0,1,0,0,0,0,0,0,0,1,0,0,0,0,0,0,0,0,0,0,0,0,0,0,0,0,0,0,0,0],"id":7,"left_children":[1,3,5,7,9,11,13,15,17,19,21,23,25,27,29,-1,-1,-1,-1,-1,-1,-1,-1,-1,-1,-1,-1,-1,-1,-1,-1],"loss_changes":[4.6378375E4,1.258332E3,7.718504E3,1.12765625E2,5.612242E1,3.6897002E3,6.447656E2,2.0273438E1,7.319806E1,5.0405224E1,7.7272644E0,3.756358E3,1.2489529E3,2.3490588E2,1.917832E2,0E0,0E0,0E0,0E0,0E0,0E0,0E0,0E0,0E0,0E0,0E0,0E0,0E0,0E0,0E0,0E0],"parents":[2147483647,0,0,1,1,2,2,3,3,4,4,5,5,6,6,7,7,8,8,9,9,10,10,11,11,12,12,13,13,14,14],"right_children":[2,4,6,8,10,12,14,16,18,20,22,24,26,28,30,-1,-1,-1,-1,-1,-1,-1,-1,-1,-1,-1,-1,-1,-1,-1,-1],"split_conditions":[1E0,5E0,6.8E0,4.3E0,5.6E0,7.008458E0,7.5440545E0,3.8E0,2.6E1,1.2649E2,4.5134068E1,5.0033447E1,3.83E2,6.3E0,2.02E3,-5.026007E-2,-4.2756222E-2,-4.571205E-2,-1.1616506E-2,-9.5121125E-3,3.45458E-2,4.5859043E-2,3.4922848E-3,-4.1074105E-2,4.0866856E-2,2.652005E-2,-5.0152447E-2,4.022106E-2,-2.3653999E-2,3.4016773E-2,4.9082056E-2],"split_indices":[6,0,54,0,0,26,42,0,53,3,56,9,50,49,12,0,0,0,0,0,0,0,0,0,0,0,0,0,0,0,0],"split_type":[0,0,0,0,0,0,0,0,0,0,0,0,0,0,0,0,0,0,0,0,0,0,0,0,0,0,0,0,0,0,0],"sum_hessian":[2.8675418E4,1.1018607E4,1.765681E4,1.0829092E4,1.8951588E2,7.2176777E3,1.0439133E4,1.0601548E4,2.275436E2,9.20755E1,9.7440384E1,2.7305906E3,4.4870874E3,2.3269801E2,1.0206435E4,1.0220358E4,3.8118954E2,1.1142462E2,1.1611897E2,4.8829124E1,4.3246376E1,9.32203E1,4.2200866E0,2.065793E3,6.647976E2,4.287856E3,1.9923132E2,7.6236664E1,1.5646135E2,8.3865186E2,9.367783E3],"tree_param":{"num_deleted":"0","num_feature":"59","num_nodes":"31","size_leaf_vector":"1"}},{"base_weights":[3.955801E-3,-1.5783978E0,9.872708E-1,-1.6187383E0,1.0340546E0,2.0314744E-1,1.5220115E0,-1.6340692E0,-9.3108815E-1,-3.2769868E-1,1.1980783E0,-6.5629727E-1,7.7911013E-1,-9.09788E-2,1.5596663E0,-4.928694E-2,-4.1933782E-2,-1.2291058E-2,-4.3571837E-2,-5.0292328E-2,2.6603065E-2,3.764116E-2,-4.571293E-2,-4.109448E-2,4.3338727E-2,2.6738014E-2,-4.8913147E-2,-2.290383E-2,4.2723674E-2,3.208593E-2,4.8081726E-2],"categories":[],"categories_nodes":[],"categories_segments":[],"categories_sizes":[],"default_left":[0,0,1,0,1,0,0,0,0,0,1,0,0,0,0,0,0,0,0,0,0,0,0,0,0,0,0,0,0,0,0],"id":8,"left_children":[1,3,5,7,9,11,13,15,17,19,21,23,25,27,29,-1,-1,-1,-1,-1,-1,-1,-1,-1,-1,-1,-1,-1,-1,-1,-1],"loss_changes":[4.428905E4,1.1513691E3,7.360586E3,1.1174219E2,3.7582993E1,3.5244558E3,6.340586E2,1.9623047E1,6.372078E1,3.2091595E1,2.4849411E1,4.2848364E3,1.1534949E3,2.4463815E2,2.1353125E2,0E0,0E0,0E0,0E0,0E0,0E0,0E0,0E0,0E0,0E0,0E0,0E0,0E0,0E0,0E0,0E0],"parents":[2147483647,0,0,1,1,2,2,3,3,4,4,5,5,6,6,7,7,8,8,9,9,10,10,11,11,12,12,13,13,14,14],"right_children":[2,4,6,8,10,12,14,16,18,20,22,24,26,28,30,-1,-1,-1,-1,-1,-1,-1,-1,-1,-1,-1,-1,-1,-1,-1,-1],"split_conditions":[1E0,5.1E0,6.8E0,4.3E0,2.9E0,7.077908E0,7.5440545E0,3.8E0,6.00549E0,5.6E0,4.1E0,5.3547832E1,3.83E2,5.111829E1,2.02E3,-4.928694E-2,-4.1933782E-2,-1.2291058E-2,-4.3571837E-2,-5.0292328E-2,2.6603065E-2,3.764116E-2,-4.571293E-2,-4.109448E-2,4.3338727E-2,2.6738014E-2,-4.8913147E-2,-2.290383E-2,4.2723674E-2,3.208593E-2,4.8081726E-2],"split_indices":[6,0,54,0,41,29,42,0,29,0,35,9,50,9,12,0,0,0,0,0,0,0,0,0,0,0,0,0,0,0,0],"split_type":[0,0,0,0,0,0,0,0,0,0,0,0,0,0,0,0,0,0,0,0,0,0,0,0,0,0,0,0,0,0,0],"sum_hessian":[2.846228E4,1.0908186E4,1.7554092E4,1.0742682E4,1.6550446E2,7.1179634E3,1.0436129E4,1.0507054E4,2.3562755E2,1.7684748E1,1.4781972E2,2.856054E3,4.2619097E3,2.3803816E2,1.0198091E4,1.0122851E4,3.842036E2,1.18697655E2,1.169299E2,8.199038E0,9.485709E0,1.453351E2,2.4846218E0,2.132245E3,7.2380884E2,4.072956E3,1.8895334E2,1.6520676E2,7.283141E1,8.256326E2,9.372458E3],"tree_param":{"num_deleted":"0","num_feature":"59","num_nodes":"31","size_leaf_vector":"1"}},{"base_weights":[7.0113293E-3,-1.5437906E0,9.6480983E-1,-1.5888897E0,9.336082E-1,1.8583672E-1,1.4935544E0,-1.6012467E0,-8.714992E-1,1.3099284E-1,1.2597448E0,-6.6948193E-1,7.631906E-1,-4.0212095E-2,1.5287142E0,-4.8292346E-2,-4.1704882E-2,-3.7899897E-2,-9.853625E-4,-5.0446086E-2,1.8576773E-2,2.6096726E-2,4.6441175E-2,-2.6808567E-2,4.5647554E-2,2.6165416E-2,-4.7909845E-2,1.8950377E-2,-3.680239E-2,3.2799754E-2,4.717922E-2],"categories":[],"categories_nodes":[],"categories_segments":[],"categories_sizes":[],"default_left":[0,0,1,0,0,0,0,0,0,1,0,0,0,1,0,0,0,0,0,0,0,0,0,0,0,0,0,0,0,0,0],"id":9,"left_children":[1,3,5,7,9,11,13,15,17,19,21,23,25,27,29,-1,-1,-1,-1,-1,-1,-1,-1,-1,-1,-1,-1,-1,-1,-1,-1],"loss_changes":[4.196707E4,1.2067539E3,7.1937354E3,9.252539E1,5.0485214E1,3.4885E3,5.6112305E2,1.644336E1,5.9634476E1,5.150409E1,1.4104324E1,1.3995001E3,1.0862351E3,1.8743E2,1.9280469E2,0E0,0E0,0E0,0E0,0E0,0E0,0E0,0E0,0E0,0E0,0E0,0E0,0E0,0E0,0E0,0E0],"parents":[2147483647,0,0,1,1,2,2,3,3,4,4,5,5,6,6,7,7,8,8,9,9,10,10,11,11,12,12,13,13,14,14],"right_children":[2,4,6,8,10,12,14,16,18,20,22,24,26,28,30,-1,-1,-1,-1,-1,-1,-1,-1,-1,-1,-1,-1,-1,-1,-1,-1],"split_conditions":[1E0,5E0,6.8E0,4.4E0,5.3E0,7.077908E0,7.5228176E0,3.8E0,1.3E1,3.3E0,5.9E0,7.1E0,3.83E2,6.5589695E0,1.0355644E1,-4.8292346E-2,-4.1704882E-2,-3.7899897E-2,-9.853625E-4,-5.0446086E-2,1.8576773E-2,2.6096726E-2,4.6441175E-2,-2.6808567E-2,4.5647554E-2,2.6165416E-2,-4.7909845E-2,1.8950377E-2,-3.680239E-2,3.2799754E-2,4.717922E-2],"split_indices":[6,0,54,0,0,29,42,0,40,41,0,10,50,39,55,0,0,0,0,0,0,0,0,0,0,0,0,0,0,0,0],"split_type":[0,0,0,0,0,0,0,0,0,0,0,0,0,0,0,0,0,0,0,0,0,0,0,0,0,0,0,0,0,0,0],"sum_hessian":[2.8251883E4,1.0786502E4,1.7465379E4,1.0594005E4,1.9249709E2,7.062258E3,1.0403122E4,1.0413404E4,1.8060107E2,5.602425E1,1.3647284E2,2.845961E3,4.216297E3,2.3313188E2,1.016999E4,1.0004016E4,4.0938882E2,1.2274604E2,5.785504E1,1.1369964E1,4.4654285E1,5.9725185E1,7.674765E1,2.5823857E3,2.6357513E2,4.0307915E3,1.8550565E2,1.4914442E2,8.398745E1,9.343929E2,9.235597E3],"tree_param":{"num_deleted":"0","num_feature":"59","num_nodes":"31","size_leaf_vector":"1"}},{"base_weights":[-9.002799E-3,9.339667E-1,-1.5205979E0,2.8815815E-1,1.5228167E0,-1.5626482E0,8.0998176E-1,-5.919873E-1,7.765096E-1,2.3789246E-1,1.5463051E0,-4.7457103E-2,-1.1660274E0,3.6153316E-1,1.4862291E0,-3.7247594E-2,4.4896856E-2,2.6305532E-2,-3.1540055E-2,2.4096292E-2,-4.009505E-2,4.6515375E-2,-3.219829E-2,-4.629168E-2,-2.3073176E-2,-3.6401127E-2,1.8648129E-2,1.2947881E-2,4.7720376E-2],"categories":[],"categories_nodes":[],"categories_segments":[],"categories_sizes":[],"default_left":[0,1,0,0,0,0,0,0,0,0,0,0,0,0,1,0,0,0,0,0,0,0,0,0,0,0,0,0,0],"id":10,"left_children":[1,3,5,7,9,11,13,15,17,19,21,-1,23,25,27,-1,-1,-1,-1,-1,-1,-1,-1,-1,-1,-1,-1,-1,-1],"loss_changes":[3.9531246E4,6.4945273E3,1.045416E3,3.50216E3,2.6925E2,7.808594E1,5.6927208E1,3.9469368E3,9.62E2,1.448597E2,9.835547E1,0E0,7.1900024E1,4.796125E1,7.600891E0,0E0,0E0,0E0,0E0,0E0,0E0,0E0,0E0,0E0,0E0,0E0,0E0,0E0,0E0],"parents":[2147483647,0,0,1,1,2,2,3,3,4,4,5,5,6,6,7,7,8,8,9,9,10,10,12,12,13,13,14,14],"right_children":[2,4,6,8,10,12,14,16,18,20,22,-1,24,26,28,-1,-1,-1,-1,-1,-1,-1,-1,-1,-1,-1,-1,-1,-1],"split_conditions":[3.4400853E-6,1.0500309E1,5E0,6.9162216E0,7.4018173E0,3.9E0,5.9E0,7.668758E1,2.96E2,6.725554E0,2.27E2,-4.7457103E-2,7E0,1.2164E2,2.9E0,-3.7247594E-2,4.4896856E-2,2.6305532E-2,-3.1540055E-2,2.4096292E-2,-4.009505E-2,4.6515375E-2,-3.219829E-2,-4.629168E-2,-2.3073176E-2,-3.6401127E-2,1.8648129E-2,1.2947881E-2,4.7720376E-2],"split_indices":[4,55,0,29,42,0,0,9,47,39,44,0,40,3,41,0,0,0,0,0,0,0,0,0,0,0,0,0,0],"split_type":[0,0,0,0,0,0,0,0,0,0,0,0,0,0,0,0,0,0,0,0,0,0,0,0,0,0,0,0,0],"sum_hessian":[2.7731674E4,1.7078238E4,1.0653435E4,8.145894E3,8.932345E3,1.0464947E4,1.8848796E2,2.9068062E3,5.239088E3,1.605517E2,8.771793E3,9.977564E3,4.873829E2,1.1425511E2,7.423285E1,2.217504E3,6.893024E2,4.9669424E3,2.721454E2,1.1849394E2,4.205776E1,8.758134E3,1.365886E1,2.4847418E2,2.3890872E2,1.5673867E1,9.8581245E1,7.151938E0,6.708091E1],"tree_param":{"num_deleted":"0","num_feature":"59","num_nodes":"29","size_leaf_vector":"1"}},{"base_weights":[-3.4945873E-3,-1.4866484E0,9.1642064E-1,-1.5322796E0,8.9570224E-1,1.8043245E-1,1.4374467E0,-1.5509608E0,-1.0681432E0,-6.083306E-1,1.0891366E0,-6.229679E-1,7.129497E-1,2.0841557E-1,1.4736735E0,-4.6556666E-2,-2.2366803E-2,-4.780244E-2,-2.2839151E-2,-5.0706625E-2,1.8104201E-2,1.2772337E-2,3.9998986E-2,-3.7322104E-2,4.469071E-2,2.4440847E-2,-4.660787E-2,2.8812565E-2,-3.7712518E-2,2.8341014E-2,4.558564E-2],"categories":[],"categories_nodes":[],"categories_segments":[],"categories_sizes":[],"default_left":[0,0,1,0,1,0,1,1,0,0,0,0,0,0,0,0,0,0,0,0,0,0,0,0,0,0,0,0,0,0,0],"id":11,"left_children":[1,3,5,7,9,11,13,15,17,19,21,23,25,27,29,-1,-1,-1,-1,-1,-1,-1,-1,-1,-1,-1,-1,-1,-1,-1,-1],"loss_changes":[3.744172E4,1.1433828E3,6.4946357E3,8.77207E1,5.8285614E1,3.004427E3,4.412207E2,6.25E0,6.358719E1,3.1451752E1,2.7916092E1,3.6751914E3,9.751575E2,3.1540237E2,2.3217578E2,0E0,0E0,0E0,0E0,0E0,0E0,0E0,0E0,0E0,0E0,0E0,0E0,0E0,0E0,0E0,0E0],"parents":[2147483647,0,0,1,1,2,2,3,3,4,4,5,5,6,6,7,7,8,8,9,9,10,10,11,11,12,12,13,13,14,14],"right_children":[2,4,6,8,10,12,14,16,18,20,22,24,26,28,30,-1,-1,-1,-1,-1,-1,-1,-1,-1,-1,-1,-1,-1,-1,-1,-1],"split_conditions":[1E0,5E0,6.8E0,4E0,2.9E0,7.077908E0,5.8046837E0,6.1E0,6.25E0,1.2661E2,5.3E0,8.6635765E1,3.83E2,3.7E1,2.02E3,-4.6556666E-2,-2.2366803E-2,-4.780244E-2,-2.2839151E-2,-5.0706625E-2,1.8104201E-2,1.2772337E-2,3.9998986E-2,-3.7322104E-2,4.469071E-2,2.4440847E-2,-4.660787E-2,2.8812565E-2,-3.7712518E-2,2.8341014E-2,4.558564E-2],"split_indices":[6,0,54,0,41,29,29,48,2,3,0,9,50,44,12,0,0,0,0,0,0,0,0,0,0,0,0,0,0,0,0],"split_type":[0,0,0,0,0,0,0,0,0,0,0,0,0,0,0,0,0,0,0,0,0,0,0,0,0,0,0,0,0,0,0],"sum_hessian":[2.744038E4,1.0504175E4,1.6936207E4,1.0307111E4,1.9706386E2,7.0205303E3,9.915676E3,9.906058E3,4.0105338E2,2.2211937E1,1.7485191E2,2.7984233E3,4.222107E3,2.840978E2,9.631578E3,9.893729E3,1.2328691E1,1.4634117E2,2.547122E2,1.1526426E1,1.0685511E1,4.7779213E1,1.270727E2,2.1629475E3,6.3547565E2,4.041332E3,1.8077483E2,1.8798186E2,9.611596E1,7.699421E2,8.861637E3],"tree_param":{"num_deleted":"0","num_feature":"59","num_nodes":"31","size_leaf_vector":"1"}},{"base_weights":[1.9443969E-3,-1.4650837E0,9.046976E-1,-1.4859637E0,-1.2599643E0,1.7921759E-1,1.412544E0,-1.4866842E0,-4.0835232E-1,-9.716884E-1,-1.4054246E0,-6.3968515E-1,6.7353296E-1,-2.2427268E-1,1.448445E0,-4.499902E-2,-4.2893104E-2,3.285308E-2,-3.802353E-2,-3.0988548E-2,2.2001963E-2,-4.2586517E-2,-7.393549E-4,-3.739102E-2,3.718023E-2,2.3476088E-2,-4.2697992E-2,-2.6367975E-2,3.7822794E-2,2.9800462E-2,4.4693597E-2],"categories":[],"categories_nodes":[],"categories_segments":[],"categories_sizes":[],"default_left":[0,0,1,1,0,0,0,1,0,0,0,0,0,0,0,0,0,0,0,0,0,0,0,0,0,0,0,0,0,0,0],"id":12,"left_children":[1,3,5,7,9,11,13,15,17,19,21,23,25,27,29,-1,-1,-1,-1,-1,-1,-1,-1,-1,-1,-1,-1,-1,-1,-1,-1],"loss_changes":[3.6179273E4,4.269922E1,6.230497E3,6.7226562E0,3.922705E1,2.8197534E3,5.8488477E2,4.986328E0,1.1315733E1,3.5008667E1,1.2470703E1,2.9907422E3,9.938843E2,2.095169E2,1.8166602E2,0E0,0E0,0E0,0E0,0E0,0E0,0E0,0E0,0E0,0E0,0E0,0E0,0E0,0E0,0E0,0E0],"parents":[2147483647,0,0,1,1,2,2,3,3,4,4,5,5,6,6,7,7,8,8,9,9,10,10,11,11,12,12,13,13,14,14],"right_children":[2,4,6,8,10,12,14,16,18,20,22,24,26,28,30,-1,-1,-1,-1,-1,-1,-1,-1,-1,-1,-1,-1,-1,-1,-1,-1],"split_conditions":[1E0,1.2665E2,6.8E0,5.4E0,3.5E1,7.008458E0,7.5228176E0,4.9035563E0,2E0,3.59E2,4.131803E1,5.0033447E1,3.64E2,5.111829E1,2.02E3,-4.499902E-2,-4.2893104E-2,3.285308E-2,-3.802353E-2,-3.0988548E-2,2.2001963E-2,-4.2586517E-2,-7.393549E-4,-3.739102E-2,3.718023E-2,2.3476088E-2,-4.2697992E-2,-2.6367975E-2,3.7822794E-2,2.9800462E-2,4.4693597E-2],"split_indices":[6,3,54,57,53,26,42,29,11,14,56,9,50,9,12,0,0,0,0,0,0,0,0,0,0,0,0,0,0,0,0],"split_type":[0,0,0,0,0,0,0,0,0,0,0,0,0,0,0,0,0,0,0,0,0,0,0,0,0,0,0,0,0,0,0],"sum_hessian":[2.7316217E4,1.0405703E4,1.6910514E4,9.438656E3,9.670468E2,6.9637944E3,9.94672E3,9.43197E3,6.6862946E0,3.268898E2,6.40157E2,2.621168E3,4.3426265E3,2.1337018E2,9.73335E3,7.6266494E3,1.8053203E3,2.3314528E0,4.3548417E0,3.1593265E2,1.0957165E1,6.336464E2,6.5105577E0,1.981679E3,6.394891E2,4.1286245E3,2.1400203E2,1.4837074E2,6.4999435E1,8.126458E2,8.920704E3],"tree_param":{"num_deleted":"0","num_feature":"59","num_nodes":"31","size_leaf_vector":"1"}},{"base_weights":[-3.9364262E-3,8.7710005E-1,-1.4409587E0,1.680179E-1,1.3865911E0,-1.4840505E0,8.694448E-1,-5.9604084E-1,6.7724204E-1,-1.255062E-1,1.4228681E0,-1.5031315E0,-1.0240351E0,-2.4157481E-2,1.2059877E0,-3.6222797E-2,4.1368835E-2,2.3111E-2,-4.4458427E-2,3.3130713E-2,-2.4978928E-2,2.976969E-2,4.4040285E-2,-4.5201365E-2,-3.9147984E-2,-4.1550934E-2,-1.6090825E-2,-2.4928456E-2,3.1010523E-2,-3.9942488E-2,3.7879586E-2],"categories":[],"categories_nodes":[],"categories_segments":[],"categories_sizes":[],"default_left":[0,1,0,0,0,0,0,0,0,0,0,0,0,0,0,0,0,0,0,0,0,0,0,0,0,0,0,0,0,0,0],"id":13,"left_children":[1,3,5,7,9,11,13,15,17,19,21,23,25,27,29,-1,-1,-1,-1,-1,-1,-1,-1,-1,-1,-1,-1,-1,-1,-1,-1],"loss_changes":[3.401085E4,6.0161045E3,1.0177988E3,2.709914E3,5.317363E2,8.644336E1,5.643927E1,3.3652698E3,8.414938E2,1.9916455E2,1.824668E2,4.8632812E0,7.008923E1,4.549201E1,2.127536E1,0E0,0E0,0E0,0E0,0E0,0E0,0E0,0E0,0E0,0E0,0E0,0E0,0E0,0E0,0E0,0E0],"parents":[2147483647,0,0,1,1,2,2,3,3,4,4,5,5,6,6,7,7,8,8,9,9,10,10,11,11,12,12,13,13,14,14],"right_children":[2,4,6,8,10,12,14,16,18,20,22,24,26,28,30,-1,-1,-1,-1,-1,-1,-1,-1,-1,-1,-1,-1,-1,-1,-1,-1],"split_conditions":[3.4400853E-6,6.8E0,5E0,7.077908E0,7.5440545E0,4E0,5.3E0,6.7712265E1,5.65E2,6.4E0,1.0355644E1,3.8E0,9E0,1.2649E2,2.9E0,-3.6222797E-2,4.1368835E-2,2.3111E-2,-4.4458427E-2,3.3130713E-2,-2.4978928E-2,2.976969E-2,4.4040285E-2,-4.5201365E-2,-3.9147984E-2,-4.1550934E-2,-1.6090825E-2,-2.4928456E-2,3.1010523E-2,-3.9942488E-2,3.7879586E-2],"split_indices":[4,54,0,29,42,0,0,9,53,51,55,0,40,3,41,0,0,0,0,0,0,0,0,0,0,0,0,0,0,0,0],"split_type":[0,0,0,0,0,0,0,0,0,0,0,0,0,0,0,0,0,0,0,0,0,0,0,0,0,0,0,0,0,0,0],"sum_hessian":[2.686135E4,1.665226E4,1.0209089E4,6.962942E3,9.689318E3,1.0022515E4,1.8657391E2,2.7846218E3,4.1783203E3,2.2695515E2,9.462363E3,9.621171E3,4.0134436E2,5.12968E1,1.3527711E2,2.1266733E3,6.579486E2,4.006179E3,1.7214116E2,8.2648094E1,1.4430707E2,9.00134E2,8.5622295E3,9.443954E3,1.7721637E2,2.2956847E2,1.717759E2,2.9223333E1,2.2073465E1,2.4636002E0,1.3281352E2],"tree_param":{"num_deleted":"0","num_feature":"59","num_nodes":"31","size_leaf_vector":"1"}},{"base_weights":[9.210494E-3,-1.4188862E0,8.732701E-1,-1.4561698E0,1.0689011E0,1.7282291E-1,1.3695371E0,-1.482303E0,-9.661547E-1,6.61474E-1,1.4577197E0,-1.8139993E-1,1.1756709E0,-5.945801E-2,1.4038825E0,-4.4498123E-2,-2.15283E-2,-3.910215E-2,-1.7584419E-2,-2.6172351E-2,2.6897788E-2,4.5762412E-2,5.2932827E-3,-1.5350656E-2,3.9964385E-2,4.5677654E-2,-1.8741315E-2,1.8416595E-2,-3.58943E-2,3.49608E-2,4.4300403E-2],"categories":[],"categories_nodes":[],"categories_segments":[],"categories_sizes":[],"default_left":[0,0,1,0,0,1,0,1,0,0,0,0,0,1,0,0,0,0,0,0,0,0,0,0,0,0,0,0,0,0,0],"id":14,"left_children":[1,3,5,7,9,11,13,15,17,19,21,23,25,27,29,-1,-1,-1,-1,-1,-1,-1,-1,-1,-1,-1,-1,-1,-1,-1,-1],"loss_changes":[3.309241E4,9.392422E2,5.807823E3,1.2612305E2,2.2773682E1,2.4619897E3,4.8005664E2,5.9296875E0,6.4236084E1,2.7831657E1,6.309128E0,2.5612256E3,1.1308352E3,1.7719937E2,1.6410547E2,0E0,0E0,0E0,0E0,0E0,0E0,0E0,0E0,0E0,0E0,0E0,0E0,0E0,0E0,0E0,0E0],"parents":[2147483647,0,0,1,1,2,2,3,3,4,4,5,5,6,6,7,7,8,8,9,9,10,10,11,11,12,12,13,13,14,14],"right_children":[2,4,6,8,10,12,14,16,18,20,22,24,26,28,30,-1,-1,-1,-1,-1,-1,-1,-1,-1,-1,-1,-1,-1,-1,-1,-1],"split_conditions":[1E0,5.2E0,6.8E0,3.9E0,5.9E0,6E0,7.5440545E0,6.1E0,3E1,3.6E0,5.6616684E1,6.7712265E1,2.78E2,6.5589695E0,1.255E2,-4.4498123E-2,-2.15283E-2,-3.910215E-2,-1.7584419E-2,-2.6172351E-2,2.6897788E-2,4.5762412E-2,5.2932827E-3,-1.5350656E-2,3.9964385E-2,4.5677654E-2,-1.8741315E-2,1.8416595E-2,-3.58943E-2,3.49608E-2,4.4300403E-2],"split_indices":[6,0,54,0,0,28,42,48,53,45,56,9,14,39,3,0,0,0,0,0,0,0,0,0,0,0,0,0,0,0,0],"split_type":[0,0,0,0,0,0,0,0,0,0,0,0,0,0,0,0,0,0,0,0,0,0,0,0,0,0,0,0,0,0,0],"sum_hessian":[2.6816037E4,1.0108429E4,1.6707607E4,9.959583E3,1.488462E2,6.9290596E3,9.778548E3,9.453394E3,5.0618866E2,7.400288E1,7.484332E1,5.1210405E3,1.8080188E3,2.2949063E2,9.549058E3,9.440507E3,1.2886754E1,2.668944E2,2.3929427E2,9.475491E0,6.452739E1,7.0906555E1,3.936769E0,4.204245E3,9.1679553E2,1.5160447E3,2.9197412E2,1.444231E2,8.5067535E1,2.2368845E3,7.312173E3],"tree_param":{"num_deleted":"0","num_feature":"59","num_nodes":"31","size_leaf_vector":"1"}},{"base_weights":[1.8691072E-3,-1.3945055E0,8.514564E-1,-1.4371109E0,8.280325E-1,1.6063437E-1,1.3460813E0,-1.4609386E0,-9.724783E-1,3.354775E-1,1.418296E0,-6.316484E-1,6.263497E-1,1.5744293E-1,1.3829834E0,-4.3857362E-2,-2.0206701E-2,-4.02852E-2,-1.7850641E-2,1.7454943E-2,-3.394839E-2,1.1899376E-2,4.5176934E-2,-3.499509E-2,3.3643063E-2,2.1613898E-2,-4.4291094E-2,2.7519314E-2,-3.920338E-2,2.6456097E-2,4.286788E-2],"categories":[],"categories_nodes":[],"categories_segments":[],"categories_sizes":[],"default_left":[0,0,1,0,0,0,1,1,0,0,1,0,0,0,0,0,0,0,0,0,0,0,0,0,0,0,0,0,0,0,0],"id":15,"left_children":[1,3,5,7,9,11,13,15,17,19,21,23,25,27,29,-1,-1,-1,-1,-1,-1,-1,-1,-1,-1,-1,-1,-1,-1,-1,-1],"loss_changes":[3.1292676E4,9.460137E2,5.6034785E3,1.0697266E2,5.427281E1,2.5256138E3,4.189707E2,6.154297E0,6.638507E1,3.823227E1,7.0413055E0,2.377396E3,8.541299E2,3.2262305E2,2.1214648E2,0E0,0E0,0E0,0E0,0E0,0E0,0E0,0E0,0E0,0E0,0E0,0E0,0E0,0E0,0E0,0E0],"parents":[2147483647,0,0,1,1,2,2,3,3,4,4,5,5,6,6,7,7,8,8,9,9,10,10,11,11,12,12,13,13,14,14],"right_children":[2,4,6,8,10,12,14,16,18,20,22,24,26,28,30,-1,-1,-1,-1,-1,-1,-1,-1,-1,-1,-1,-1,-1,-1,-1,-1],"split_conditions":[1E0,5E0,6.8E0,3.9E0,5.9E0,7.008458E0,5.85E0,6.1E0,7E0,1.376E1,2.9E0,5.0033447E1,3.83E2,3.7E1,2.02E3,-4.3857362E-2,-2.0206701E-2,-4.02852E-2,-1.7850641E-2,1.7454943E-2,-3.394839E-2,1.1899376E-2,4.5176934E-2,-3.499509E-2,3.3643063E-2,2.1613898E-2,-4.4291094E-2,2.7519314E-2,-3.920338E-2,2.6456097E-2,4.286788E-2],"split_indices":[6,0,54,0,0,26,29,48,40,2,41,9,50,44,12,0,0,0,0,0,0,0,0,0,0,0,0,0,0,0,0],"split_type":[0,0,0,0,0,0,0,0,0,0,0,0,0,0,0,0,0,0,0,0,0,0,0,0,0,0,0,0,0,0,0],"sum_hessian":[2.6375445E4,9.976883E3,1.6398562E4,9.789573E3,1.8730966E2,6.842814E3,9.555749E3,9.309985E3,4.7958804E2,1.0296074E2,8.434892E1,2.5331018E3,4.309712E3,2.8789087E2,9.267858E3,9.297632E3,1.2353384E1,2.407782E2,2.3880986E2,8.8674E1,1.4286736E1,7.097912E0,7.725101E1,1.9411914E3,5.9191046E2,4.1257104E3,1.8400137E2,1.8977792E2,9.811295E1,7.8007635E2,8.487782E3],"tree_param":{"num_deleted":"0","num_feature":"59","num_nodes":"31","size_leaf_vector":"1"}},{"base_weights":[1.5959141E-3,-1.3788047E0,8.3216363E-1,-1.3978481E0,-1.1908871E0,1.63512E-1,1.3226501E0,-1.4020588E0,-1.127777E0,-1.2177762E0,5.7997283E-2,-5.810865E-1,6.5168154E-1,1.3464156E-1,1.3572538E0,-4.2157564E-2,-3.4599967E-2,-3.5708692E-2,4.6532635E-2,-3.722649E-2,1.5359453E-3,-3.9642707E-2,4.424088E-2,-3.4296475E-2,3.894354E-2,2.2537453E-2,-4.0219743E-2,-3.0916775E-2,2.6181947E-2,2.5788547E-2,4.210497E-2],"categories":[],"categories_nodes":[],"categories_segments":[],"categories_sizes":[],"default_left":[0,0,1,0,0,0,1,0,0,1,1,0,0,0,0,0,0,0,0,0,0,0,0,0,0,0,0,0,0,0,0],"id":16,"left_children":[1,3,5,7,9,11,13,15,17,19,21,23,25,27,29,-1,-1,-1,-1,-1,-1,-1,-1,-1,-1,-1,-1,-1,-1,-1,-1],"loss_changes":[2.9831766E4,3.3316406E1,5.32759E3,8.503906E0,3.05E1,2.499447E3,3.8504688E2,5.310547E0,2.5503815E1,2.607483E1,4.113678E1,2.878016E3,8.248678E2,2.2995314E2,2.0834375E2,0E0,0E0,0E0,0E0,0E0,0E0,0E0,0E0,0E0,0E0,0E0,0E0,0E0,0E0,0E0,0E0],"parents":[2147483647,0,0,1,1,2,2,3,3,4,4,5,5,6,6,7,7,8,8,9,9,10,10,11,11,12,12,13,13,14,14],"right_children":[2,4,6,8,10,12,14,16,18,20,22,24,26,28,30,-1,-1,-1,-1,-1,-1,-1,-1,-1,-1,-1,-1,-1,-1,-1,-1],"split_conditions":[1E0,1.2665E2,6.8E0,1.61E2,1.044E1,7.077908E0,5.8046837E0,2.9744444E1,1.9E1,7.793657E1,3.2E0,6.7712265E1,3.64E2,2.9821884E1,2.02E3,-4.2157564E-2,-3.4599967E-2,-3.5708692E-2,4.6532635E-2,-3.722649E-2,1.5359453E-3,-3.9642707E-2,4.424088E-2,-3.4296475E-2,3.894354E-2,2.2537453E-2,-4.0219743E-2,-3.0916775E-2,2.6181947E-2,2.5788547E-2,4.210497E-2],"split_indices":[6,3,54,1,2,29,29,58,34,56,35,9,50,9,12,0,0,0,0,0,0,0,0,0,0,0,0,0,0,0,0],"split_type":[0,0,0,0,0,0,0,0,0,0,0,0,0,0,0,0,0,0,0,0,0,0,0,0,0,0,0,0,0,0,0],"sum_hessian":[2.601749E4,9.773427E3,1.62440625E4,8.868284E3,9.051427E2,6.8741997E3,9.369862E3,8.728015E3,1.4027025E2,8.860897E2,1.9053015E1,2.7220708E3,4.152129E3,2.6533438E2,9.104528E3,8.612786E3,1.1522854E2,1.3761461E2,2.6556363E0,8.7026514E2,1.5824562E1,9.68759E0,9.365426E0,2.0956018E3,6.2646893E2,3.9550964E3,1.9703249E2,1.0274216E2,1.6259222E2,7.7580756E2,8.328721E3],"tree_param":{"num_deleted":"0","num_feature":"59","num_nodes":"31","size_leaf_vector":"1"}},{"base_weights":[4.421712E-3,-1.3545666E0,8.2047147E-1,-1.3998544E0,8.679836E-1,1.6087975E-1,1.3047163E0,-1.4206821E0,-9.1198826E-1,-2.81898E-4,1.1839656E0,-5.3288233E-1,5.9229416E-1,3.1298947E-2,1.3438665E0,-4.264996E-2,-2.0541115E-2,-3.977189E-2,-1.415294E-2,-5.0383173E-2,1.2726884E-2,-3.6808874E-2,3.69207E-2,-3.0218113E-2,1.39107155E-2,2.0753525E-2,-3.857265E-2,-1.6583228E-2,4.4220712E-2,2.8520226E-2,4.156845E-2],"categories":[],"categories_nodes":[],"categories_segments":[],"categories_sizes":[],"default_left":[0,0,1,0,0,0,0,1,0,0,0,0,0,0,0,0,0,0,0,0,0,0,0,0,0,0,0,0,0,0,0],"id":17,"left_children":[1,3,5,7,9,11,13,15,17,19,21,23,25,27,29,-1,-1,-1,-1,-1,-1,-1,-1,-1,-1,-1,-1,-1,-1,-1,-1],"loss_changes":[2.8500611E4,9.717363E2,5.128532E3,9.472656E1,5.299666E1,2.0352465E3,4.6157324E2,5.5839844E0,7.035504E1,3.816447E1,1.746402E1,1.2331432E3,7.8426514E2,2.3439984E2,1.4613965E2,0E0,0E0,0E0,0E0,0E0,0E0,0E0,0E0,0E0,0E0,0E0,0E0,0E0,0E0,0E0,0E0],"parents":[2147483647,0,0,1,1,2,2,3,3,4,4,5,5,6,6,7,7,8,8,9,9,10,10,11,11,12,12,13,13,14,14],"right_children":[2,4,6,8,10,12,14,16,18,20,22,24,26,28,30,-1,-1,-1,-1,-1,-1,-1,-1,-1,-1,-1,-1,-1,-1,-1,-1],"split_conditions":[1E0,5E0,6.8E0,4E0,5.3E0,6.9524803E0,7.6513543E0,6.1E0,3E1,3E0,4.366195E0,2.5493729E1,6.6909723E0,2.402E3,1.0355644E1,-4.264996E-2,-2.0541115E-2,-3.977189E-2,-1.415294E-2,-5.0383173E-2,1.2726884E-2,-3.6808874E-2,3.69207E-2,-3.0218113E-2,1.39107155E-2,2.0753525E-2,-3.857265E-2,-1.6583228E-2,4.4220712E-2,2.8520226E-2,4.156845E-2],"split_indices":[6,0,54,0,0,23,42,48,53,16,42,9,8,43,55,0,0,0,0,0,0,0,0,0,0,0,0,0,0,0,0],"split_type":[0,0,0,0,0,0,0,0,0,0,0,0,0,0,0,0,0,0,0,0,0,0,0,0,0,0,0,0,0,0,0],"sum_hessian":[2.5697328E4,9.641101E3,1.6056229E4,9.448935E3,1.9216614E2,6.797991E3,9.258237E3,9.060229E3,3.887054E2,5.154052E1,1.4062563E2,2.6063909E3,4.1916E3,2.7620056E2,8.982036E3,9.047211E3,1.3018011E1,1.9934282E2,1.893626E2,9.804114E0,4.1736404E1,2.193318E0,1.3843231E2,1.7658169E3,8.4057404E2,3.9813203E3,2.1027966E2,1.9704547E2,7.9155106E1,8.6443744E2,8.117599E3],"tree_param":{"num_deleted":"0","num_feature":"59","num_nodes":"31","size_leaf_vector":"1"}},{"base_weights":[8.2503207E-4,-1.3427638E0,8.04794E-1,-1.3657715E0,-1.1208088E0,1.5627806E-1,1.2850358E0,-1.366544E0,-5.077878E-1,-1.1416516E0,3.356591E-2,-6.04688E-1,5.963192E-1,5.7574186E-2,1.3243606E0,-4.102517E-2,-2.031469E-2,2.8868452E-2,-3.6102213E-2,-3.4545004E-2,2.679527E-2,2.9220935E-2,-3.9841037E-2,-3.423324E-2,3.2646365E-2,2.0503063E-2,-4.3234516E-2,-1.6056994E-2,4.317918E-2,3.2559212E-2,4.1974988E-2],"categories":[],"categories_nodes":[],"categories_segments":[],"categories_sizes":[],"default_left":[0,0,1,0,1,0,0,1,0,0,0,0,0,0,0,0,0,0,0,0,0,0,0,0,0,0,0,0,0,0,0],"id":18,"left_children":[1,3,5,7,9,11,13,15,17,19,21,23,25,27,29,-1,-1,-1,-1,-1,-1,-1,-1,-1,-1,-1,-1,-1,-1,-1,-1],"loss_changes":[2.7442154E4,4.703711E1,4.9499053E3,5.0126953E0,2.1664673E1,2.2651345E3,4.407041E2,4.779297E0,1.0707184E1,1.8722656E1,2.2950716E1,2.252044E3,7.617097E2,2.3381891E2,1.5670898E2,0E0,0E0,0E0,0E0,0E0,0E0,0E0,0E0,0E0,0E0,0E0,0E0,0E0,0E0,0E0,0E0],"parents":[2147483647,0,0,1,1,2,2,3,3,4,4,5,5,6,6,7,7,8,8,9,9,10,10,11,11,12,12,13,13,14,14],"right_children":[2,4,6,8,10,12,14,16,18,20,22,24,26,28,30,-1,-1,-1,-1,-1,-1,-1,-1,-1,-1,-1,-1,-1,-1,-1,-1],"split_conditions":[1E0,1.2665E2,6.8E0,2.82E2,7.793657E1,7.008458E0,7.6513543E0,6.1E0,2E0,4.055E3,6E0,5.0033447E1,3.83E2,2.402E3,1.255E2,-4.102517E-2,-2.031469E-2,2.8868452E-2,-3.6102213E-2,-3.4545004E-2,2.679527E-2,2.9220935E-2,-3.9841037E-2,-3.423324E-2,3.2646365E-2,2.0503063E-2,-4.3234516E-2,-1.6056994E-2,4.317918E-2,3.2559212E-2,4.1974988E-2],"split_indices":[6,3,54,17,56,26,42,48,28,43,15,9,50,43,3,0,0,0,0,0,0,0,0,0,0,0,0,0,0,0,0],"split_type":[0,0,0,0,0,0,0,0,0,0,0,0,0,0,0,0,0,0,0,0,0,0,0,0,0,0,0,0,0,0,0],"sum_hessian":[2.5402605E4,9.509578E3,1.5893028E4,8.611737E3,8.9784064E2,6.762419E3,9.130609E3,8.603399E3,8.338044E0,8.819281E2,1.5912553E1,2.4775688E3,4.2848506E3,2.8351755E2,8.847092E3,8.590432E3,1.2967472E1,2.5550497E0,5.7829947E0,8.781121E2,3.815979E0,9.580138E0,6.332414E0,1.8816626E3,5.959062E2,4.109792E3,1.7505818E2,1.9882701E2,8.469054E1,2.1123262E3,6.734765E3],"tree_param":{"num_deleted":"0","num_feature":"59","num_nodes":"31","size_leaf_vector":"1"}},{"base_weights":[4.45324E-3,-1.3171115E0,7.8891224E-1,-1.3644272E0,9.0652907E-1,1.5284215E-1,1.2646194E0,-1.3861152E0,-8.6483574E-1,-4.3370113E-2,1.0089724E0,-5.765351E-1,5.71953E-1,4.745631E-2,1.3038508E0,-4.161354E-2,-1.9259233E-2,-3.822685E-2,-1.0932631E-2,9.385658E-3,3.7412804E-2,-3.2873634E-2,3.1969488E-2,1.9791E-2,-4.2627286E-2,-1.489154E-2,4.2525858E-2,3.159827E-2,4.1410018E-2],"categories":[],"categories_nodes":[],"categories_segments":[],"categories_sizes":[],"default_left":[0,0,1,0,0,0,0,1,1,0,0,0,0,0,0,0,0,0,0,0,0,0,0,0,0,0,0,0,0],"id":19,"left_children":[1,3,5,7,9,11,13,15,17,-1,19,21,23,25,27,-1,-1,-1,-1,-1,-1,-1,-1,-1,-1,-1,-1,-1,-1],"loss_changes":[2.5925352E4,9.812754E2,4.748078E3,9.762891E1,4.8369095E1,2.0532292E3,4.2863965E2,5.6328125E0,7.782431E1,0E0,3.0630188E1,2.0913206E3,7.468241E2,2.1035558E2,1.6523047E2,0E0,0E0,0E0,0E0,0E0,0E0,0E0,0E0,0E0,0E0,0E0,0E0,0E0,0E0],"parents":[2147483647,0,0,1,1,2,2,3,3,4,4,5,5,6,6,7,7,8,8,10,10,11,11,12,12,13,13,14,14],"right_children":[2,4,6,8,10,12,14,16,18,-1,20,22,24,26,28,-1,-1,-1,-1,-1,-1,-1,-1,-1,-1,-1,-1,-1,-1],"split_conditions":[1E0,5E0,6.8E0,4E0,4.627407E0,7.008458E0,7.6513543E0,9.0640335E0,2.6E0,-4.3370113E-2,5.3E0,5.0033447E1,3.83E2,2.402E3,1.2542E2,-4.161354E-2,-1.9259233E-2,-3.822685E-2,-1.0932631E-2,9.385658E-3,3.7412804E-2,-3.2873634E-2,3.1969488E-2,1.9791E-2,-4.2627286E-2,-1.489154E-2,4.2525858E-2,3.159827E-2,4.1410018E-2],"split_indices":[6,0,54,0,42,26,42,49,28,0,0,9,50,43,3,0,0,0,0,0,0,0,0,0,0,0,0,0,0],"split_type":[0,0,0,0,0,0,0,0,0,0,0,0,0,0,0,0,0,0,0,0,0,0,0,0,0,0,0,0,0],"sum_hessian":[2.500525E4,9.313789E3,1.5691461E4,9.120113E3,1.9367567E2,6.714627E3,8.976835E3,8.738968E3,3.8114557E2,7.535744E0,1.8613992E2,2.4501914E3,4.2644355E3,2.803737E2,8.696461E3,8.726343E3,1.2624654E1,2.0878821E2,1.7235736E2,4.8033585E1,1.3810634E2,1.8618225E3,5.883688E2,4.0852292E3,1.7920616E2,2.0116162E2,7.921206E1,2.037137E3,6.6593237E3],"tree_param":{"num_deleted":"0","num_feature":"59","num_nodes":"29","size_leaf_vector":"1"}},{"base_weights":[-5.5337246E-3,-1.3050259E0,7.673226E-1,-1.3478591E0,8.001452E-1,1.3329995E-1,1.2466993E0,-1.3705994E0,-9.0749466E-1,-1.0357453E-1,1.1397848E0,-1.8521902E-1,1.0628288E0,8.134287E-3,1.2851135E0,-4.118304E-2,-2.9899979E-2,-3.2951877E-2,-4.6690274E-3,-5.0173946E-2,1.1505512E-2,5.7373755E-3,3.7090536E-2,-1.5186263E-2,3.730899E-2,4.2460743E-2,-2.0406112E-2,-4.910114E-2,1.386446E-2,2.4471072E-2,3.9858364E-2],"categories":[],"categories_nodes":[],"categories_segments":[],"categories_sizes":[],"default_left":[0,0,1,0,0,1,0,1,0,0,1,0,0,0,0,0,0,0,0,0,0,0,0,0,0,0,0,0,0,0,0],"id":20,"left_children":[1,3,5,7,9,11,13,15,17,19,21,23,25,27,29,-1,-1,-1,-1,-1,-1,-1,-1,-1,-1,-1,-1,-1,-1,-1,-1],"loss_changes":[2.4680236E4,8.2746094E2,4.683323E3,8.8703125E1,5.64038E1,1.9648473E3,4.174795E2,5.5585938E0,6.3559906E1,3.96219E1,1.1979767E1,2.2677368E3,1.041674E3,1.986303E2,1.7269531E2,0E0,0E0,0E0,0E0,0E0,0E0,0E0,0E0,0E0,0E0,0E0,0E0,0E0,0E0,0E0,0E0],"parents":[2147483647,0,0,1,1,2,2,3,3,4,4,5,5,6,6,7,7,8,8,9,9,10,10,11,11,12,12,13,13,14,14],"right_children":[2,4,6,8,10,12,14,16,18,20,22,24,26,28,30,-1,-1,-1,-1,-1,-1,-1,-1,-1,-1,-1,-1,-1,-1,-1,-1],"split_conditions":[1E0,5E0,6.8E0,3.9E0,5.3E0,6E0,7.6513543E0,5.6E0,3.05E2,6.003436E0,4.4944735E0,6.7712265E1,2.78E2,2.021E3,2.02E3,-4.118304E-2,-2.9899979E-2,-3.2951877E-2,-4.6690274E-3,-5.0173946E-2,1.1505512E-2,5.7373755E-3,3.7090536E-2,-1.5186263E-2,3.730899E-2,4.2460743E-2,-2.0406112E-2,-4.910114E-2,1.386446E-2,2.4471072E-2,3.9858364E-2],"split_indices":[6,0,54,0,0,28,42,48,30,36,42,9,14,12,12,0,0,0,0,0,0,0,0,0,0,0,0,0,0,0,0],"split_type":[0,0,0,0,0,0,0,0,0,0,0,0,0,0,0,0,0,0,0,0,0,0,0,0,0,0,0,0,0,0,0],"sum_hessian":[2.457206E4,9.163584E3,1.5408477E4,8.981206E3,1.8237761E2,6.634706E3,8.7737705E3,8.538186E3,4.430212E2,5.000866E1,1.3236896E2,4.942034E3,1.6926719E3,2.6396927E2,8.509801E3,8.486295E3,5.188999E1,3.5294556E2,9.0075645E1,1.127122E1,3.8737442E1,1.2506117E1,1.1986283E2,4.0359983E3,9.06036E2,1.4080757E3,2.8459616E2,5.6537136E1,2.0743213E2,7.2337103E2,7.78643E3],"tree_param":{"num_deleted":"0","num_feature":"59","num_nodes":"31","size_leaf_vector":"1"}},{"base_weights":[-3.6155963E-3,-1.2924168E0,7.560887E-1,-1.3343685E0,7.7911377E-1,1.3436942E-1,1.2306947E0,-1.3476819E0,-6.0532314E-1,-5.421148E-1,9.668571E-1,-5.5879E-1,5.604406E-1,-6.133094E-3,1.2697327E0,-4.0756743E-2,-3.2913826E-2,-2.8733225E-3,-3.8744744E-2,1.64019E-2,-4.8878558E-2,1.7332627E-2,4.3439362E-2,-3.369691E-2,3.7362006E-2,1.9630758E-2,-3.979005E-2,2.3792783E-2,-3.571583E-2,2.2080837E-2,3.9567955E-2],"categories":[],"categories_nodes":[],"categories_segments":[],"categories_sizes":[],"default_left":[0,0,1,0,1,0,1,0,0,0,0,0,0,1,0,0,0,0,0,0,0,0,0,0,0,0,0,0,0,0,0],"id":21,"left_children":[1,3,5,7,9,11,13,15,17,19,21,23,25,27,29,-1,-1,-1,-1,-1,-1,-1,-1,-1,-1,-1,-1,-1,-1,-1,-1],"loss_changes":[2.3747973E4,7.827451E2,4.5025283E3,8.476074E1,4.4969788E1,1.9516299E3,4.1783008E2,2.2104492E1,5.579574E1,2.8038916E1,2.8600616E1,2.5632966E3,7.260514E2,2.5252245E2,2.192998E2,0E0,0E0,0E0,0E0,0E0,0E0,0E0,0E0,0E0,0E0,0E0,0E0,0E0,0E0,0E0,0E0],"parents":[2147483647,0,0,1,1,2,2,3,3,4,4,5,5,6,6,7,7,8,8,9,9,10,10,11,11,12,12,13,13,14,14],"right_children":[2,4,6,8,10,12,14,16,18,20,22,24,26,28,30,-1,-1,-1,-1,-1,-1,-1,-1,-1,-1,-1,-1,-1,-1,-1,-1],"split_conditions":[1E0,5E0,6.8E0,4.4E0,2.9E0,7.009061E0,5.85E0,3.8E0,3E1,7.6E1,5.9E0,6.935351E1,3.64E2,6.150613E0,2.02E3,-4.0756743E-2,-3.2913826E-2,-2.8733225E-3,-3.8744744E-2,1.64019E-2,-4.8878558E-2,1.7332627E-2,4.3439362E-2,-3.369691E-2,3.7362006E-2,1.9630758E-2,-3.979005E-2,2.3792783E-2,-3.571583E-2,2.2080837E-2,3.9567955E-2],"split_indices":[6,0,54,0,41,29,29,0,1,14,0,9,50,46,12,0,0,0,0,0,0,0,0,0,0,0,0,0,0,0,0],"split_type":[0,0,0,0,0,0,0,0,0,0,0,0,0,0,0,0,0,0,0,0,0,0,0,0,0,0,0,0,0,0,0],"sum_hessian":[2.4252705E4,8.994045E3,1.525866E4,8.815866E3,1.7817886E2,6.6061235E3,8.652536E3,8.65693E3,1.5893698E2,2.1933819E1,1.5624504E2,2.514715E3,4.0914082E3,2.647707E2,8.387766E3,8.292537E3,3.6439188E2,9.186098E1,6.7076E1,1.1206834E1,1.0726984E1,8.76001E1,6.864494E1,1.9157505E3,5.9896454E2,3.8980293E3,1.9337892E2,1.5828848E2,1.0648221E2,7.093031E2,7.678463E3],"tree_param":{"num_deleted":"0","num_feature":"59","num_nodes":"31","size_leaf_vector":"1"}},{"base_weights":[-4.4476734E-3,7.4911696E-1,-1.2684585E0,1.5216957E-1,1.2146506E0,-1.3115269E0,7.651954E-1,-1.7187022E-1,1.0532029E0,-3.038095E-1,1.2450465E0,-1.3266735E0,-6.450695E-1,-4.4507723E-2,1.0892419E0,-1.387135E-2,3.65866E-2,4.1466847E-2,-1.9242372E-2,-5.204256E-2,1.8731551E-2,2.0487733E-2,3.8991593E-2,-4.004072E-2,-9.925014E-3,-3.485545E-2,3.9045594E-3,-3.0182626E-2,2.9096987E-2,-3.547101E-2,3.407322E-2],"categories":[],"categories_nodes":[],"categories_segments":[],"categories_sizes":[],"default_left":[0,1,0,1,1,0,0,0,0,0,0,0,0,0,0,0,0,0,0,0,0,0,0,0,0,0,0,0,0,0,0],"id":22,"left_children":[1,3,5,7,9,11,13,15,17,19,21,23,25,27,29,-1,-1,-1,-1,-1,-1,-1,-1,-1,-1,-1,-1,-1,-1,-1,-1],"loss_changes":[2.2712992E4,4.151375E3,7.8106445E2,1.9116582E3,3.8776953E2,8.71875E1,4.867679E1,1.9472858E3,9.6649695E2,2.2092503E2,2.5200879E2,6.763965E1,7.85783E1,5.3583576E1,1.5338104E1,0E0,0E0,0E0,0E0,0E0,0E0,0E0,0E0,0E0,0E0,0E0,0E0,0E0,0E0,0E0,0E0],"parents":[2147483647,0,0,1,1,2,2,3,3,4,4,5,5,6,6,7,7,8,8,9,9,10,10,11,11,12,12,13,13,14,14],"right_children":[2,4,6,8,10,12,14,16,18,20,22,24,26,28,30,-1,-1,-1,-1,-1,-1,-1,-1,-1,-1,-1,-1,-1,-1,-1,-1],"split_conditions":[3.2530613E-6,6.8E0,5E0,6E0,3.5E0,4.3E0,5.3E0,7.4775764E1,2.78E2,3.1134623E1,2.021E3,1E0,1.1E1,1.2649E2,2.9E0,-1.387135E-2,3.65866E-2,4.1466847E-2,-1.9242372E-2,-5.204256E-2,1.8731551E-2,2.0487733E-2,3.8991593E-2,-4.004072E-2,-9.925014E-3,-3.485545E-2,3.9045594E-3,-3.0182626E-2,2.9096987E-2,-3.547101E-2,3.407322E-2],"split_indices":[4,54,0,28,28,0,0,9,14,9,12,6,40,3,41,0,0,0,0,0,0,0,0,0,0,0,0,0,0,0,0],"split_type":[0,0,0,0,0,0,0,0,0,0,0,0,0,0,0,0,0,0,0,0,0,0,0,0,0,0,0,0,0,0,0],"sum_hessian":[2.3843316E4,1.4938091E4,8.905226E3,6.545813E3,8.392278E3,8.720892E3,1.8433435E2,4.814998E3,1.7308148E3,1.645195E2,8.227759E3,8.526127E3,1.947652E2,5.293271E1,1.3140164E2,3.98389E3,8.311081E2,1.4495547E3,2.8126022E2,6.438776E1,1.00131744E2,7.305117E2,7.4972466E3,8.457696E3,6.843012E1,1.16563065E2,7.8202126E1,2.7178135E1,2.5754574E1,2.1476521E0,1.29254E2],"tree_param":{"num_deleted":"0","num_feature":"59","num_nodes":"31","size_leaf_vector":"1"}},{"base_weights":[2.929185E-3,-1.2635221E0,7.326258E-1,-1.306129E0,7.5655735E-1,1.3279167E-1,1.1994313E0,-1.328869E0,-9.481213E-1,3.4269536E-1,1.3280662E0,-1.7224282E-1,1.0255243E0,-6.465006E-1,1.2251084E0,-3.989976E-2,-1.5031018E-2,-3.113001E-2,9.736302E-3,-3.0874586E-2,1.752949E-2,4.1705966E-2,4.8464825E-3,-1.3825597E-2,3.613886E-2,4.0810708E-2,-1.6933555E-2,-4.7574975E-2,2.8627295E-2,2.0637771E-2,3.837689E-2],"categories":[],"categories_nodes":[],"categories_segments":[],"categories_sizes":[],"default_left":[0,0,1,0,0,1,0,1,0,1,0,0,0,0,0,0,0,0,0,0,0,0,0,0,0,0,0,0,0,0,0],"id":23,"left_children":[1,3,5,7,9,11,13,15,17,19,21,23,25,27,29,-1,-1,-1,-1,-1,-1,-1,-1,-1,-1,-1,-1,-1,-1,-1,-1],"loss_changes":[2.1865625E4,7.4542676E2,4.203176E3,6.7703125E1,4.1952293E1,1.7895039E3,4.0091504E2,6.7353516E0,5.8390686E1,3.5516987E1,5.2081604E0,1.9470345E3,8.917146E2,1.7663971E2,2.4119238E2,0E0,0E0,0E0,0E0,0E0,0E0,0E0,0E0,0E0,0E0,0E0,0E0,0E0,0E0,0E0,0E0],"parents":[2147483647,0,0,1,1,2,2,3,3,4,4,5,5,6,6,7,7,8,8,9,9,10,10,11,11,12,12,13,13,14,14],"right_children":[2,4,6,8,10,12,14,16,18,20,22,24,26,28,30,-1,-1,-1,-1,-1,-1,-1,-1,-1,-1,-1,-1,-1,-1,-1,-1],"split_conditions":[1E0,5E0,6.8E0,3.8E0,5.9E0,6E0,3.4E0,6.1E0,1.34E2,4.6015434E0,5.6616684E1,7.4775764E1,1E1,5.0033447E1,2.021E3,-3.989976E-2,-1.5031018E-2,-3.113001E-2,9.736302E-3,-3.0874586E-2,1.752949E-2,4.1705966E-2,4.8464825E-3,-1.3825597E-2,3.613886E-2,4.0810708E-2,-1.6933555E-2,-4.7574975E-2,2.8627295E-2,2.0637771E-2,3.837689E-2],"split_indices":[6,0,54,0,0,28,28,48,53,42,56,9,13,9,12,0,0,0,0,0,0,0,0,0,0,0,0,0,0,0,0],"split_type":[0,0,0,0,0,0,0,0,0,0,0,0,0,0,0,0,0,0,0,0,0,0,0,0,0,0,0,0,0,0,0],"sum_hessian":[2.3658889E4,8.648295E3,1.5010594E4,8.470002E3,1.7829301E2,6.569818E3,8.440775E3,7.961586E3,5.0841632E2,1.043366E2,7.395641E1,4.8972886E3,1.6725293E3,1.1546914E2,8.325307E3,7.950194E3,1.1391954E1,4.7516782E2,3.3248528E1,1.5136563E1,8.920004E1,7.003439E1,3.9220257E0,4.0491902E3,8.4809845E2,1.3817015E3,2.9082776E2,7.277398E1,4.269516E1,7.632616E2,7.562045E3],"tree_param":{"num_deleted":"0","num_feature":"59","num_nodes":"31","size_leaf_vector":"1"}},{"base_weights":[5.083131E-4,-1.2447098E0,7.1819144E-1,-1.2901764E0,7.770904E-1,2.074907E-1,1.2477105E0,-1.3059853E0,-6.166496E-1,-1.978945E-3,1.0695912E0,3.885952E-1,-1.002766E0,-4.3901738E-2,1.2712697E0,-3.9469004E-2,-3.186004E-2,-4.1187834E-2,-5.7294355E-3,2.134097E-2,-2.8880663E-2,-3.57435E-2,3.354516E-2,-3.0932252E-3,2.7964069E-2,-4.5466077E-2,4.046936E-2,2.7333371E-2,-4.920316E-2,3.828008E-2,-3.7431765E-2],"categories":[],"categories_nodes":[],"categories_segments":[],"categories_sizes":[],"default_left":[0,0,1,0,0,0,1,0,0,0,0,0,0,0,0,0,0,0,0,0,0,0,0,0,0,0,0,0,0,0,0],"id":24,"left_children":[1,3,5,7,9,11,13,15,17,19,21,23,25,27,29,-1,-1,-1,-1,-1,-1,-1,-1,-1,-1,-1,-1,-1,-1,-1,-1],"loss_changes":[2.0807117E4,7.8352637E2,3.9939302E3,8.784668E1,4.2808777E1,1.6486018E3,2.2070605E2,1.775E1,6.1816605E1,3.650924E1,1.6334015E1,1.7484376E3,1.1827249E3,2.0097746E2,8.649707E1,0E0,0E0,0E0,0E0,0E0,0E0,0E0,0E0,0E0,0E0,0E0,0E0,0E0,0E0,0E0,0E0],"parents":[2147483647,0,0,1,1,2,2,3,3,4,4,5,5,6,6,7,7,8,8,9,9,10,10,11,11,12,12,13,13,14,14],"right_children":[2,4,6,8,10,12,14,16,18,20,22,24,26,28,30,-1,-1,-1,-1,-1,-1,-1,-1,-1,-1,-1,-1,-1,-1,-1,-1],"split_conditions":[1E0,5E0,1.0500309E1,4.3E0,5.3E0,4.6763887E0,3.5E0,3.8E0,6.31E0,2.021E3,2.9E0,6E0,6.327691E1,1.72E1,5.53E2,-3.9469004E-2,-3.186004E-2,-4.1187834E-2,-5.7294355E-3,2.134097E-2,-2.8880663E-2,-3.57435E-2,3.354516E-2,-3.0932252E-3,2.7964069E-2,-4.5466077E-2,4.046936E-2,2.7333371E-2,-4.920316E-2,3.828008E-2,-3.7431765E-2],"split_indices":[6,0,55,0,0,8,28,0,2,12,41,10,9,2,34,0,0,0,0,0,0,0,0,0,0,0,0,0,0,0,0],"split_type":[0,0,0,0,0,0,0,0,0,0,0,0,0,0,0,0,0,0,0,0,0,0,0,0,0,0,0,0,0,0,0],"sum_hessian":[2.3280719E4,8.511713E3,1.4769006E4,8.324864E3,1.868487E2,7.5188022E3,7.250204E3,8.1330273E3,1.9183694E2,5.127421E1,1.3557448E2,6.5407188E3,9.780833E2,1.2986035E2,7.1203438E3,7.819421E3,3.136066E2,6.828707E1,1.2354987E2,2.9574299E1,2.1699915E1,2.3568535E0,1.3321762E2,3.4345415E3,3.1061772E3,8.032909E2,1.7479247E2,8.151741E1,4.834295E1,7.1074824E3,1.2861168E1],"tree_param":{"num_deleted":"0","num_feature":"59","num_nodes":"31","size_leaf_vector":"1"}},{"base_weights":[-5.6406725E-3,-1.0057337E0,8.671509E-1,-1.238197E0,-3.0164355E-1,-2.414382E-2,1.1125052E0,-1.2537395E0,-8.804026E-1,-1.0300658E0,1.054224E0,1.5880373E0,-3.7253255E-1,7.5994164E-1,1.2979693E0,-3.7939403E-2,-3.4473624E-2,-2.756693E-2,2.6206827E-2,-3.69915E-2,3.1648476E-2,-1.4034126E-2,3.364982E-2,-2.9360082E-2,5.0960053E-2,-2.9656507E-2,6.0624173E-3,2.671325E-2,-4.3226514E-2,-3.650204E-2,3.9053652E-2],"categories":[],"categories_nodes":[],"categories_segments":[],"categories_sizes":[],"default_left":[1,0,0,0,0,0,0,0,0,0,0,0,0,0,0,0,0,0,0,0,0,0,0,0,0,0,0,0,0,0,0],"id":25,"left_children":[1,3,5,7,9,11,13,15,17,19,21,23,25,27,29,-1,-1,-1,-1,-1,-1,-1,-1,-1,-1,-1,-1,-1,-1,-1,-1],"loss_changes":[1.9964469E4,1.7441982E3,2.6708877E3,4.345703E1,2.6153252E3,1.4818906E3,6.252383E2,7.305664E0,2.3552704E1,7.302599E2,9.552405E1,1.3479272E2,7.6813965E2,9.5014075E2,6.1841797E1,0E0,0E0,0E0,0E0,0E0,0E0,0E0,0E0,0E0,0E0,0E0,0E0,0E0,0E0,0E0,0E0],"parents":[2147483647,0,0,1,1,2,2,3,3,4,4,5,5,6,6,7,7,8,8,9,9,10,10,11,11,12,12,13,13,14,14],"right_children":[2,4,6,8,10,12,14,16,18,20,22,24,26,28,30,-1,-1,-1,-1,-1,-1,-1,-1,-1,-1,-1,-1,-1,-1,-1,-1],"split_conditions":[6.184956E0,1E0,6.1E0,1.2694E2,4.0310535E1,1.4E1,1.257E2,1.2649E2,3.63E2,3.61E2,4.3E0,6.2E1,5.2E0,7.5E2,1E0,-3.7939403E-2,-3.4473624E-2,-2.756693E-2,2.6206827E-2,-3.69915E-2,3.1648476E-2,-1.4034126E-2,3.364982E-2,-2.9360082E-2,5.0960053E-2,-2.9656507E-2,6.0624173E-3,2.671325E-2,-4.3226514E-2,-3.650204E-2,3.9053652E-2],"split_indices":[29,6,54,3,9,14,3,3,14,14,10,27,10,50,6,0,0,0,0,0,0,0,0,0,0,0,0,0,0,0,0],"split_type":[0,0,0,0,0,0,0,0,0,0,0,0,0,0,0,0,0,0,0,0,0,0,0,0,0,0,0,0,0,0,0],"sum_hessian":[2.2870143E4,1.0657749E4,1.2212394E4,8.011804E3,2.6459446E3,2.6363323E3,9.576062E3,7.6758613E3,3.3594257E2,1.7213904E3,9.245543E2,4.6783786E2,2.1684944E3,3.3027324E3,6.2733286E3,6.9411157E3,7.347458E2,3.291937E2,6.7488623E0,1.5690463E3,1.5234406E2,3.897444E1,8.855799E2,1.9007479E1,4.4883038E2,1.0461945E3,1.1222999E3,3.1184182E3,1.8431418E2,9.031257E0,6.2642974E3],"tree_param":{"num_deleted":"0","num_feature":"59","num_nodes":"31","size_leaf_vector":"1"}},{"base_weights":[9.270461E-3,-9.8706555E-1,8.668807E-1,-1.2229235E0,-2.8660357E-1,2.1828525E-2,1.1045159E0,-1.2631253E0,7.048759E-1,-1.008425E0,1.0373622E0,1.5618513E0,-3.3318648E-1,3.8725635E-1,1.2203124E0,-3.8663276E-2,-2.3471866E-2,8.796562E-3,3.931763E-2,-3.5468284E-2,2.8658852E-2,-3.9712167E-3,3.548034E-2,-2.9394016E-2,4.9986776E-2,-2.7666485E-2,6.3622496E-3,2.19059E-2,-3.926859E-2,-2.184158E-2,3.7021186E-2],"categories":[],"categories_nodes":[],"categories_segments":[],"categories_sizes":[],"default_left":[1,0,0,0,0,0,0,0,0,0,0,0,0,0,0,0,0,0,0,0,0,0,0,0,0,0,0,0,0,0,0],"id":26,"left_children":[1,3,5,7,9,11,13,15,17,19,21,23,25,27,29,-1,-1,-1,-1,-1,-1,-1,-1,-1,-1,-1,-1,-1,-1,-1,-1],"loss_changes":[1.9353752E4,1.7306514E3,2.444374E3,6.083428E2,2.5245852E3,1.4617725E3,7.886221E2,9.3671875E1,3.9699112E1,5.847167E2,1.5861053E2,1.3450769E2,6.98054E2,7.700118E2,2.1966797E2,0E0,0E0,0E0,0E0,0E0,0E0,0E0,0E0,0E0,0E0,0E0,0E0,0E0,0E0,0E0,0E0],"parents":[2147483647,0,0,1,1,2,2,3,3,4,4,5,5,6,6,7,7,8,8,9,9,10,10,11,11,12,12,13,13,14,14],"right_children":[2,4,6,8,10,12,14,16,18,20,22,24,26,28,30,-1,-1,-1,-1,-1,-1,-1,-1,-1,-1,-1,-1,-1,-1,-1,-1],"split_conditions":[6.184956E0,1E0,6.1E0,5E0,4.0310535E1,1.4E1,2.02E3,3.9E0,5.9E0,3.61E2,2.9166667E-2,6.2E1,5.2E0,1.446E3,7.5228176E0,-3.8663276E-2,-2.3471866E-2,8.796562E-3,3.931763E-2,-3.5468284E-2,2.8658852E-2,-3.9712167E-3,3.548034E-2,-2.9394016E-2,4.9986776E-2,-2.7666485E-2,6.3622496E-3,2.19059E-2,-3.926859E-2,-2.184158E-2,3.7021186E-2],"split_indices":[29,6,54,0,9,14,12,0,0,14,8,27,10,43,42,0,0,0,0,0,0,0,0,0,0,0,0,0,0,0,0],"split_type":[0,0,0,0,0,0,0,0,0,0,0,0,0,0,0,0,0,0,0,0,0,0,0,0,0,0,0,0,0,0,0],"sum_hessian":[2.264806E4,1.0476614E4,1.2171446E4,7.837009E3,2.6396055E3,2.6717068E3,9.49974E3,7.6772544E3,1.597544E2,1.7084197E3,9.31186E2,4.9987875E2,2.171828E3,1.3210864E3,8.1786533E3,7.286768E3,3.9048624E2,9.599669E1,6.3757698E1,1.5698375E3,1.3858215E2,1.029077E2,8.2827826E2,1.9387274E1,4.804915E2,1.04368E3,1.1281478E3,1.0993823E3,2.217041E2,5.685546E1,8.1217983E3],"tree_param":{"num_deleted":"0","num_feature":"59","num_nodes":"31","size_leaf_vector":"1"}},{"base_weights":[2.2006528E-3,-1.2077854E0,6.839565E-1,-1.2509062E0,7.296266E-1,1.1271428E-1,1.1459748E0,-1.2772851E0,-6.838955E-1,3.3974683E-1,1.3047717E0,-4.572683E-1,5.339511E-1,-7.709567E-2,1.1890503E0,-3.8456835E-2,-3.0756293E-2,-4.0198516E-2,-1.0470448E-2,2.3647394E-2,-1.1172E-2,4.0742278E-2,7.7496115E-3,-2.4454372E-2,8.822552E-3,2.2585582E-2,-8.334651E-3,-1.6522488E-2,3.906577E-2,2.7874775E-2,3.8155545E-2],"categories":[],"categories_nodes":[],"categories_segments":[],"categories_sizes":[],"default_left":[0,0,1,0,0,1,0,0,0,0,0,0,0,0,0,0,0,0,0,0,0,0,0,0,0,0,0,0,0,0,0],"id":27,"left_children":[1,3,5,7,9,11,13,15,17,19,21,23,25,27,29,-1,-1,-1,-1,-1,-1,-1,-1,-1,-1,-1,-1,-1,-1,-1,-1],"loss_changes":[1.835465E4,6.7081836E2,3.7559492E3,1.1645801E2,3.884706E1,1.5284019E3,4.146084E2,7.3945312E0,7.661975E1,3.4079426E1,3.5782013E0,7.2768756E2,6.506538E2,1.7620369E2,1.623711E2,0E0,0E0,0E0,0E0,0E0,0E0,0E0,0E0,0E0,0E0,0E0,0E0,0E0,0E0,0E0,0E0],"parents":[2147483647,0,0,1,1,2,2,3,3,4,4,5,5,6,6,7,7,8,8,9,9,10,10,11,11,12,12,13,13,14,14],"right_children":[2,4,6,8,10,12,14,16,18,20,22,24,26,28,30,-1,-1,-1,-1,-1,-1,-1,-1,-1,-1,-1,-1,-1,-1,-1,-1],"split_conditions":[1E0,5E0,6.8E0,4E0,5.9E0,7.077908E0,7.6513543E0,3.8E0,6.25E0,2.12E2,5.6616684E1,6.2E0,1E1,2.402E3,1.255E2,-3.8456835E-2,-3.0756293E-2,-4.0198516E-2,-1.0470448E-2,2.3647394E-2,-1.1172E-2,4.0742278E-2,7.7496115E-3,-2.4454372E-2,8.822552E-3,2.2585582E-2,-8.334651E-3,-1.6522488E-2,3.906577E-2,2.7874775E-2,3.8155545E-2],"split_indices":[6,0,54,0,0,29,42,0,2,30,56,32,13,43,3,0,0,0,0,0,0,0,0,0,0,0,0,0,0,0,0],"split_type":[0,0,0,0,0,0,0,0,0,0,0,0,0,0,0,0,0,0,0,0,0,0,0,0,0,0,0,0,0,0,0],"sum_hessian":[2.224835E4,8.0176987E3,1.423065E4,7.8434814E3,1.7421762E2,6.3637344E3,7.866916E3,7.4936055E3,3.498756E2,1.0478E2,6.943762E1,2.704349E3,3.6593855E3,2.6761337E2,7.5993027E3,7.3550244E3,1.3858118E2,1.1722404E2,2.3265158E2,6.4225105E1,4.0554893E1,6.578868E1,3.648944E0,1.8317721E3,8.72577E2,2.8822375E3,7.7714795E2,1.9965248E2,6.796089E1,1.8390951E3,5.760208E3],"tree_param":{"num_deleted":"0","num_feature":"59","num_nodes":"31","size_leaf_vector":"1"}},{"base_weights":[-4.7905627E-3,-1.1909331E0,6.6498846E-1,-1.220147E0,-1.0074141E0,1.0350079E-1,1.1301655E0,-1.2250472E0,-9.093258E-1,-1.0359781E0,4.2606777E-1,-1.782728E-1,9.385511E-1,-7.747644E-2,1.1718012E0,-3.168143E-2,-3.6972594E-2,-2.9667001E-2,5.2697398E-2,-3.637605E-2,-2.6898982E-2,-3.4875598E-2,4.803915E-2,4.1639008E-2,-1.1076927E-2,3.8151156E-2,-2.072518E-2,-1.9832326E-2,3.3264924E-2,2.0284088E-2,3.664605E-2],"categories":[],"categories_nodes":[],"categories_segments":[],"categories_sizes":[],"default_left":[0,0,1,0,0,1,0,0,0,0,1,0,0,0,0,0,0,0,0,0,0,0,0,0,0,0,0,0,0,0,0],"id":28,"left_children":[1,3,5,7,9,11,13,15,17,19,21,23,25,27,29,-1,-1,-1,-1,-1,-1,-1,-1,-1,-1,-1,-1,-1,-1,-1,-1],"loss_changes":[1.730448E4,4.0913086E1,3.6359004E3,9.207031E0,4.487683E1,1.4845502E3,3.828955E2,7.0078125E0,2.4871864E1,2.5097412E1,4.2767776E1,1.4115375E3,8.649751E2,1.770507E2,1.8059863E2,0E0,0E0,0E0,0E0,0E0,0E0,0E0,0E0,0E0,0E0,0E0,0E0,0E0,0E0,0E0,0E0],"parents":[2147483647,0,0,1,1,2,2,3,3,4,4,5,5,6,6,7,7,8,8,9,9,10,10,11,11,12,12,13,13,14,14],"right_children":[2,4,6,8,10,12,14,16,18,20,22,24,26,28,30,-1,-1,-1,-1,-1,-1,-1,-1,-1,-1,-1,-1,-1,-1,-1,-1],"split_conditions":[1E0,1.2649E2,6.8E0,1.61E2,1.064E1,6E0,7.6513543E0,5.62E0,1.8E1,6.7568293E0,4.8E0,1.4E1,2.78E2,5.12E2,2.02E3,-3.168143E-2,-3.6972594E-2,-2.9667001E-2,5.2697398E-2,-3.637605E-2,-2.6898982E-2,-3.4875598E-2,4.803915E-2,4.1639008E-2,-1.1076927E-2,3.8151156E-2,-2.072518E-2,-1.9832326E-2,3.3264924E-2,2.0284088E-2,3.664605E-2],"split_indices":[6,3,54,1,2,28,42,2,34,46,39,14,14,30,12,0,0,0,0,0,0,0,0,0,0,0,0,0,0,0,0],"split_type":[0,0,0,0,0,0,0,0,0,0,0,0,0,0,0,0,0,0,0,0,0,0,0,0,0,0,0,0,0,0,0],"sum_hessian":[2.177962E4,7.8597124E3,1.3919906E4,6.7754927E3,1.0842201E3,6.3075996E3,7.6123066E3,6.667437E3,1.0805554E2,1.0633096E3,2.0910517E1,4.7167866E3,1.5908132E3,2.5367284E2,7.358634E3,2.847372E2,6.3826997E3,1.0553451E2,2.5210302E0,4.6563168E2,5.9767786E2,8.896198E0,1.2014318E1,5.1190115E2,4.2048853E3,1.3209451E3,2.6986816E2,1.7032472E2,8.3348114E1,6.723497E2,6.686284E3],"tree_param":{"num_deleted":"0","num_feature":"59","num_nodes":"31","size_leaf_vector":"1"}},{"base_weights":[4.826771E-3,6.682712E-1,-1.1832982E0,1.9925109E-1,1.1859148E0,-1.2226479E0,6.755062E-1,-4.5083702E-1,5.3423244E-1,-6.239259E-2,1.2088275E0,-1.2316662E0,9.239401E-2,-5.3649616E-1,8.6651284E-1,-2.9075505E-2,3.4651514E-2,1.832142E-2,-3.535662E-2,2.94404E-2,-4.3310996E-2,3.6426358E-2,-4.025781E-2,-3.763992E-2,-2.4350895E-2,-3.0735375E-2,2.9463189E-2,-4.6481982E-2,1.1578709E-2,1.6191445E-2,4.0789846E-2],"categories":[],"categories_nodes":[],"categories_segments":[],"categories_sizes":[],"default_left":[0,1,0,0,0,1,1,0,0,0,0,0,0,0,0,0,0,0,0,0,0,0,0,0,0,0,0,0,0,0,0],"id":29,"left_children":[1,3,5,7,9,11,13,15,17,19,21,23,25,27,29,-1,-1,-1,-1,-1,-1,-1,-1,-1,-1,-1,-1,-1,-1,-1,-1],"loss_changes":[1.706031E4,3.371585E3,5.6805566E2,1.5872098E3,1.8889648E2,9.018164E1,3.783142E1,2.0644067E3,6.3077954E2,1.7433786E2,9.0663086E1,7.183496E1,5.333427E1,2.1707066E1,2.1799248E1,0E0,0E0,0E0,0E0,0E0,0E0,0E0,0E0,0E0,0E0,0E0,0E0,0E0,0E0,0E0,0E0],"parents":[2147483647,0,0,1,1,2,2,3,3,4,4,5,5,6,6,7,7,8,8,9,9,10,10,11,11,12,12,13,13,14,14],"right_children":[2,4,6,8,10,12,14,16,18,20,22,24,26,28,30,-1,-1,-1,-1,-1,-1,-1,-1,-1,-1,-1,-1,-1,-1,-1,-1],"split_conditions":[3.2530613E-6,1.0500309E1,5E0,6.9162216E0,3.5E0,1.0201123E1,2.9E0,6.7712265E1,3.14E2,1.72E1,5.53E2,3.9E0,3.173E3,3.6E1,5.9E0,-2.9075505E-2,3.4651514E-2,1.832142E-2,-3.535662E-2,2.94404E-2,-4.3310996E-2,3.6426358E-2,-4.025781E-2,-3.763992E-2,-2.4350895E-2,-3.0735375E-2,2.9463189E-2,-4.6481982E-2,1.1578709E-2,1.6191445E-2,4.0789846E-2],"split_indices":[4,55,0,29,28,55,41,9,47,2,34,0,43,17,0,0,0,0,0,0,0,0,0,0,0,0,0,0,0,0,0],"split_type":[0,0,0,0,0,0,0,0,0,0,0,0,0,0,0,0,0,0,0,0,0,0,0,0,0,0,0,0,0,0,0],"sum_hessian":[2.1641135E4,1.3887081E4,7.7540547E3,7.2864497E3,6.6006313E3,7.5936445E3,1.6041013E2,2.4777024E3,4.808747E3,1.1894043E2,6.481691E3,7.5419863E3,5.16585E1,2.1592104E1,1.3881802E2,1.8734037E3,6.0429865E2,4.6038154E3,2.049319E2,6.791344E1,5.102699E1,6.4685605E3,1.3130356E1,7.1485396E3,3.9344672E2,2.2837624E1,2.8820879E1,9.967548E0,1.1624557E1,8.475038E1,5.4067642E1],"tree_param":{"num_deleted":"0","num_feature":"59","num_nodes":"31","size_leaf_vector":"1"}},{"base_weights":[2.9685926E-3,-9.381557E-1,8.093118E-1,-1.1727378E0,-2.766157E-1,-5.7167583E-3,1.047067E0,-1.2183083E0,7.331785E-1,-9.505308E-1,9.986113E-1,1.4931558E0,-3.212004E-1,3.1944954E-1,1.1694478E0,-3.742967E-2,-2.0805359E-2,9.760424E-3,3.8609814E-2,-3.410965E-2,2.5314221E-2,-1.3694067E-2,3.1855427E-2,-2.7816778E-2,4.777497E-2,-2.6932437E-2,6.1969045E-3,3.1648327E-2,-1.3027693E-2,-2.4688506E-2,3.551763E-2],"categories":[],"categories_nodes":[],"categories_segments":[],"categories_sizes":[],"default_left":[1,0,0,0,0,0,0,0,0,0,0,0,0,0,0,0,0,0,0,0,0,0,0,0,0,0,0,0,0,0,0],"id":30,"left_children":[1,3,5,7,9,11,13,15,17,19,21,23,25,27,29,-1,-1,-1,-1,-1,-1,-1,-1,-1,-1,-1,-1,-1,-1,-1,-1],"loss_changes":[1.6098389E4,1.5187441E3,2.2138955E3,6.284951E2,2.2042234E3,1.2210226E3,7.8722266E2,1.07831055E2,3.783412E1,5.62313E2,8.2092224E1,1.09435486E2,6.492622E2,7.071542E2,2.1929395E2,0E0,0E0,0E0,0E0,0E0,0E0,0E0,0E0,0E0,0E0,0E0,0E0,0E0,0E0,0E0,0E0],"parents":[2147483647,0,0,1,1,2,2,3,3,4,4,5,5,6,6,7,7,8,8,9,9,10,10,11,11,12,12,13,13,14,14],"right_children":[2,4,6,8,10,12,14,16,18,20,22,24,26,28,30,-1,-1,-1,-1,-1,-1,-1,-1,-1,-1,-1,-1,-1,-1,-1,-1],"split_conditions":[6.184956E0,1E0,6.1E0,5E0,4.0310535E1,1.4E1,2.02E3,3.9E0,5.9E0,3.59E2,4.2E0,6.2E1,5.2E0,1.4E1,7.5228176E0,-3.742967E-2,-2.0805359E-2,9.760424E-3,3.8609814E-2,-3.410965E-2,2.5314221E-2,-1.3694067E-2,3.1855427E-2,-2.7816778E-2,4.777497E-2,-2.6932437E-2,6.1969045E-3,3.1648327E-2,-1.3027693E-2,-2.4688506E-2,3.551763E-2],"split_indices":[29,6,54,0,9,14,12,0,0,14,10,27,10,44,42,0,0,0,0,0,0,0,0,0,0,0,0,0,0,0,0],"split_type":[0,0,0,0,0,0,0,0,0,0,0,0,0,0,0,0,0,0,0,0,0,0,0,0,0,0,0,0,0,0,0],"sum_hessian":[2.1211652E4,9.7877295E3,1.1423922E4,7.2249785E3,2.5627512E3,2.5801394E3,8.843783E3,7.0566157E3,1.6836298E2,1.6768475E3,8.859036E2,4.479904E2,2.1321492E3,1.2738267E3,7.569956E3,6.681594E3,3.7502148E2,9.787502E1,7.048795E1,1.5193334E3,1.5751418E2,3.6637978E1,8.492656E2,1.7333988E1,4.306564E2,1.018645E3,1.1135042E3,6.444998E2,6.293269E2,5.4190533E1,7.5157656E3],"tree_param":{"num_deleted":"0","num_feature":"59","num_nodes":"31","size_leaf_vector":"1"}},{"base_weights":[-2.4203878E-4,-9.3655264E-1,7.9251754E-1,-1.1627607E0,-2.919164E-1,-2.759693E-2,1.0265754E0,-1.2092196E0,7.286383E-1,-9.542216E-1,1.0351337E0,1.4551758E0,-3.446857E-1,6.685174E-1,1.228789E0,-3.7177596E-2,-2.258992E-2,-3.9684772E-2,2.4497276E-2,-3.3304874E-2,2.7899664E-2,-9.3311607E-4,3.5496768E-2,-2.8581372E-2,4.693709E-2,-2.7050173E-2,5.8270157E-3,2.3808789E-2,-4.0220514E-2,-3.523038E-2,3.700099E-2],"categories":[],"categories_nodes":[],"categories_segments":[],"categories_sizes":[],"default_left":[1,0,0,0,0,0,0,0,0,0,0,0,0,0,0,0,0,0,0,0,0,0,0,0,0,0,0,0,0,0,0],"id":31,"left_children":[1,3,5,7,9,11,13,15,17,19,21,23,25,27,29,-1,-1,-1,-1,-1,-1,-1,-1,-1,-1,-1,-1,-1,-1,-1,-1],"loss_changes":[1.5493342E4,1.3951787E3,2.1696729E3,6.233496E2,2.1870312E3,1.1808943E3,6.3585547E2,9.380664E1,3.1830116E1,4.8868872E2,1.308634E2,1.1804559E2,6.212516E2,7.9938635E2,6.3251953E1,0E0,0E0,0E0,0E0,0E0,0E0,0E0,0E0,0E0,0E0,0E0,0E0,0E0,0E0,0E0,0E0],"parents":[2147483647,0,0,1,1,2,2,3,3,4,4,5,5,6,6,7,7,8,8,9,9,10,10,11,11,12,12,13,13,14,14],"right_children":[2,4,6,8,10,12,14,16,18,20,22,24,26,28,30,-1,-1,-1,-1,-1,-1,-1,-1,-1,-1,-1,-1,-1,-1,-1,-1],"split_conditions":[6.158989E0,1E0,6E0,5E0,5.0033447E1,1.4E1,1.257E2,3.8E0,2.9E0,1.058605E1,2.9166667E-2,6.2E1,5.2E0,7.5E2,1E0,-3.7177596E-2,-2.258992E-2,-3.9684772E-2,2.4497276E-2,-3.3304874E-2,2.7899664E-2,-9.3311607E-4,3.5496768E-2,-2.8581372E-2,4.693709E-2,-2.7050173E-2,5.8270157E-3,2.3808789E-2,-4.0220514E-2,-3.523038E-2,3.700099E-2],"split_indices":[29,6,54,0,9,14,3,0,41,55,8,27,10,50,6,0,0,0,0,0,0,0,0,0,0,0,0,0,0,0,0],"split_type":[0,0,0,0,0,0,0,0,0,0,0,0,0,0,0,0,0,0,0,0,0,0,0,0,0,0,0,0,0,0,0],"sum_hessian":[2.0870941E4,9.569013E3,1.1301928E4,7.082798E3,2.4862148E3,2.5095627E3,8.792365E3,6.913344E3,1.6945326E2,1.6586803E3,8.2753455E2,4.414874E2,2.0680754E3,3.1748994E3,5.617466E3,6.4847305E3,4.2861383E2,6.3879676E0,1.6306529E2,1.532277E3,1.26403366E2,1.0101718E2,7.2651733E2,1.8850792E1,4.226366E2,1.01665955E3,1.0514159E3,2.9893628E3,1.8553653E2,1.0193755E1,5.607272E3],"tree_param":{"num_deleted":"0","num_feature":"59","num_nodes":"31","size_leaf_vector":"1"}},{"base_weights":[-8.9514005E-4,-9.337022E-1,7.791873E-1,-3.0566603E-1,-1.1533004E0,3.0904275E-1,1.19282E0,-9.872299E-1,9.5184284E-1,-1.1981332E0,6.899428E-1,7.667537E-1,-3.8358618E-2,1.1974694E0,-1.581747E0,-3.38886E-2,2.8924836E-2,-1.2800015E-3,3.286248E-2,-3.6816176E-2,-2.0721305E-2,-1.0834543E-2,2.6313342E-2,7.183536E-3,3.3523433E-2,-2.776637E-2,9.571326E-3,-8.9047095E-3,3.6163505E-2,-4.3787877E-3,-9.162871E-2],"categories":[],"categories_nodes":[],"categories_segments":[],"categories_sizes":[],"default_left":[1,0,0,0,0,0,0,0,0,0,1,0,0,0,0,0,0,0,0,0,0,0,0,0,0,0,0,0,0,0,0],"id":32,"left_children":[1,3,5,7,9,11,13,15,17,19,21,23,25,27,29,-1,-1,-1,-1,-1,-1,-1,-1,-1,-1,-1,-1,-1,-1,-1,-1],"loss_changes":[1.491778E4,1.287294E3,2.1707354E3,2.0752092E3,5.7245703E2,8.311067E2,7.8506836E1,4.373286E2,1.2158185E2,9.87793E1,3.27554E1,4.1678528E2,9.427615E2,7.106836E1,2.147084E1,0E0,0E0,0E0,0E0,0E0,0E0,0E0,0E0,0E0,0E0,0E0,0E0,0E0,0E0,0E0,0E0],"parents":[2147483647,0,0,1,1,2,2,3,3,4,4,5,5,6,6,7,7,8,8,9,9,10,10,11,11,12,12,13,13,14,14],"right_children":[2,4,6,8,10,12,14,16,18,20,22,24,26,28,30,-1,-1,-1,-1,-1,-1,-1,-1,-1,-1,-1,-1,-1,-1,-1,-1],"split_conditions":[6.158989E0,3.4400853E-6,1.0355644E1,4.0310535E1,5E0,2E0,5.53E2,1.058605E1,2.9166667E-2,3.9E0,2.9E0,8.1E1,5.2E0,7.4018173E0,7.838439E0,-3.38886E-2,2.8924836E-2,-1.2800015E-3,3.286248E-2,-3.6816176E-2,-2.0721305E-2,-1.0834543E-2,2.6313342E-2,7.183536E-3,3.3523433E-2,-2.776637E-2,9.571326E-3,-8.9047095E-3,3.6163505E-2,-4.3787877E-3,-9.162871E-2],"split_indices":[29,4,55,9,0,16,34,55,8,0,41,17,10,42,33,0,0,0,0,0,0,0,0,0,0,0,0,0,0,0,0],"split_type":[0,0,0,0,0,0,0,0,0,0,0,0,0,0,0,0,0,0,0,0,0,0,0,0,0,0,0,0,0,0,0],"sum_hessian":[2.0498854E4,9.335479E3,1.1163375E4,2.4191794E3,6.9162983E3,5.2255923E3,5.937783E3,1.5690026E3,8.50177E2,6.752411E3,1.6388754E2,2.2542925E3,2.9712996E3,5.928417E3,9.366111E0,1.462693E3,1.0630952E2,1.07341515E2,7.428355E2,6.385157E3,3.67254E2,2.4631784E1,1.3925577E2,9.010936E2,1.3531989E3,8.527972E2,2.1185024E3,3.1302036E1,5.897115E3,5.2987456E0,4.0673647E0],"tree_param":{"num_deleted":"0","num_feature":"59","num_nodes":"31","size_leaf_vector":"1"}},{"base_weights":[3.0482623E-3,-1.1407204E0,6.2218297E-1,-1.1431953E0,-1.1009946E-1,1.6540928E-1,1.1437855E0,-1.1447829E0,1.8344112E-1,-3.37659E-2,1.2866347E0,-2.688509E-1,5.1921713E-1,1.9072443E-1,1.1682284E0,-2.9908461E-2,-3.4813017E-2,-2.9844727E-2,3.5283733E-2,7.205067E-2,-2.7040858E-2,-2.5163837E-2,1.71883E-2,2.0373944E-2,-3.1959083E-2,2.5106031E-2,-3.844017E-2,3.5214785E-2,-4.965316E-2],"categories":[],"categories_nodes":[],"categories_segments":[],"categories_sizes":[],"default_left":[0,0,1,1,1,0,0,0,0,0,0,0,0,0,0,0,0,0,0,0,0,0,0,0,0,0,0,0,0],"id":33,"left_children":[1,3,5,7,9,11,13,15,17,-1,19,21,23,25,27,-1,-1,-1,-1,-1,-1,-1,-1,-1,-1,-1,-1,-1,-1],"loss_changes":[1.4328386E4,1.8E1,3.1275044E3,1.5141602E1,2.7161749E1,1.0756318E3,1.4254834E2,1.5225586E1,1.2089269E1,0E0,2.1923416E1,1.5085543E3,9.7818506E2,1.4797531E2,9.637744E1,0E0,0E0,0E0,0E0,0E0,0E0,0E0,0E0,0E0,0E0,0E0,0E0,0E0,0E0],"parents":[2147483647,0,0,1,1,2,2,3,3,4,4,5,5,6,6,7,7,8,8,10,10,11,11,12,12,13,13,14,14],"right_children":[2,4,6,8,10,12,14,16,18,-1,20,22,24,26,28,-1,-1,-1,-1,-1,-1,-1,-1,-1,-1,-1,-1,-1,-1],"split_conditions":[1E0,4.055E3,1.0500309E1,5.4E0,3.4E0,5.5E1,7.4018173E0,5.87E0,4.6E0,-3.37659E-2,3.5E0,5.4E0,5.35E2,6.5589695E0,2.27E2,-2.9908461E-2,-3.4813017E-2,-2.9844727E-2,3.5283733E-2,7.205067E-2,-2.7040858E-2,-2.5163837E-2,1.71883E-2,2.0373944E-2,-3.1959083E-2,2.5106031E-2,-3.844017E-2,3.5214785E-2,-4.965316E-2],"split_indices":[6,43,55,45,38,17,42,2,35,0,48,25,50,39,44,0,0,0,0,0,0,0,0,0,0,0,0,0,0],"split_type":[0,0,0,0,0,0,0,0,0,0,0,0,0,0,0,0,0,0,0,0,0,0,0,0,0,0,0,0,0],"sum_hessian":[2.0231635E4,7.105089E3,1.3126545E4,7.087959E3,1.7130049E1,6.998868E3,6.127677E3,7.0796235E3,8.335514E0,1.0031375E1,7.0986743E0,3.1422917E3,3.8565767E3,1.534455E2,5.9742314E3,6.8394995E2,6.3956733E3,3.810493E0,4.525021E0,4.637586E0,2.4610882E0,1.8736948E3,1.2685969E3,3.5035588E3,3.530179E2,1.0693796E2,4.6507538E1,5.9629927E3,1.1238426E1],"tree_param":{"num_deleted":"0","num_feature":"59","num_nodes":"29","size_leaf_vector":"1"}},{"base_weights":[2.8521821E-3,-1.1301545E0,6.1120313E-1,-1.1958703E0,2.485151E-1,1.0078412E-1,1.0663519E0,-1.2147448E0,-8.0165625E-1,-1.985892E-1,9.285476E-1,-1.489038E-1,8.629491E-1,3.526793E-1,1.1277416E0,-3.64865E-2,-7.0273234E-3,-2.9640416E-2,1.2206952E-2,1.8674446E-3,-4.0072758E-2,1.5107117E-2,3.762096E-2,4.0423527E-2,-1.0340234E-2,3.593142E-2,-2.2535054E-2,-1.6362328E-2,3.106979E-2,1.897705E-2,3.533582E-2],"categories":[],"categories_nodes":[],"categories_segments":[],"categories_sizes":[],"default_left":[0,0,1,0,0,1,1,1,1,0,0,0,0,0,0,0,0,0,0,0,0,0,0,0,0,0,0,0,0,0,0],"id":34,"left_children":[1,3,5,7,9,11,13,15,17,19,21,23,25,27,29,-1,-1,-1,-1,-1,-1,-1,-1,-1,-1,-1,-1,-1,-1,-1,-1],"loss_changes":[1.3707317E4,6.29749E2,3.0059028E3,4.836914E1,9.654369E1,1.1610583E3,2.9927148E2,8.845703E0,6.930861E1,5.704318E1,1.6782219E1,1.346802E3,8.143989E2,3.3376074E2,1.5554785E2,0E0,0E0,0E0,0E0,0E0,0E0,0E0,0E0,0E0,0E0,0E0,0E0,0E0,0E0,0E0,0E0],"parents":[2147483647,0,0,1,1,2,2,3,3,4,4,5,5,6,6,7,7,8,8,9,9,10,10,11,11,12,12,13,13,14,14],"right_children":[2,4,6,8,10,12,14,16,18,20,22,24,26,28,30,-1,-1,-1,-1,-1,-1,-1,-1,-1,-1,-1,-1,-1,-1,-1,-1],"split_conditions":[1E0,4.4E0,6.8E0,3.8E0,5.3E0,6E0,6.2311745E0,6.1E0,7.092982E0,7.222956E0,5.9E0,1.4E1,2.78E2,1.2561E2,2.02E3,-3.64865E-2,-7.0273234E-3,-2.9640416E-2,1.2206952E-2,1.8674446E-3,-4.0072758E-2,1.5107117E-2,3.762096E-2,4.0423527E-2,-1.0340234E-2,3.593142E-2,-2.2535054E-2,-1.6362328E-2,3.106979E-2,1.897705E-2,3.533582E-2],"split_indices":[6,0,54,0,0,28,29,48,42,42,0,14,14,3,12,0,0,0,0,0,0,0,0,0,0,0,0,0,0,0,0],"split_type":[0,0,0,0,0,0,0,0,0,0,0,0,0,0,0,0,0,0,0,0,0,0,0,0,0,0,0,0,0,0,0],"sum_hessian":[1.988484E4,6.946557E3,1.2938283E4,6.6306333E3,3.1592398E2,6.099416E3,6.838867E3,6.3256855E3,3.0494772E2,1.9103273E2,1.2489125E2,4.594911E3,1.5045045E3,5.4221454E2,6.296653E3,6.315964E3,9.72165E0,2.643654E2,4.058232E1,1.5615912E2,3.4873615E1,5.5271618E1,6.961964E1,5.309283E2,4.063983E3,1.2462853E3,2.5821924E2,2.3430925E2,3.079053E2,5.799922E2,5.7166606E3],"tree_param":{"num_deleted":"0","num_feature":"59","num_nodes":"31","size_leaf_vector":"1"}},{"base_weights":[5.541424E-3,5.967573E-1,-1.1191611E0,1.4937557E-1,1.1259924E0,-1.187136E0,2.5926322E-1,-4.301742E-1,4.4997925E-1,3.153438E-1,1.1571448E0,-1.2048473E0,-8.283907E-1,-1.6227645E-1,9.514501E-1,-2.757112E-2,3.302982E-2,2.4486674E-2,4.579083E-3,2.1195196E-2,-3.0317383E-2,3.488358E-2,-5.3293094E-2,-3.6190804E-2,-4.575177E-3,-3.0454347E-2,9.668339E-3,-2.6598638E-2,8.255665E-3,3.184906E-2,-1.0808334E-2],"categories":[],"categories_nodes":[],"categories_segments":[],"categories_sizes":[],"default_left":[0,1,0,0,1,0,0,0,0,1,0,1,1,0,1,0,0,0,0,0,0,0,0,0,0,0,0,0,0,0,0],"id":35,"left_children":[1,3,5,7,9,11,13,15,17,19,21,23,25,27,29,-1,-1,-1,-1,-1,-1,-1,-1,-1,-1,-1,-1,-1,-1,-1,-1],"loss_changes":[1.3078348E4,3.0521997E3,6.352744E2,1.2174752E3,1.4876855E2,4.003711E1,9.332066E1,1.7876853E3,5.0096136E2,1.1477413E2,9.6171875E1,9.610352E0,6.631027E1,6.3397305E1,1.7870773E1,0E0,0E0,0E0,0E0,0E0,0E0,0E0,0E0,0E0,0E0,0E0,0E0,0E0,0E0,0E0,0E0],"parents":[2147483647,0,0,1,1,2,2,3,3,4,4,5,5,6,6,7,7,8,8,9,9,10,10,11,11,12,12,13,13,14,14],"right_children":[2,4,6,8,10,12,14,16,18,20,22,24,26,28,30,-1,-1,-1,-1,-1,-1,-1,-1,-1,-1,-1,-1,-1,-1,-1,-1],"split_conditions":[3.4400853E-6,1.0500309E1,4.4E0,6.9162216E0,5.85E0,3.8E0,5.3E0,7.4775764E1,2E0,2.3E0,5.53E2,6.1E0,7.092982E0,5E0,2.4968056E1,-2.757112E-2,3.302982E-2,2.4486674E-2,4.579083E-3,2.1195196E-2,-3.0317383E-2,3.488358E-2,-5.3293094E-2,-3.6190804E-2,-4.575177E-3,-3.0454347E-2,9.668339E-3,-2.6598638E-2,8.255665E-3,3.184906E-2,-1.0808334E-2],"split_indices":[4,55,0,29,29,0,0,9,16,19,34,48,42,40,58,0,0,0,0,0,0,0,0,0,0,0,0,0,0,0,0],"split_type":[0,0,0,0,0,0,0,0,0,0,0,0,0,0,0,0,0,0,0,0,0,0,0,0,0,0,0,0,0,0,0],"sum_hessian":[1.96664E4,1.2890693E4,6.775706E3,6.9862466E3,5.9044463E3,6.4574077E3,3.1829846E2,2.3859043E3,4.600343E3,2.1891664E2,5.68553E3,6.151356E3,3.060519E2,1.9829997E2,1.19998505E2,1.8088E3,5.771042E2,2.0605627E3,2.5397798E3,1.6940681E2,4.950982E1,5.67522E3,1.0309688E1,6.14238E3,8.976161E0,2.6341696E2,4.263496E1,7.428081E1,1.24019165E2,1.108756E2,9.122897E0],"tree_param":{"num_deleted":"0","num_feature":"59","num_nodes":"31","size_leaf_vector":"1"}},{"base_weights":[-6.8652057E-3,-1.117211E0,5.8093417E-1,-1.1821917E0,2.1198656E-1,1.4257316E-1,1.1142056E0,-1.1987696E0,-8.456574E-1,-2.4335678E-1,9.27988E-1,2.7908537E-1,-1.0499378E0,5.774091E-2,1.1419389E0,-3.600765E-2,-2.8133357E-2,-2.7884338E-2,3.5795495E-2,-3.0492028E-2,3.43429E-3,-1.0226162E-2,3.1870708E-2,-4.114129E-3,2.1986209E-2,-4.083368E-2,3.7783977E-2,2.0016171E-2,-3.8472604E-2,-2.7155504E-3,3.462742E-2],"categories":[],"categories_nodes":[],"categories_segments":[],"categories_sizes":[],"default_left":[0,0,1,0,0,0,0,1,0,1,1,0,0,1,1,0,0,0,0,0,0,0,0,0,0,0,0,0,0,0,0],"id":36,"left_children":[1,3,5,7,9,11,13,15,17,19,21,23,25,27,29,-1,-1,-1,-1,-1,-1,-1,-1,-1,-1,-1,-1,-1,-1,-1,-1],"loss_changes":[1.2529494E4,5.742002E2,2.9341782E3,3.4333008E1,1.0147857E2,1.1220076E3,1.6585693E2,1.2148438E0,5.252057E1,5.284863E1,2.0981117E1,1.1680205E3,5.104995E2,1.200333E2,8.381152E1,0E0,0E0,0E0,0E0,0E0,0E0,0E0,0E0,0E0,0E0,0E0,0E0,0E0,0E0,0E0,0E0],"parents":[2147483647,0,0,1,1,2,2,3,3,4,4,5,5,6,6,7,7,8,8,9,9,10,10,11,11,12,12,13,13,14,14],"right_children":[2,4,6,8,10,12,14,16,18,20,22,24,26,28,30,-1,-1,-1,-1,-1,-1,-1,-1,-1,-1,-1,-1,-1,-1,-1,-1],"split_conditions":[1E0,4.4E0,1.0500309E1,3.8E0,5.3E0,6.6909723E0,7.4018173E0,5.6E0,1E1,5.272952E0,2.9E0,6E0,8.0552185E1,6.6621833E0,3.4E0,-3.600765E-2,-2.8133357E-2,-2.7884338E-2,3.5795495E-2,-3.0492028E-2,3.43429E-3,-1.0226162E-2,3.1870708E-2,-4.114129E-3,2.1986209E-2,-4.083368E-2,3.7783977E-2,2.0016171E-2,-3.8472604E-2,-2.7155504E-3,3.462742E-2],"split_indices":[6,0,55,0,0,8,42,48,27,42,41,10,9,39,28,0,0,0,0,0,0,0,0,0,0,0,0,0,0,0,0],"split_type":[0,0,0,0,0,0,0,0,0,0,0,0,0,0,0,0,0,0,0,0,0,0,0,0,0,0,0,0,0,0,0],"sum_hessian":[1.9195572E4,6.644082E3,1.2551489E4,6.334516E3,3.0956598E2,6.889464E3,5.662026E3,6.0346816E3,2.9983405E2,1.8963019E2,1.1993579E2,6.1824917E3,7.069723E2,1.449114E2,5.5171143E3,5.99695E3,3.773157E1,2.8851672E2,1.131734E1,5.942059E1,1.302096E2,1.1337524E1,1.0859827E2,3.2250833E3,2.9574084E3,6.233839E2,8.358837E1,9.9956406E1,4.495501E1,5.449075E1,5.4626235E3],"tree_param":{"num_deleted":"0","num_feature":"59","num_nodes":"31","size_leaf_vector":"1"}},{"base_weights":[-2.2474525E-3,-1.1014737E0,5.737272E-1,-1.1739905E0,2.726704E-1,1.382304E-1,1.1053598E0,-1.1895154E0,-8.539698E-1,-2.0478079E-1,9.5371366E-1,-3.7888578E-1,4.4438198E-1,-1.0329185E-1,1.1272544E0,-3.578194E-2,-2.005341E-2,-2.819704E-2,3.0375127E-2,8.046639E-3,-2.7363997E-2,-3.1515177E-2,2.9760387E-2,-2.8219083E-2,2.7972825E-2,2.4958663E-2,3.5039934E-3,2.3470573E-2,-4.4438854E-2,3.399E-2,-3.5726175E-2],"categories":[],"categories_nodes":[],"categories_segments":[],"categories_sizes":[],"default_left":[0,0,1,0,0,1,1,1,0,0,0,0,0,0,0,0,0,0,0,0,0,0,0,0,0,0,0,0,0,0,0],"id":37,"left_children":[1,3,5,7,9,11,13,15,17,19,21,23,25,27,29,-1,-1,-1,-1,-1,-1,-1,-1,-1,-1,-1,-1,-1,-1,-1,-1],"loss_changes":[1.1961693E4,6.476245E2,2.8700925E3,2.9641602E1,1.0633912E2,1.0792319E3,1.4784033E2,9.05957E0,4.7310226E1,6.4725365E1,1.1382416E1,1.8683751E3,5.4351654E2,1.2349304E2,7.437744E1,0E0,0E0,0E0,0E0,0E0,0E0,0E0,0E0,0E0,0E0,0E0,0E0,0E0,0E0,0E0,0E0],"parents":[2147483647,0,0,1,1,2,2,3,3,4,4,5,5,6,6,7,7,8,8,9,9,10,10,11,11,12,12,13,13,14,14],"right_children":[2,4,6,8,10,12,14,16,18,20,22,24,26,28,30,-1,-1,-1,-1,-1,-1,-1,-1,-1,-1,-1,-1,-1,-1,-1,-1],"split_conditions":[1E0,4.4E0,1.0500309E1,3.8E0,5.3E0,6.9162216E0,3.4E0,5.6E0,1E1,6.193516E0,2.9E0,4.2081432E1,2E0,1.49E2,5.53E2,-3.578194E-2,-2.005341E-2,-2.819704E-2,3.0375127E-2,8.046639E-3,-2.7363997E-2,-3.1515177E-2,2.9760387E-2,-2.8219083E-2,2.7972825E-2,2.4958663E-2,3.5039934E-3,2.3470573E-2,-4.4438854E-2,3.399E-2,-3.5726175E-2],"split_indices":[6,0,55,0,0,29,28,48,27,52,41,9,16,47,34,0,0,0,0,0,0,0,0,0,0,0,0,0,0,0,0],"split_type":[0,0,0,0,0,0,0,0,0,0,0,0,0,0,0,0,0,0,0,0,0,0,0,0,0,0,0,0,0,0,0],"sum_hessian":[1.8891059E4,6.4948896E3,1.2396169E4,6.169459E3,3.2543076E2,6.814887E3,5.5812817E3,5.8814204E3,2.880384E2,1.9172185E2,1.3370891E2,2.5341887E3,4.2806987E3,9.923933E1,5.4820425E3,5.844064E3,3.7356537E1,2.7583548E2,1.2202899E1,1.152654E2,7.6456436E1,2.0116105E0,1.316973E2,1.7743583E3,7.598305E2,1.9600996E3,2.320599E3,6.067542E1,3.8563904E1,5.4689985E3,1.3043855E1],"tree_param":{"num_deleted":"0","num_feature":"59","num_nodes":"31","size_leaf_vector":"1"}},{"base_weights":[3.4693474E-4,-1.0999978E0,5.6734484E-1,-1.1524191E0,7.0748097E-1,1.4391302E-1,1.0984198E0,-1.1840042E0,-7.1258193E-1,-5.359762E-1,8.7558365E-1,2.917793E-1,-8.998274E-1,-1.8414256E-1,1.1241453E0,-3.5568338E-2,-4.961584E-3,-6.7930426E-3,-3.1131387E-2,-4.3201476E-2,1.2442476E-2,1.8346492E-2,3.803759E-2,-3.213457E-3,2.2820417E-2,-3.939663E-2,3.71881E-2,2.2881927E-2,-4.266851E-2,3.39051E-2,-3.5621494E-2],"categories":[],"categories_nodes":[],"categories_segments":[],"categories_sizes":[],"default_left":[0,0,1,0,1,0,0,1,0,0,0,0,0,0,0,0,0,0,0,0,0,0,0,0,0,0,0,0,0,0,0],"id":38,"left_children":[1,3,5,7,9,11,13,15,17,19,21,23,25,27,29,-1,-1,-1,-1,-1,-1,-1,-1,-1,-1,-1,-1,-1,-1,-1,-1],"loss_changes":[1.163564E4,6.017383E2,2.7675688E3,8.478467E1,3.79635E1,1.0573123E3,1.8035107E2,9.216309E0,6.543669E1,1.9491264E1,1.56324005E1,1.1223257E3,7.535225E2,1.2795511E2,7.588379E1,0E0,0E0,0E0,0E0,0E0,0E0,0E0,0E0,0E0,0E0,0E0,0E0,0E0,0E0,0E0,0E0],"parents":[2147483647,0,0,1,1,2,2,3,3,4,4,5,5,6,6,7,7,8,8,9,9,10,10,11,11,12,12,13,13,14,14],"right_children":[2,4,6,8,10,12,14,16,18,20,22,24,26,28,30,-1,-1,-1,-1,-1,-1,-1,-1,-1,-1,-1,-1,-1,-1,-1,-1],"split_conditions":[1E0,5E0,1.0500309E1,3.8E0,4.6015434E0,4.6763887E0,3.5E0,6.1E0,3.5E0,1.2661E2,5.9E0,6E0,6.935351E1,1.72E1,5.53E2,-3.5568338E-2,-4.961584E-3,-6.7930426E-3,-3.1131387E-2,-4.3201476E-2,1.2442476E-2,1.8346492E-2,3.803759E-2,-3.213457E-3,2.2820417E-2,-3.939663E-2,3.71881E-2,2.2881927E-2,-4.266851E-2,3.39051E-2,-3.5621494E-2],"split_indices":[6,0,55,0,42,8,28,48,48,3,0,10,9,2,34,0,0,0,0,0,0,0,0,0,0,0,0,0,0,0,0],"split_type":[0,0,0,0,0,0,0,0,0,0,0,0,0,0,0,0,0,0,0,0,0,0,0,0,0,0,0,0,0,0,0],"sum_hessian":[1.8648053E4,6.341153E3,1.2306899E4,6.1627793E3,1.7837366E2,6.8481025E3,5.4587964E3,5.7482974E3,4.144817E2,2.0981907E1,1.5739174E2,5.9989536E3,8.491489E2,1.072176E2,5.3515786E3,5.7390786E3,9.218731E0,1.6678915E2,2.4769252E2,1.0491009E1,1.0490898E1,9.560819E1,6.1783554E1,3.2418672E3,2.7570867E3,7.1196497E2,1.3718394E2,6.0972557E1,4.624504E1,5.3381763E3,1.3402381E1],"tree_param":{"num_deleted":"0","num_feature":"59","num_nodes":"31","size_leaf_vector":"1"}},{"base_weights":[7.1964064E-3,-1.0859956E0,5.646483E-1,-1.1165038E0,-8.114557E-1,9.55496E-2,1.0170659E0,-1.1216086E0,-8.0942523E-1,-8.5729426E-1,4.713862E-1,-1.4710358E-1,8.259711E-1,2.1029994E-1,1.0794343E0,-3.369437E-2,-8.32315E-3,-2.7025199E-2,5.716079E-2,-2.6519395E-2,1.06162885E-2,5.531098E-2,-1.6660703E-2,-1.1737735E-2,3.137353E-2,3.4717087E-2,-2.0230444E-2,-2.276789E-2,2.9681195E-2,1.7485904E-2,3.405089E-2],"categories":[],"categories_nodes":[],"categories_segments":[],"categories_sizes":[],"default_left":[0,0,1,0,0,1,0,1,0,1,0,0,0,0,0,0,0,0,0,0,0,0,0,0,0,0,0,0,0,0,0],"id":39,"left_children":[1,3,5,7,9,11,13,15,17,19,21,23,25,27,29,-1,-1,-1,-1,-1,-1,-1,-1,-1,-1,-1,-1,-1,-1,-1,-1],"loss_changes":[1.1200768E4,5.1084473E1,2.5832961E3,7.8447266E0,3.7124237E1,1.0595288E3,3.1155566E2,6.8120117E0,2.5267498E1,1.9810822E1,3.228767E1,1.3074133E3,7.4165845E2,3.3744424E2,1.5812207E2,0E0,0E0,0E0,0E0,0E0,0E0,0E0,0E0,0E0,0E0,0E0,0E0,0E0,0E0,0E0,0E0],"parents":[2147483647,0,0,1,1,2,2,3,3,4,4,5,5,6,6,7,7,8,8,9,9,10,10,11,11,12,12,13,13,14,14],"right_children":[2,4,6,8,10,12,14,16,18,20,22,24,26,28,30,-1,-1,-1,-1,-1,-1,-1,-1,-1,-1,-1,-1,-1,-1,-1,-1],"split_conditions":[1E0,1.2665E2,6.8E0,1.61E2,1.032E1,6E0,6.184956E0,9.0640335E0,1.9E1,7.793657E1,4.5506945E0,7.4775764E1,2.78E2,1.2557E2,2.02E3,-3.369437E-2,-8.32315E-3,-2.7025199E-2,5.716079E-2,-2.6519395E-2,1.06162885E-2,5.531098E-2,-1.6660703E-2,-1.1737735E-2,3.137353E-2,3.4717087E-2,-2.0230444E-2,-2.276789E-2,2.9681195E-2,1.7485904E-2,3.405089E-2],"split_indices":[6,3,54,1,2,28,29,49,34,56,58,9,14,3,12,0,0,0,0,0,0,0,0,0,0,0,0,0,0,0,0],"split_type":[0,0,0,0,0,0,0,0,0,0,0,0,0,0,0,0,0,0,0,0,0,0,0,0,0,0,0,0,0,0,0],"sum_hessian":[1.837793E4,6.2062344E3,1.2171695E4,5.5827812E3,6.2345306E2,5.976278E3,6.195417E3,5.488883E3,9.389843E1,6.0226465E2,2.1188414E1,4.4865884E3,1.4896898E3,4.448919E2,5.7505254E3,5.4785767E3,1.0306103E1,9.1486E1,2.4124296E0,5.895454E2,1.2719251E1,8.727641E0,1.2460773E1,3.724872E3,7.6171606E2,1.2204479E3,2.6924185E2,1.9826286E2,2.4662904E2,5.801531E2,5.170372E3],"tree_param":{"num_deleted":"0","num_feature":"59","num_nodes":"31","size_leaf_vector":"1"}},{"base_weights":[-5.625047E-3,-1.0799981E0,5.3914636E-1,-1.1017594E0,-7.7743906E-1,1.2461599E-1,1.0750705E0,-1.1067156E0,-6.010607E-1,-1.1040691E0,-5.716954E-1,-3.6859158E-1,4.1486564E-1,-1.20231315E-1,1.1034367E0,-3.363266E-2,-2.9348105E-2,-2.2823552E-2,7.489732E-2,-3.489367E-2,4.0231053E-2,3.6971044E-2,-1.9429235E-2,-2.6422542E-2,3.1305715E-2,1.5006294E-2,-3.1623673E-2,1.4914535E-2,-5.5295005E-2,5.638994E-3,3.3628415E-2],"categories":[],"categories_nodes":[],"categories_segments":[],"categories_sizes":[],"default_left":[0,0,1,1,0,1,1,0,1,0,0,0,0,0,0,0,0,0,0,0,0,0,0,0,0,0,0,0,0,0,0],"id":40,"left_children":[1,3,5,7,9,11,13,15,17,19,21,23,25,27,29,-1,-1,-1,-1,-1,-1,-1,-1,-1,-1,-1,-1,-1,-1,-1,-1],"loss_changes":[1.0552895E4,3.908545E1,2.657723E3,1.337207E1,2.6951355E1,9.66022E2,1.7704834E2,9.2421875E0,3.0415031E1,2.4308228E1,3.558448E1,1.8090961E3,5.3309064E2,1.3053659E2,8.149512E1,0E0,0E0,0E0,0E0,0E0,0E0,0E0,0E0,0E0,0E0,0E0,0E0,0E0,0E0,0E0,0E0],"parents":[2147483647,0,0,1,1,2,2,3,3,4,4,5,5,6,6,7,7,8,8,9,9,10,10,11,11,12,12,13,13,14,14],"right_children":[2,4,6,8,10,12,14,16,18,20,22,24,26,28,30,-1,-1,-1,-1,-1,-1,-1,-1,-1,-1,-1,-1,-1,-1,-1,-1],"split_conditions":[1E0,1.268E2,1.0500309E1,2.9744444E1,5.106829E0,6.9162216E0,3.5E0,9.1E1,4.2E0,7.4E0,3.9144485E0,8.875539E1,2.96E2,8E0,7.4018173E0,-3.363266E-2,-2.9348105E-2,-2.2823552E-2,7.489732E-2,-3.489367E-2,4.0231053E-2,3.6971044E-2,-1.9429235E-2,-2.6422542E-2,3.1305715E-2,1.5006294E-2,-3.1623673E-2,1.4914535E-2,-5.5295005E-2,5.638994E-3,3.3628415E-2],"split_indices":[6,3,55,58,29,29,28,1,45,10,23,9,47,21,42,0,0,0,0,0,0,0,0,0,0,0,0,0,0,0,0],"split_type":[0,0,0,0,0,0,0,0,0,0,0,0,0,0,0,0,0,0,0,0,0,0,0,0,0,0,0,0,0,0,0],"sum_hessian":[1.8028273E4,6.0653965E3,1.1962878E4,5.655954E3,4.0944205E2,6.746094E3,5.2167837E3,5.59932E3,5.66344E1,1.5654752E2,2.5289453E2,2.499145E3,4.246949E3,1.2085674E2,5.095927E3,5.0288594E3,5.7046045E2,5.4574745E1,2.0596552E0,1.5336775E2,3.1797676E0,9.600939E0,2.432936E2,1.8342555E3,6.648895E2,4.014384E3,2.3256508E2,8.949816E1,3.1358582E1,9.5862335E1,5.0000645E3],"tree_param":{"num_deleted":"0","num_feature":"59","num_nodes":"31","size_leaf_vector":"1"}},{"base_weights":[-2.0520582E-3,-1.0754554E0,5.3951335E-1,-1.1476351E0,2.6690802E-1,1.4393267E-1,1.065237E0,-1.1667678E0,-7.671111E-1,-1.17317505E-1,8.917467E-1,2.8650087E-1,-8.6368984E-1,4.8925066E-1,1.1133033E0,-3.5054088E-2,-5.5045136E-3,-2.5685309E-2,3.4665074E-2,-2.890838E-2,7.4964897E-3,2.8919881E-2,-2.2632414E-2,-2.6809764E-3,2.198347E-2,-3.9137617E-2,3.594348E-2,2.2312649E-2,-3.7369337E-2,-2.246401E-2,3.3714753E-2],"categories":[],"categories_nodes":[],"categories_segments":[],"categories_sizes":[],"default_left":[0,0,1,0,0,0,1,1,0,1,1,0,0,0,0,0,0,0,0,0,0,0,0,0,0,0,0,0,0,0,0],"id":41,"left_children":[1,3,5,7,9,11,13,15,17,19,21,23,25,27,29,-1,-1,-1,-1,-1,-1,-1,-1,-1,-1,-1,-1,-1,-1,-1,-1],"loss_changes":[1.0333824E4,5.7789453E2,2.4570364E3,4.029248E1,7.3326904E1,9.6896124E2,1.399043E2,8.795898E0,4.7865646E1,5.9205315E1,1.4553261E1,9.911279E2,7.6161365E2,1.7423926E2,9.256299E1,0E0,0E0,0E0,0E0,0E0,0E0,0E0,0E0,0E0,0E0,0E0,0E0,0E0,0E0,0E0,0E0],"parents":[2147483647,0,0,1,1,2,2,3,3,4,4,5,5,6,6,7,7,8,8,9,9,10,10,11,11,12,12,13,13,14,14],"right_children":[2,4,6,8,10,12,14,16,18,20,22,24,26,28,30,-1,-1,-1,-1,-1,-1,-1,-1,-1,-1,-1,-1,-1,-1,-1,-1],"split_conditions":[1E0,4.4E0,1.0500309E1,3.8E0,5.3E0,4.6763887E0,6.184956E0,6.1E0,1E1,5.272952E0,7.415663E0,6E0,6.327691E1,1.42E2,7.5440545E0,-3.5054088E-2,-5.5045136E-3,-2.5685309E-2,3.4665074E-2,-2.890838E-2,7.4964897E-3,2.8919881E-2,-2.2632414E-2,-2.6809764E-3,2.198347E-2,-3.9137617E-2,3.594348E-2,2.2312649E-2,-3.7369337E-2,-2.246401E-2,3.3714753E-2],"split_indices":[6,0,55,0,0,8,29,48,27,42,52,10,9,34,42,0,0,0,0,0,0,0,0,0,0,0,0,0,0,0,0],"split_type":[0,0,0,0,0,0,0,0,0,0,0,0,0,0,0,0,0,0,0,0,0,0,0,0,0,0,0,0,0,0,0],"sum_hessian":[1.7774541E4,5.960203E3,1.1814337E4,5.656211E3,3.0399246E2,6.742339E3,5.071998E3,5.3834634E3,2.7274768E2,1.8874297E2,1.152495E2,5.907241E3,8.35098E2,3.915204E2,4.6804775E3,5.3739736E3,9.489582E0,2.6120206E2,1.1545608E1,5.6621628E1,1.3212134E2,1.1080089E2,4.4486103E0,3.2070242E3,2.7002168E3,6.8828265E2,1.468154E2,3.4193134E2,4.9589077E1,2.5904053E1,4.6545737E3],"tree_param":{"num_deleted":"0","num_feature":"59","num_nodes":"31","size_leaf_vector":"1"}},{"base_weights":[2.1643129E-3,-1.0635849E0,5.3234285E-1,-1.0968109E0,-7.69708E-1,1.3603568E-1,1.0612005E0,-1.0984316E0,-1.780355E-1,-8.1681454E-1,4.9297652E-1,2.5641358E-1,-9.879535E-1,-3.4457903E-2,1.0914534E0,-3.3343635E-2,-2.9440187E-2,7.258271E-2,-3.3543453E-2,-3.300939E-2,-1.9590616E-2,-3.1646103E-2,3.8078375E-2,-3.5324062E-3,2.0284336E-2,-3.7561066E-2,3.5674773E-2,1.7382987E-2,-3.4507718E-2,3.3047345E-2,-1.4084906E-2],"categories":[],"categories_nodes":[],"categories_segments":[],"categories_sizes":[],"default_left":[0,0,1,1,0,0,0,0,0,0,0,0,0,1,0,0,0,0,0,0,0,0,0,0,0,0,0,0,0,0,0],"id":42,"left_children":[1,3,5,7,9,11,13,15,17,19,21,23,25,27,29,-1,-1,-1,-1,-1,-1,-1,-1,-1,-1,-1,-1,-1,-1,-1,-1],"loss_changes":[9.890944E3,5.5938477E1,2.4498948E3,7.580078E0,3.5737152E1,9.045387E2,1.6601367E2,6.8588867E0,2.8073032E1,2.5891754E1,2.7760357E1,9.4827136E2,3.7332642E2,9.3490585E1,7.752588E1,0E0,0E0,0E0,0E0,0E0,0E0,0E0,0E0,0E0,0E0,0E0,0E0,0E0,0E0,0E0,0E0],"parents":[2147483647,0,0,1,1,2,2,3,3,4,4,5,5,6,6,7,7,8,8,9,9,10,10,11,11,12,12,13,13,14,14],"right_children":[2,4,6,8,10,12,14,16,18,20,22,24,26,28,30,-1,-1,-1,-1,-1,-1,-1,-1,-1,-1,-1,-1,-1,-1,-1,-1],"split_conditions":[1E0,1.2665E2,1.0500309E1,6.1E0,1.032E1,6.6909723E0,7.4018173E0,9.1E1,2.2E0,6.7568293E0,1.036E3,6E0,2.682E3,6.5589695E0,2.07E2,-3.3343635E-2,-2.9440187E-2,7.258271E-2,-3.3543453E-2,-3.300939E-2,-1.9590616E-2,-3.1646103E-2,3.8078375E-2,-3.5324062E-3,2.0284336E-2,-3.7561066E-2,3.5674773E-2,1.7382987E-2,-3.4507718E-2,3.3047345E-2,-1.4084906E-2],"split_indices":[6,3,55,48,2,8,42,1,35,46,43,10,43,39,44,0,0,0,0,0,0,0,0,0,0,0,0,0,0,0,0],"split_type":[0,0,0,0,0,0,0,0,0,0,0,0,0,0,0,0,0,0,0,0,0,0,0,0,0,0,0,0,0,0,0],"sum_hessian":[1.7502938E4,5.814266E3,1.1688672E4,5.221217E3,5.930494E2,6.6823867E3,5.0062856E3,5.2118276E3,9.388914E0,5.720608E2,2.0988588E1,6.036641E3,6.457453E2,1.3451378E2,4.8717715E3,4.6825483E3,5.292791E2,2.0768628E0,7.312052E0,2.0738913E2,3.646717E2,6.8906627E0,1.4097925E1,3.1919568E3,2.8446843E3,5.7626917E2,6.947611E1,8.7083084E1,4.74307E1,4.8406685E3,3.1103136E1],"tree_param":{"num_deleted":"0","num_feature":"59","num_nodes":"31","size_leaf_vector":"1"}},{"base_weights":[1.3649602E-3,5.1765573E-1,-1.0474387E0,1.1482388E-1,1.058684E0,-1.1265903E0,4.344312E-1,2.5109202E-1,-8.607519E-1,9.433059E-2,1.0848191E0,-1.1530346E0,-6.687342E-1,-4.582348E-3,9.650749E-1,-3.8375356E-3,2.0969126E-2,-3.853492E-2,3.137935E-2,2.1035032E-2,-4.4223454E-2,3.2737587E-2,-3.5770405E-2,-3.47012E-2,-1.70471E-2,-2.5303353E-2,1.1249292E-2,-1.0243947E-2,3.049232E-2,3.1879995E-2,6.745136E-3],"categories":[],"categories_nodes":[],"categories_segments":[],"categories_sizes":[],"default_left":[0,1,0,0,1,0,0,0,0,0,0,1,1,0,0,0,0,0,0,0,0,0,0,0,0,0,0,0,0,0,0],"id":43,"left_children":[1,3,5,7,9,11,13,15,17,19,21,23,25,27,29,-1,-1,-1,-1,-1,-1,-1,-1,-1,-1,-1,-1,-1,-1,-1,-1],"loss_changes":[9.336448E3,2.51808E3,6.676294E2,8.808349E2,1.2418164E2,6.460742E1,6.735848E1,9.8686597E2,6.5748615E2,1.2591857E2,7.163965E1,1.030127E1,5.4514038E1,5.5110703E1,9.217827E0,0E0,0E0,0E0,0E0,0E0,0E0,0E0,0E0,0E0,0E0,0E0,0E0,0E0,0E0,0E0,0E0],"parents":[2147483647,0,0,1,1,2,2,3,3,4,4,5,5,6,6,7,7,8,8,9,9,10,10,11,11,12,12,13,13,14,14],"right_children":[2,4,6,8,10,12,14,16,18,20,22,24,26,28,30,-1,-1,-1,-1,-1,-1,-1,-1,-1,-1,-1,-1,-1,-1,-1,-1],"split_conditions":[3.4400853E-6,1.0500309E1,4.5E0,4.6763887E0,3.5E0,3.8E0,5.3E0,6E0,4.3744507E1,1.739E1,5.53E2,5.6E0,7.092982E0,2.1E1,7.5007253E0,-3.8375356E-3,2.0969126E-2,-3.853492E-2,3.137935E-2,2.1035032E-2,-4.4223454E-2,3.2737587E-2,-3.5770405E-2,-3.47012E-2,-1.70471E-2,-2.5303353E-2,1.1249292E-2,-1.0243947E-2,3.049232E-2,3.1879995E-2,6.745136E-3],"split_indices":[4,55,0,8,28,0,0,10,9,2,34,48,42,15,42,0,0,0,0,0,0,0,0,0,0,0,0,0,0,0,0],"split_type":[0,0,0,0,0,0,0,0,0,0,0,0,0,0,0,0,0,0,0,0,0,0,0,0,0,0,0,0,0,0,0],"sum_hessian":[1.7240219E4,1.1553383E4,5.6868354E3,6.6231875E3,4.9301953E3,5.398712E3,2.8812317E2,5.812098E3,8.110894E2,1.3021048E2,4.799985E3,5.1024897E3,2.9622217E2,1.5821756E2,1.2990561E2,3.148472E3,2.663626E3,6.6387775E2,1.4721167E2,9.428445E1,3.592603E1,4.7869805E3,1.3004192E1,5.069678E3,3.2811848E1,2.5391086E2,4.231129E1,1.1946496E2,3.8752598E1,1.14389145E2,1.5516457E1],"tree_param":{"num_deleted":"0","num_feature":"59","num_nodes":"31","size_leaf_vector":"1"}},{"base_weights":[1.7727775E-3,-8.3351296E-1,6.604564E-1,-1.0591508E0,-2.8348672E-1,2.6134363E-1,1.0930458E0,-1.1300187E0,2.4928774E-1,-8.67161E-1,9.4226295E-1,1.371703E0,1.5509468E-1,-3.786658E-1,1.1042964E0,-3.4441628E-2,-2.3360157E-2,2.958099E-5,3.442017E-2,-3.0787349E-2,2.214658E-2,2.9919066E-2,-4.1047897E-2,-4.3283988E-2,4.435749E-2,-2.5992453E-2,1.1492002E-2,-5.5342928E-2,1.6859723E-2,3.3214908E-2,-3.0794509E-2],"categories":[],"categories_nodes":[],"categories_segments":[],"categories_sizes":[],"default_left":[1,0,0,0,0,0,0,0,0,0,0,0,0,0,0,0,0,0,0,0,0,0,0,0,0,0,0,0,0,0,0],"id":44,"left_children":[1,3,5,7,9,11,13,15,17,19,21,23,25,27,29,-1,-1,-1,-1,-1,-1,-1,-1,-1,-1,-1,-1,-1,-1,-1,-1],"loss_changes":[9.31632E3,9.262373E2,1.6342612E3,4.911333E2,1.5555334E3,5.8087E2,7.5635254E1,3.0927246E1,6.0829605E1,3.7685327E2,9.056976E1,